{"layers":[{"0":{},"1":{},"2":{},"3":{},"4":{},"5":{},"6":{},"7":{},"8":{},"9":{},"10":{},"11":{},"12":{},"13":{},"14":{},"15":{},"16":{},"17":{},"18":{},"19":{},"20":{},"21":{},"22":{},"23":{},"24":{},"25":{},"26":{},"27":{},"28":{},"29":{},"30":{},"31":{},"32":{},"33":{},"34":{},"35":{},"36":{},"37":{},"38":{},"39":{},"40":{},"41":{},"42":{},"43":{},"44":{},"45":{},"46":{},"47":{},"48":{},"49":{},"50":{},"51":{},"52":{},"53":{},"54":{},"55":{},"56":{},"57":{},"58":{},"59":{},"60":{},"61":{},"62":{},"63":{},"64":{},"65":{},"66":{},"67":{},"68":{},"69":{},"70":{},"71":{},"72":{},"73":{},"74":{},"75":{},"76":{},"77":{},"78":{},"79":{},"80":{},"81":{},"82":{},"83":{},"84":{},"85":{},"86":{},"87":{},"88":{},"89":{},"90":{},"91":{},"92":{},"93":{},"94":{},"95":{},"96":{},"97":{},"98":{},"99":{},"100":{},"101":{},"102":{},"103":{},"104":{},"105":{},"106":{},"107":{},"108":{},"109":{},"110":{},"111":{},"112":{},"113":{},"114":{},"115":{},"116":{},"117":{},"118":{},"119":{},"120":{},"121":{},"122":{},"123":{},"124":{},"125":{},"126":{},"127":{},"128":{},"129":{},"130":{},"131":{},"132":{},"133":{},"134":{},"135":{},"136":{},"137":{},"138":{},"139":{},"140":{},"141":{},"142":{},"143":{},"144":{},"145":{},"146":{},"147":{},"148":{},"149":{},"150":{},"151":{},"152":{},"153":{},"154":{},"155":{},"156":{},"157":{},"158":{},"159":{},"160":{},"161":{},"162":{},"163":{},"164":{},"165":{},"166":{},"167":{},"168":{},"169":{},"170":{},"171":{},"172":{},"173":{},"174":{},"175":{},"176":{},"177":{},"178":{},"179":{},"180":{},"181":{},"182":{},"183":{},"184":{},"185":{},"186":{},"187":{},"188":{},"189":{},"190":{},"191":{},"192":{},"193":{},"194":{},"195":{},"196":{},"197":{},"198":{},"199":{},"200":{},"201":{},"202":{},"203":{},"204":{},"205":{},"206":{},"207":{},"208":{},"209":{},"210":{},"211":{},"212":{},"213":{},"214":{},"215":{},"216":{},"217":{},"218":{},"219":{},"220":{},"221":{},"222":{},"223":{},"224":{}},{"0":{"bias":-0.09762689146983634,"weights":{"0":0.047006087588064245,"1":-0.013286300777283811,"2":-0.325695385000276,"3":-0.3301749132711474,"4":0.11388874367559894,"5":-0.1884524660364041,"6":0.11449985672867866,"7":-0.2532129954118893,"8":-0.24445565043252923,"9":-0.32238362305262674,"10":-0.28417729748556664,"11":0.06898710268657876,"12":-0.3620546636379506,"13":-0.13306215285534628,"14":-0.2256259871456822,"15":-0.059371600202548495,"16":-0.2558618576780492,"17":-0.23045472857585442,"18":0.029425108054373476,"19":-0.07226757003077719,"20":-0.017977212115593912,"21":-0.1221482794346329,"22":-0.028602589658969058,"23":-0.39122916546258946,"24":-0.31345392581792364,"25":0.032459171562364025,"26":-0.009225835931119582,"27":-0.25977980954197283,"28":-0.16178432307441862,"29":0.16230666240966304,"30":0.0331071102817178,"31":-0.08274750157347621,"32":0.08303019024044653,"33":0.1890486299150463,"34":-0.014108826003421848,"35":-0.10261125328625699,"36":0.014102418303289782,"37":0.11240523264686737,"38":0.015238560750157126,"39":0.003101610653307572,"40":0.18120682703515806,"41":-0.0926874264628349,"42":-0.17123860042788366,"43":-0.205585628625043,"44":0.059732882548794955,"45":-0.017464724357825007,"46":0.058199184337502805,"47":-0.04112733270487465,"48":-0.10584182677472873,"49":0.31620737983258995,"50":0.04511733282260591,"51":-0.01342838686214528,"52":-0.14558620463239233,"53":0.09155242041838756,"54":-0.23825026508020178,"55":0.017633455633554448,"56":0.17342960941136953,"57":-0.1464497197722755,"58":-0.13466131294488484,"59":0.27746188560253243,"60":0.12631635573930472,"61":0.022558919676248807,"62":0.09540183696958848,"63":0.12670831761781434,"64":0.23689780458461018,"65":-0.036049461201054296,"66":0.003388907582137986,"67":0.09855258343052047,"68":0.2980052878756674,"69":0.05516036190049889,"70":0.2765479873295126,"71":0.018035830638115403,"72":-0.21977269239094685,"73":0.05597788649542371,"74":0.08814427580067459,"75":0.17639265149395775,"76":0.25034277475560746,"77":0.15463856127224956,"78":-0.141396779523743,"79":0.13108480446801113,"80":0.27690031364769563,"81":0.20420956435729615,"82":0.3169270749030087,"83":0.37896449454806963,"84":0.2204850836086024,"85":-0.10803053645243191,"86":0.16008627589787183,"87":0.18424839753724567,"88":0.37469887247811845,"89":0.2540761881571491,"90":0.26891523781923804,"91":-0.10603216483989031,"92":0.2915510265542486,"93":0.15886917360215322,"94":0.22675239426620364,"95":-0.1660394623751664,"96":0.1847947559225113,"97":-0.06419832664614318,"98":0.026513856329496717,"99":0.02381501773408058,"100":-0.003699037318857831,"101":0.078299614181276,"102":0.07264624699473125,"103":0.02645625447343286,"104":0.13006386665611125,"105":0.12192404908659446,"106":0.06583652613580081,"107":0.060151512014605474,"108":0.10668086418570294,"109":0.32256623365538295,"110":0.3351715052070472,"111":0.07583779240909828,"112":0.16396791408349098,"113":0.07927282313752425,"114":0.09884017560121698,"115":0.17884035430260822,"116":-0.053595267762833985,"117":0.0014534229671381408,"118":0.16337916949629522,"119":0.0952877725533899,"120":0.16264206610837179,"121":0.2770548652170623,"122":0.15894615501269974,"123":0.0442699838225602,"124":0.03478666821902694,"125":0.19204866274634155,"126":-0.10751043335468652,"127":-0.10860090328725858,"128":0.216579592621204,"129":0.07961398671384645,"130":0.2266904243901444,"131":0.20540016441250958,"132":0.06829639676526597,"133":-0.046638125775501554,"134":-0.08241895096895795,"135":0.3067446984697254,"136":0.1316486485903685,"137":0.03879333165507251,"138":-0.024128619450763007,"139":0.43163515195499863,"140":0.11028592730103406,"141":0.14349156272184227,"142":-0.09997650409701277,"143":-0.021224206195489103,"144":-0.09166970922350515,"145":-0.006298299995648743,"146":0.11466645635431483,"147":-0.1748733947910744,"148":0.14219614852372187,"149":-0.10593923804375284,"150":0.0992685803765686,"151":0.009246464116898672,"152":-0.05971382402816588,"153":-0.025357289063385146,"154":0.0865940910373233,"155":0.0427332068154325,"156":0.03518639585291264,"157":0.297982911420442,"158":-0.03741106489122748,"159":0.009337003463550124,"160":0.178263237594253,"161":0.09695321028723149,"162":0.0372600211007762,"163":-0.13285745280857167,"164":0.04854060085587925,"165":0.1218611651643953,"166":0.2737126333664525,"167":-0.2701200318875085,"168":0.11892434757669544,"169":0.16923174583072798,"170":0.005753821310306846,"171":0.19052889283054641,"172":-0.06676270388105081,"173":-0.09185861192943649,"174":-0.08649927020494468,"175":0.044123674439603126,"176":-0.11463623170488851,"177":-0.2520043072741882,"178":-0.19063379581848836,"179":-0.005105521636408568,"180":-0.023493112621841925,"181":0.03728409210058028,"182":-0.13622414713083364,"183":-0.011144757612506452,"184":-0.03864869078317594,"185":-0.17108163053473965,"186":-0.0677488904421734,"187":0.0718754885989032,"188":0.013868667244329664,"189":0.12169057889431195,"190":-0.015034920159007797,"191":-0.18104326608840005,"192":-0.18187617921303365,"193":0.1062373654565346,"194":0.13646799909311622,"195":-0.28162743888924713,"196":0.06185450944696922,"197":-0.12308746836757437,"198":0.20148129210076074,"199":-0.023478186390187235,"200":-0.13124931023969327,"201":-0.1815509074302138,"202":-0.37197506124998586,"203":-0.23452859203670945,"204":-0.03950673860661406,"205":-0.001072358024813013,"206":0.14160050829719115,"207":-0.19546489684902127,"208":-0.12463285687465661,"209":-0.34732924117694813,"210":-0.3251719002603373,"211":0.04468888264011576,"212":-0.13115604718332657,"213":-0.01782330906309586,"214":0.006940567378371046,"215":-0.07471835517423049,"216":0.026720458993214926,"217":0.11871648311105806,"218":-0.05236984403621057,"219":-0.11190030064475183,"220":-0.10426096873087158,"221":0.00244449450389507,"222":0.08106583306965227,"223":-0.2940595829172521,"224":0.10179011914719086}},"1":{"bias":-0.05327468278130103,"weights":{"0":-0.008970617170669253,"1":-0.6213153911872052,"2":-0.20982472855844558,"3":-0.16239921815390398,"4":0.07159084439259078,"5":0.03677364148063585,"6":-0.09505215764755358,"7":-0.01221396380195618,"8":0.07934089403830433,"9":-0.2916441571016271,"10":0.2152683805648454,"11":-0.12278049080814167,"12":-0.21839677341191904,"13":-0.23690723074523526,"14":-0.20868438740430315,"15":-0.13935982386443507,"16":0.018129190519549258,"17":0.0771094700478522,"18":-0.013777290665459532,"19":0.0616711577361435,"20":0.0919186642335124,"21":-0.14700316865977078,"22":-0.279019153485173,"23":0.026723022444756023,"24":-0.002114593962691724,"25":0.29946279874085374,"26":0.33906625527352613,"27":-0.0073625889028199765,"28":0.19072521454524316,"29":-0.14581522967029323,"30":-0.13721290508854356,"31":0.03941423900452408,"32":-0.10355632772207955,"33":0.03535885781858627,"34":-0.11035394775556613,"35":0.020758116587253746,"36":0.3361095363042576,"37":-0.0433971639778341,"38":0.08608337672936518,"39":0.004967143209136178,"40":0.16938114889676356,"41":-0.18229558815156552,"42":-0.07070956191221668,"43":-0.19550066600024893,"44":-0.17846696143923632,"45":0.022124036320582293,"46":0.016494099897133813,"47":0.1286497543901956,"48":-0.15613431399678518,"49":0.25278067320362074,"50":0.08837966534275563,"51":0.18628400097287065,"52":0.0686977733492801,"53":0.10811239171164908,"54":-0.17351736556751954,"55":-0.07486760420192007,"56":-0.06556045996658258,"57":-0.1562962987689432,"58":-0.33051846666433293,"59":0.12327778760118367,"60":0.07965465624325076,"61":-0.028607971882082004,"62":-0.33031079344861514,"63":-0.08143028320371158,"64":0.11287865779713577,"65":0.06467841582236393,"66":-0.029359266810307115,"67":0.24019550174753496,"68":0.018814723625939764,"69":-0.04886743750175689,"70":-0.3546513470431913,"71":0.02403951528813827,"72":-0.1109840537417008,"73":-0.18553014653532998,"74":-0.06963990246476226,"75":-0.08555841807110535,"76":-0.07895198650417132,"77":0.13270326019884887,"78":0.02476506423394338,"79":0.00452279481343983,"80":0.1422508555499075,"81":0.031585246343037096,"82":0.07069538973262252,"83":-0.01486562943469662,"84":-0.13178289679068683,"85":0.15961441085617817,"86":-0.14238232738641823,"87":0.07079473719176678,"88":0.008056253976263363,"89":-0.11765362697480618,"90":0.5364790145088474,"91":-0.085590382435583,"92":-0.08802628594021254,"93":0.1417206635571327,"94":0.028492559737077497,"95":-0.10779865883672059,"96":0.05854589352798527,"97":0.019346412420241356,"98":0.010747256871937824,"99":-0.1708340859188398,"100":0.10755224921365825,"101":-0.11910448782036837,"102":0.3116489139727684,"103":0.09456797382805562,"104":-0.30283012294100015,"105":0.3412352984666283,"106":-0.1418162148632819,"107":-0.048695334131840726,"108":-0.08669667897614805,"109":0.12806712915936724,"110":-0.10404153012067364,"111":-0.11368343343753345,"112":-0.1680068991325511,"113":0.12238833184827508,"114":0.1554094168690497,"115":-0.013584769035687195,"116":0.09594773632960296,"117":0.13799255260750765,"118":-0.13622146908160468,"119":-0.19670198257319363,"120":0.39354971222307167,"121":-0.09808698818584571,"122":0.19942610660630508,"123":-0.1284258298051222,"124":-0.3874718115232986,"125":-0.14507772735286947,"126":-0.3002966053685523,"127":-0.31758366663822235,"128":-0.4409565084335704,"129":-0.17264583013338125,"130":-0.015002658956712657,"131":-0.10539162889734159,"132":-0.03823747265739415,"133":-0.02005755390574647,"134":-0.11950877513178342,"135":0.13531835696523786,"136":0.04624176660394555,"137":-0.20151023027666629,"138":-0.3112273007495518,"139":-0.237252862910186,"140":-0.2586746984149981,"141":-0.3403967667557676,"142":-0.1307049945800393,"143":-0.19119075008661265,"144":-0.005906238758417852,"145":0.12806532079795185,"146":0.11619665991353885,"147":-0.0981093750026781,"148":-0.1246811037366409,"149":-0.2530418469177643,"150":0.2819927048415464,"151":-0.11542274616595526,"152":-0.18347503001309823,"153":-0.025282368686458636,"154":-0.23018057736747538,"155":-0.22948438531014975,"156":-0.14433456120638163,"157":-0.20353270577675958,"158":0.06095327643242101,"159":0.17730850910299706,"160":0.1424067687422757,"161":-0.007431246637990153,"162":-0.1850358182723978,"163":-0.006358800588153649,"164":-0.17436561884385743,"165":-0.1493825078541205,"166":0.044710236412094255,"167":-0.3685967134732564,"168":-0.07202760138298193,"169":0.06074231867045835,"170":0.20550204054881221,"171":0.027516820586534547,"172":-0.01922587936611366,"173":0.116608959861374,"174":0.19223914689852362,"175":0.49084486332839505,"176":0.07380379308979153,"177":0.22064354960191224,"178":-0.09411849508029048,"179":0.03159300097534108,"180":0.07942115506150965,"181":0.11260612415790446,"182":-0.050999467222577345,"183":-0.24026669352380306,"184":-0.27154320313222446,"185":-0.16129783034051526,"186":-0.07310945336038052,"187":0.10074426242923284,"188":0.07820167794212048,"189":-0.09628699870396162,"190":-0.06409599006992198,"191":-0.2605322706123442,"192":0.0195601432982768,"193":0.06487417168367707,"194":0.11872166611539685,"195":-0.41980339025896396,"196":-0.14457080629737198,"197":-0.14706546836679676,"198":-0.17620202765813436,"199":-0.00005350948914689636,"200":-0.1317250842201446,"201":0.007181382640348808,"202":-0.021797217799506545,"203":-0.11211136313580199,"204":0.44352674387057084,"205":0.18977153617566683,"206":-0.05849466887850159,"207":0.07515985326367376,"208":-0.12754677153091884,"209":0.12629918090439707,"210":-0.32648304584159565,"211":0.023034349171606763,"212":0.09848158816354058,"213":0.049303720076035173,"214":0.0693300452235413,"215":0.016479728704460003,"216":-0.09555506565777062,"217":0.14796559636819057,"218":0.09716531339753971,"219":0.2587350172601359,"220":0.43316193092868616,"221":0.016320845940670577,"222":0.18207268854588932,"223":0.2986494545054093,"224":0.21947169439816397}},"2":{"bias":0.27403806506942446,"weights":{"0":-0.11327783264400161,"1":-0.05764965924799573,"2":-0.061987003446836456,"3":0.1330635312935487,"4":0.021091831251657995,"5":-0.06452709192278192,"6":0.04541874817957544,"7":-0.06639817863441336,"8":0.09546996650597683,"9":0.007961572973557238,"10":0.2811831632233115,"11":0.04553898242715819,"12":-0.11440750194877358,"13":-0.25907090859945775,"14":-0.273539505344697,"15":0.05087346814761827,"16":-0.0709602321420179,"17":0.03635148226166422,"18":-0.28142219549833036,"19":-0.1310008213482344,"20":0.046419421196956454,"21":0.013132208512662877,"22":-0.3832914754212018,"23":-0.22635088036936682,"24":-0.2340259637492009,"25":-0.08873153366485556,"26":-0.17705187660120242,"27":-0.1931976583662521,"28":-0.24331443320899376,"29":-0.23076992083454825,"30":-0.2520169494686387,"31":-0.1971583431959985,"32":-0.22143299270338307,"33":-0.2498798172134574,"34":-0.09598692249472875,"35":-0.0005633058470059122,"36":0.22516813642882053,"37":0.014222072423728069,"38":0.06032461131235397,"39":-0.039943865129563924,"40":-0.19017768492112813,"41":-0.1483734475946818,"42":-0.24727859311037967,"43":0.028068940797644475,"44":0.38096948247359375,"45":-0.09767771408845391,"46":-0.49924628261633414,"47":-0.22315257326713708,"48":-0.2224140258059655,"49":-0.302304259080576,"50":0.014231729034087688,"51":0.04419970775341254,"52":-0.13515094560319363,"53":-0.03275834009259376,"54":0.21001482543150915,"55":-0.023691101147591705,"56":-0.19700869233605467,"57":-0.007371963167478538,"58":0.09671325805844816,"59":0.15830354460414872,"60":-0.1609229557675457,"61":-0.2733578048642696,"62":-0.28617690704486,"63":-0.24915602932740558,"64":0.1616691219299553,"65":-0.0939875805835133,"66":0.2905314390326433,"67":0.037160201658601316,"68":0.1648270723073613,"69":0.13447506214995822,"70":-0.180134336280921,"71":-0.041824597752986324,"72":-0.011853862323027431,"73":0.27934992035293144,"74":-0.06613576459216204,"75":0.04280380542912581,"76":0.09460084584165508,"77":-0.2976872089064264,"78":0.046094354069848735,"79":0.08335612211331483,"80":0.010722626999264134,"81":0.24819167275726112,"82":0.238949814167316,"83":0.2565453180408142,"84":0.1858606276783933,"85":0.16683311151540564,"86":0.33983116367021676,"87":0.015854174094112067,"88":-0.003051374819851271,"89":-0.0967768735417968,"90":0.13055060449912614,"91":-0.29758966201827014,"92":-0.19289014361883064,"93":0.00863016041398645,"94":-0.05125891165481402,"95":0.3457695972585467,"96":-0.007938557220916753,"97":0.06641366495025432,"98":0.32056154633016537,"99":0.36815733769546083,"100":0.2145741101975971,"101":0.3205845217782439,"102":0.6088754843717828,"103":-0.13827424001127486,"104":0.05563225194142039,"105":0.1652760479481659,"106":-0.115495887907224,"107":-0.18596101696360204,"108":-0.24099703037650255,"109":-0.20828931024814346,"110":0.10328810420126368,"111":0.05802131962913853,"112":-0.09712265204875835,"113":0.4086986387554746,"114":0.181053306812317,"115":-0.29986637715807096,"116":0.23873063558171195,"117":-0.020286449377686668,"118":0.01467570885900003,"119":-0.3153203346826725,"120":-0.0165462607495562,"121":-0.0008459420662947336,"122":-0.24195814803174392,"123":-0.23188356195022505,"124":-0.22746119017876573,"125":-0.058993485869643716,"126":0.05306589796428347,"127":0.13904630036574153,"128":0.02867138780551725,"129":0.08814424873396545,"130":0.09957469033272227,"131":-0.05576004541763852,"132":-0.05478796300567541,"133":-0.05797477478949552,"134":-0.018726150841830193,"135":0.4550730350740435,"136":0.1982229180435198,"137":0.016812859833864546,"138":-0.22223828695014966,"139":-0.08017120066185109,"140":0.07564578261415433,"141":0.18175470384441758,"142":-0.17098177602965361,"143":-0.15668426472653968,"144":0.03143334095186921,"145":-0.08031893635288903,"146":-0.18649628329890644,"147":0.07760253032103177,"148":-0.17512992294039098,"149":-0.17677107090104194,"150":0.05255085298386982,"151":-0.11100518671055913,"152":-0.18185133930951974,"153":0.044174722448955754,"154":0.3110306397035322,"155":0.2942456436473301,"156":0.13416336613686453,"157":0.040871104807808555,"158":0.18300567453524083,"159":0.19891354848902681,"160":0.2652665626814396,"161":0.052149597344390335,"162":-0.11789759730809334,"163":-0.3873893360198438,"164":-0.14055869285060002,"165":0.054529634765923825,"166":-0.011464068538151056,"167":-0.1002093289975871,"168":-0.03823429846461754,"169":-0.10107994456542488,"170":0.17528949784871073,"171":-0.09096375476255539,"172":-0.05306735379047916,"173":-0.06622013057658957,"174":-0.17120733880917452,"175":-0.18484796273358128,"176":-0.19464989724695864,"177":-0.36404975948052715,"178":-0.4535772144606992,"179":-0.26891520408665853,"180":0.3731195075175879,"181":0.28553736017735054,"182":-0.26089932462,"183":-0.03139081844857427,"184":-0.09136669100482608,"185":-0.1434676514201686,"186":0.11802983873408897,"187":-0.08342672922355969,"188":0.01047084701030219,"189":-0.13054307957315536,"190":-0.09934033657161254,"191":-0.5664607426739339,"192":-0.39510627532206577,"193":-0.21419078950875176,"194":-0.15701935771806008,"195":0.08439398703714658,"196":0.3284932152246986,"197":0.2279659598773427,"198":0.03022358901178179,"199":0.25148870906437815,"200":0.08041200183255477,"201":0.22006906909917331,"202":-0.2632126056487199,"203":0.00391431874205302,"204":0.13855634559513438,"205":-0.09464305682947319,"206":0.05214878523641602,"207":-0.25046672002813203,"208":0.17230929261319666,"209":-0.39048089288956067,"210":-0.11073819776812441,"211":0.1579950083379323,"212":0.1383550870163585,"213":0.004901195301511299,"214":0.14809656386470782,"215":0.03913960763298533,"216":-0.0831259921241924,"217":0.06113678287318507,"218":0.16875842490108114,"219":0.2485533988283484,"220":0.29709650469290905,"221":-0.04630521560564563,"222":0.3065344225764033,"223":0.030242353945286883,"224":-0.15286709627122727}},"3":{"bias":-0.028202962372616106,"weights":{"0":0.05346017053490774,"1":0.19287554214463243,"2":-0.04061837358807935,"3":0.08675329672624824,"4":-0.1391753305695472,"5":0.2532908124811791,"6":0.09474233496586375,"7":-0.06539289191317708,"8":0.05792350715376798,"9":-0.1341564763032553,"10":0.2954775540401387,"11":0.10913837055733158,"12":0.0016501343917009437,"13":-0.005624738603224672,"14":0.13907980959794108,"15":0.08063816588187228,"16":0.07630393639949407,"17":0.03218711132043019,"18":0.05206274534298312,"19":0.03727623410589331,"20":0.048168630209124125,"21":-0.13623190261242166,"22":-0.00767994173268359,"23":-0.3165109964521292,"24":-0.1381029264137271,"25":-0.0388390679386545,"26":-0.06520910706988384,"27":0.03493615917406466,"28":-0.03412233801995958,"29":0.2340676420770122,"30":-0.1492618055077433,"31":0.1367534583357126,"32":0.07461558915311141,"33":-0.22711223482944262,"34":-0.12563167453508003,"35":-0.09644704510426318,"36":0.13724584341353468,"37":-0.05295995551156353,"38":-0.20698681588191442,"39":-0.057467577021079304,"40":0.18467128048834475,"41":-0.32822622118839506,"42":-0.07034938437385341,"43":-0.0627084744571582,"44":0.23726819951662076,"45":-0.058672894253228185,"46":-0.18649002726795863,"47":0.02179037489067107,"48":0.09398403849575573,"49":0.12594890081741728,"50":-0.007264785448880265,"51":-0.19150137093305367,"52":-0.07201362114169842,"53":-0.18424293969857722,"54":-0.11023569682577086,"55":0.1388330271202855,"56":-0.14279631029714257,"57":0.14343120535867324,"58":-0.06227807810522096,"59":0.21849940938381768,"60":-0.08441612886710058,"61":-0.2669236269864636,"62":-0.0003285409434564755,"63":-0.04794649844919719,"64":0.18344234396701203,"65":-0.12546435391550714,"66":0.20155243624971658,"67":0.13522644005975973,"68":0.3036297044515262,"69":-0.01707348864688019,"70":-0.02413305178572681,"71":0.1443771672055538,"72":-0.20557086570210292,"73":-0.1692574363059611,"74":0.1414615156053886,"75":0.026248058004996095,"76":-0.1867055370623383,"77":0.0009302528790191497,"78":-0.18250633940773772,"79":0.13947109326725057,"80":-0.072026443643796,"81":0.23451180398847213,"82":0.17964623678285319,"83":0.310437362291154,"84":0.24352431545787528,"85":0.16220813944867887,"86":0.2264896887502373,"87":-0.016197835740818494,"88":0.1757800349110102,"89":-0.013502812364551182,"90":0.11088718222218882,"91":0.016975838106432876,"92":0.11119149203530146,"93":0.15050361488268615,"94":0.0981273840788054,"95":0.24196987192724237,"96":0.1324283585735901,"97":0.2944385202958244,"98":0.18227684588706033,"99":0.20485143149698665,"100":0.07966919604113025,"101":0.26510830300353594,"102":0.3371361516054006,"103":0.12113817002613636,"104":-0.21636274416417942,"105":-0.07702432824846492,"106":-0.23923867928034873,"107":-0.13289451684691542,"108":-0.2589667120965069,"109":-0.05790680155844874,"110":0.18150758767563022,"111":-0.025840072149551228,"112":0.028886649998249466,"113":0.09025771552105977,"114":0.19294885179838486,"115":0.18903913087306162,"116":0.13457859625214275,"117":0.0727755725567845,"118":-0.12699479199736935,"119":-0.09744230659627341,"120":-0.19250858279708274,"121":-0.15751964312582933,"122":0.07506002525983962,"123":-0.009687395933182259,"124":-0.12241067986943283,"125":-0.06324507242341741,"126":-0.19766307130821006,"127":-0.07812497217130969,"128":-0.16409729076608293,"129":-0.09653504269248235,"130":0.1627014728732732,"131":0.1637611171781467,"132":0.11873956752926443,"133":-0.21495258008950854,"134":-0.11260960079157777,"135":0.061564292543376656,"136":0.16789475466625559,"137":-0.11393097428762178,"138":-0.2517229679933062,"139":-0.04122119539028009,"140":-0.06009447291685713,"141":-0.18723037938163917,"142":0.15521801531856755,"143":0.11751563001465856,"144":0.10664034577743661,"145":0.11696530867908758,"146":0.1178185733953992,"147":-0.22570564002582297,"148":0.21241439201599605,"149":-0.08848547672243068,"150":0.23504405373230197,"151":-0.09402242353603783,"152":-0.16119760511720682,"153":-0.34099563702448393,"154":0.19355803942599129,"155":-0.14420418341127836,"156":-0.03887796681645942,"157":0.128471978093874,"158":-0.09503357675634029,"159":-0.0811925702127987,"160":0.008078794518169565,"161":0.05565872839800939,"162":-0.19396471901122783,"163":-0.2867636590158924,"164":0.09337250764645122,"165":-0.19410515840236334,"166":-0.14562883088292042,"167":-0.3806591780947738,"168":-0.3693071732284727,"169":0.09546486545004916,"170":0.19301786602746046,"171":0.16757762257941278,"172":0.1400173801583492,"173":-0.11870830828994672,"174":0.19581389642156855,"175":0.20554287570090762,"176":-0.030805085128695273,"177":-0.10660966858127244,"178":0.0177492013262544,"179":0.1291909829111419,"180":-0.06416490861404495,"181":-0.011031000048128578,"182":-0.33900166298556655,"183":-0.164999888827986,"184":-0.06721298088591368,"185":-0.12387311162742078,"186":0.0701529934251928,"187":-0.2439653819380606,"188":0.10647460010661983,"189":0.012258803677636421,"190":-0.22871049086876505,"191":-0.18872063247185916,"192":0.13266945297285734,"193":-0.0019270331618203823,"194":-0.2645267687682184,"195":-0.2581595247635849,"196":0.033822800225332024,"197":-0.2430496860212848,"198":-0.10881661110834381,"199":0.10856308215364754,"200":0.2270386401199541,"201":0.15345326511356902,"202":0.0389546335802085,"203":-0.15142613787945847,"204":0.04978342240821129,"205":0.051879356644334206,"206":0.18031891856985627,"207":-0.17107155881803274,"208":-0.10503182707517839,"209":-0.00022711724095316274,"210":-0.19883750040753775,"211":-0.022317865651536636,"212":-0.22561543470389198,"213":-0.16967468537471533,"214":-0.06272809393422042,"215":0.15862229059980862,"216":0.2701439964005087,"217":-0.1038415783324507,"218":-0.01231503070348043,"219":-0.1942672415715345,"220":0.24736063830082816,"221":0.023751380168655793,"222":-0.07903227581356238,"223":0.14191877516067386,"224":-0.16130726657009653}},"4":{"bias":0.0805598381692972,"weights":{"0":0.08863638662330953,"1":-0.09293591104051985,"2":-0.07892929049511604,"3":0.019159405004032654,"4":-0.003729985371783857,"5":-0.27016327175846466,"6":0.09903325734734422,"7":-0.11013867707385987,"8":-0.025656805367677844,"9":-0.2983078493771324,"10":0.09289181695086457,"11":0.13231491597639708,"12":0.13898333514722755,"13":0.32027352411638166,"14":0.5652130680459672,"15":0.2981542224006776,"16":0.12359039586857247,"17":-0.015925735292447656,"18":0.08047052867983169,"19":0.041238921036429135,"20":0.2695220399779461,"21":0.3865204407752967,"22":0.4107819904070094,"23":0.11060709038387406,"24":0.21996301957632983,"25":0.0855365286209994,"26":0.38322314430917176,"27":0.064729963097884,"28":0.2554506029358014,"29":0.2395480317494425,"30":-0.0833565415933465,"31":0.14930972421743166,"32":-0.025894913654015646,"33":0.2088044375678497,"34":0.1805659516080312,"35":0.280987253757925,"36":-0.06063497766771818,"37":0.34574034250202923,"38":-0.24077797232385584,"39":0.0026083925641178832,"40":-0.06657926967524956,"41":-0.12939289788226685,"42":-0.2566065193552747,"43":-0.2249259959544429,"44":0.2136078410976264,"45":0.249427582193608,"46":0.05440201324253037,"47":0.17956758135813627,"48":0.08317351480540505,"49":0.2422828700582919,"50":-0.035386201479071684,"51":-0.15353368880507098,"52":0.0569483881657529,"53":-0.0517067845026436,"54":-0.21636649623947135,"55":-0.22953117554392058,"56":-0.23131105140827218,"57":-0.1586899312820816,"58":-0.2629393446115457,"59":-0.05760997255372315,"60":0.13911882049931054,"61":0.17747954846941824,"62":-0.04282206799912614,"63":0.09379824198634397,"64":-0.04134014646338675,"65":0.05337314635324598,"66":0.12298438212834031,"67":-0.020704880148044006,"68":-0.2684143751079597,"69":-0.179628923345653,"70":0.0027090399630817657,"71":-0.4171682413725668,"72":-0.19841395978334686,"73":-0.47552618632974786,"74":-0.015495370656507341,"75":0.1388060800211126,"76":-0.10924068698031608,"77":0.04469727046126911,"78":0.10468543931214645,"79":0.19494686907828765,"80":0.08738603123902351,"81":-0.0030196923901396797,"82":-0.15136257702735162,"83":0.07082415168692786,"84":0.03215421384051179,"85":0.25065238536964823,"86":-0.031562265109277995,"87":-0.21159826780646224,"88":-0.12157333984869928,"89":0.04729727496890827,"90":0.07476797957907388,"91":0.12659510526408743,"92":-0.12948420017181622,"93":-0.17779538872594455,"94":0.06848265546774321,"95":-0.3093408333499767,"96":-0.059978568624600694,"97":-0.24479926106790714,"98":-0.1533687830688862,"99":-0.10770266890205202,"100":0.02819505984012568,"101":0.03249762697937055,"102":-0.2545266406383413,"103":-0.14929134274658376,"104":-0.026966084691672217,"105":0.26059397481801394,"106":0.08246335084803459,"107":-0.05775767042691743,"108":0.12537651725931925,"109":0.01774015725952328,"110":-0.17684764227007332,"111":0.08959302363441148,"112":-0.10774420148231723,"113":-0.07364577856949077,"114":0.0010473904226193371,"115":-0.06804992277334364,"116":-0.07228663002839594,"117":-0.3882044095814259,"118":-0.2742430722952027,"119":-0.126911394121397,"120":0.21504171683983908,"121":-0.14936598259147135,"122":-0.06640687832188345,"123":-0.016180625153819374,"124":0.05502009662047636,"125":0.08649837097306437,"126":-0.06765024378986326,"127":-0.07880673993365453,"128":-0.07566635630272801,"129":0.002778413578193785,"130":-0.16593305956583526,"131":0.0933009454086296,"132":0.04165460705957436,"133":-0.3009810094022807,"134":-0.06244288511811704,"135":0.028270744515853936,"136":0.02647676884193105,"137":0.33490653585295477,"138":0.12493187551345766,"139":-0.16239946211812345,"140":-0.3399053207060852,"141":-0.10882455002075768,"142":-0.05549633619736904,"143":0.10585569428643629,"144":-0.11345227019011966,"145":-0.14058454126215764,"146":0.0970603041273536,"147":0.04209639984305797,"148":-0.15706524469233035,"149":-0.28397673623118236,"150":0.027577465261858208,"151":-0.006083963819604025,"152":0.23219715753315448,"153":-0.1733594201554611,"154":-0.4231119360630992,"155":-0.20137236225831023,"156":-0.06810611600487178,"157":0.07983701032937508,"158":0.12496912943281951,"159":-0.22173221538626262,"160":-0.3343097794759956,"161":-0.14571204431840673,"162":-0.19677442391944341,"163":0.17328540126600145,"164":0.006689774446857372,"165":-0.11584952575925797,"166":-0.08970858473608681,"167":-0.04374601308486052,"168":-0.2565723224258974,"169":-0.22016038484263287,"170":-0.24665591549851487,"171":0.17407849667942504,"172":-0.0192312231354332,"173":-0.1321335659840737,"174":-0.2046999665061684,"175":-0.1860449487789007,"176":-0.21120955946569836,"177":-0.0629759867935163,"178":0.410254003903248,"179":-0.17829146245808117,"180":-0.14021754052175525,"181":-0.17500378113724932,"182":-0.12190412776665709,"183":-0.17712794777762908,"184":-0.12288474565574559,"185":0.07050817286366584,"186":0.09033702486849654,"187":0.02338140397021749,"188":-0.04689679630217621,"189":-0.19705773336779955,"190":-0.31375602711086753,"191":-0.18839105608946632,"192":0.27424042991505787,"193":-0.03657316759660726,"194":-0.2399071227694658,"195":-0.1573639573980224,"196":-0.18438083184936124,"197":-0.1269797429625897,"198":-0.2794476426438925,"199":0.03279502745829168,"200":0.17748270871587762,"201":-0.1728501806070985,"202":0.08676974647925909,"203":0.03080818242708807,"204":-0.09273188044580809,"205":0.10028470908463932,"206":0.24788608692988845,"207":0.05188906475882789,"208":-0.4222674434809386,"209":0.32459541433404593,"210":-0.04189863671454058,"211":-0.4390474281883295,"212":0.027607728734060658,"213":0.11735455472821937,"214":-0.13473767526030428,"215":0.2324403901502755,"216":-0.21553495661942632,"217":-0.04709580651072798,"218":-0.027267472757809757,"219":0.02297887669538022,"220":0.21037090011144757,"221":-0.11007384920400935,"222":0.021487724368695008,"223":0.15726863789309797,"224":0.13212763733426358}},"5":{"bias":0.1111911988324966,"weights":{"0":0.5196277909310457,"1":0.45398683921865507,"2":0.25570333545872115,"3":0.03126351005376104,"4":0.12409525518462342,"5":0.08645889311523913,"6":-0.18381187818946942,"7":-0.13222262285519198,"8":0.01939844517151868,"9":0.028136296808383362,"10":-0.01661154791568593,"11":-0.12579372084114485,"12":-0.0005525885735889775,"13":0.09796112835954573,"14":0.3796593508200534,"15":-0.1661336223287531,"16":-0.24495369320130747,"17":-0.19605636548432892,"18":-0.034234811470393894,"19":0.19310363537003586,"20":0.1622311622855862,"21":0.18525843451395937,"22":0.07854690355520505,"23":0.11209436239609982,"24":-0.03798320222844432,"25":0.24677299086620605,"26":-0.09237674938518595,"27":0.1294938336642484,"28":-0.11172965492078045,"29":0.050207643990234904,"30":-0.21949396173669133,"31":0.05150553595054792,"32":-0.27874080273397306,"33":0.10556234554346614,"34":-0.17076008847407145,"35":0.21403074768761332,"36":-0.08750350281223485,"37":-0.1362163999513713,"38":0.03516656726169284,"39":-0.07553844889463213,"40":0.18901483877095437,"41":-0.06735546012543246,"42":0.03367295931618133,"43":0.25130273985440105,"44":0.20701152622281635,"45":-0.049009176648428056,"46":-0.06953026577381412,"47":0.09980328663666305,"48":-0.0902529358596776,"49":-0.18029533102889853,"50":-0.04055111198976524,"51":0.1590211554855957,"52":0.018259494970492344,"53":-0.07375123812873512,"54":0.07127764731242715,"55":0.17764284609378234,"56":-0.1551308519385179,"57":0.023410206209229706,"58":0.3892876610829806,"59":0.3201901114812734,"60":0.30778221836007674,"61":-0.3736170959963938,"62":0.1364487259351215,"63":-0.06431052323676151,"64":0.06338570208567101,"65":-0.0805293019928107,"66":-0.23590513813906086,"67":-0.24011654136945423,"68":-0.2174873299588302,"69":0.11873810518399554,"70":0.3443643465947357,"71":0.06264139229968461,"72":0.08107993970336907,"73":-0.039936578731687225,"74":0.25004772231662464,"75":0.3861288978193777,"76":-0.1571698193622287,"77":0.006715334655684614,"78":0.005815516160251302,"79":-0.22618510873974534,"80":-0.189921374689829,"81":-0.36995474677050444,"82":-0.1112465590425599,"83":-0.12037059877955826,"84":-0.18555650883668687,"85":0.2055972258802629,"86":-0.022021742292458457,"87":0.06364346901525336,"88":-0.1180305027571346,"89":0.1633298207947692,"90":0.3494934700090531,"91":-0.12777936153285044,"92":0.01512977258436918,"93":-0.10327278333646887,"94":-0.027731912151196643,"95":-0.22491404424345263,"96":-0.2523683575671309,"97":-0.44844244757322155,"98":-0.28664031132878554,"99":-0.29711128434371914,"100":-0.02314579468972138,"101":-0.21613454359853326,"102":-0.29800611190990195,"103":-0.39445058355600643,"104":-0.15124478612195302,"105":-0.053362118550273396,"106":-0.0453589451370182,"107":0.10802156194745619,"108":-0.23625533471020757,"109":-0.31057618077803334,"110":-0.09605161001280468,"111":0.009171620005298316,"112":-0.27571845744542034,"113":-0.132117750080604,"114":-0.18657685503997018,"115":-0.12657013880238077,"116":-0.33940069593190497,"117":-0.3185579475172502,"118":-0.07210255381405725,"119":0.1212081334982593,"120":0.08747995543481109,"121":-0.3658065275837226,"122":-0.2574171080745691,"123":0.1777576133721699,"124":0.01585818499788486,"125":-0.00736628013327104,"126":-0.11695073636635202,"127":-0.3096470561850255,"128":-0.13999288218894182,"129":-0.03914989505328995,"130":-0.11030068332098468,"131":0.06990253069167168,"132":-0.028459305993066668,"133":0.07265712203111466,"134":0.04658396291034732,"135":-0.057806977821293556,"136":0.14936380073913022,"137":0.01624769695292097,"138":0.23345334954912955,"139":-0.18664385918582166,"140":-0.045142482142636865,"141":0.07078231113370423,"142":0.06606167642015187,"143":0.1241076138459445,"144":0.1423440377215628,"145":-0.12616526742707082,"146":0.29157770319108745,"147":0.2373873598321546,"148":0.015188529985858533,"149":0.0084480713618891,"150":0.03841977987220308,"151":0.25971387410709296,"152":0.1629034805118225,"153":0.17680339414139445,"154":0.05655303106894175,"155":-0.08628203561707931,"156":0.1576296676964254,"157":0.10540860406567747,"158":0.09624763209068533,"159":0.1668404132616821,"160":-0.08882116979241203,"161":0.12377568958030073,"162":0.013693088840266232,"163":0.09464303819008056,"164":-0.03097420944644703,"165":0.28094764363139046,"166":0.15494617642020872,"167":0.3557549558540967,"168":0.09142452223122449,"169":-0.08949018250424642,"170":0.002582409929880363,"171":0.16323606403796964,"172":-0.10875654120950279,"173":0.11521514428723194,"174":0.3634948321122401,"175":-0.29221075413960607,"176":0.09343119696946832,"177":0.31990973793445454,"178":0.200840356590657,"179":-0.03549851393128332,"180":-0.01302193954340367,"181":-0.05388297250603131,"182":0.20875882536023121,"183":-0.28521628438558316,"184":-0.023775549674188195,"185":0.08091326133722385,"186":-0.1752242602029886,"187":0.015421007639415651,"188":-0.13556454119785138,"189":0.22094397235241287,"190":0.09698400236040756,"191":0.23651565841574188,"192":0.14360722038560167,"193":0.11925106202609279,"194":0.10403264919716937,"195":0.02731347101955357,"196":0.07515055938899064,"197":0.22347269674759487,"198":-0.0531884229848221,"199":0.13752137675703283,"200":0.03932669931191538,"201":0.03986315398013575,"202":0.18207918864619263,"203":-0.05126792405847524,"204":-0.12539107282817083,"205":-0.3771756552061587,"206":-0.20896721418837505,"207":-0.21058316763524002,"208":0.10875210494812781,"209":0.01456836327695486,"210":0.1279681720944558,"211":0.10541023183857462,"212":-0.014785756459928428,"213":0.048574393406558294,"214":-0.09336640173181247,"215":-0.19296214490112054,"216":-0.4198429145694899,"217":-0.16897347279723188,"218":-0.3299380696518771,"219":-0.2193597245999473,"220":-0.23219107640171943,"221":-0.20981148535708263,"222":-0.15456820312724553,"223":-0.2612865701610133,"224":-0.05819219683709719}},"6":{"bias":-0.3688965472903726,"weights":{"0":0.1428918824174054,"1":0.023586582603948664,"2":-0.06772522944182391,"3":0.13639960437958562,"4":-0.017574007497655336,"5":-0.04517950770330012,"6":-0.11812462783502216,"7":0.24985847663241306,"8":-0.1369286358823072,"9":0.1712778609903235,"10":-0.0031579234222175187,"11":0.1909316845140718,"12":-0.015242019339123647,"13":0.35718098943810994,"14":0.2689188045713998,"15":0.016882536955454382,"16":0.0084520138939617,"17":0.005090122553339749,"18":0.11039940320059967,"19":-0.07494314300524553,"20":-0.29063816575325246,"21":0.10455547726084435,"22":-0.026228711016650003,"23":0.1726963786922846,"24":-0.07183445603225319,"25":-0.315207362415135,"26":0.2504325692859398,"27":0.0751227871957229,"28":0.023504123411018565,"29":-0.20093622247007425,"30":0.11304023169528295,"31":-0.03395172280375252,"32":0.0868800486326767,"33":-0.04832257019332766,"34":0.16677838057956854,"35":0.18268537636914584,"36":-0.14731655870970842,"37":0.07726976416028036,"38":-0.2485373395596505,"39":-0.2484138154659063,"40":-0.25969857143956177,"41":0.06038658755997071,"42":0.08182397017718684,"43":0.0008676604636643297,"44":-0.04316695928756162,"45":-0.1762263847361219,"46":0.045298840959939836,"47":0.2695803458097051,"48":0.2547890603364207,"49":0.04620830621808446,"50":0.08285849849936401,"51":0.006895031827991591,"52":-0.0040440274249520895,"53":-0.13720163860370488,"54":0.057987091539436354,"55":-0.019268391055163668,"56":-0.14134188176548243,"57":-0.3559029453885058,"58":-0.34104409561487187,"59":-0.46938936150376426,"60":-0.21935375299814291,"61":0.006804210931475011,"62":-0.07469293515663701,"63":0.22571784354320154,"64":-0.08447943586849863,"65":-0.08635221635953216,"66":0.10145305592557825,"67":0.020574727241430914,"68":-0.16911836099301739,"69":0.09204217115776181,"70":0.03170237147787158,"71":-0.14033979739332342,"72":-0.3470813645927482,"73":-0.011731387737965568,"74":-0.2903360128813103,"75":0.04757583998138796,"76":-0.13025275757411137,"77":0.11384247077560325,"78":0.0037283981074474463,"79":0.15675766763886081,"80":-0.07974161518126312,"81":-0.19738057437475243,"82":-0.08216089591646822,"83":0.0576192337812909,"84":0.2222172210974257,"85":-0.1520981828609838,"86":-0.10162899423809536,"87":0.049934563504293455,"88":0.10909671173340686,"89":-0.1298567212061765,"90":-0.26109505542074163,"91":0.09430991255811627,"92":0.24884222569857561,"93":0.09296225127117491,"94":-0.0431656266184377,"95":-0.032701965525165355,"96":0.30228187657210714,"97":-0.14371855027400363,"98":-0.11154757243171128,"99":0.019546943044938727,"100":-0.16945453827278575,"101":-0.1042966029967323,"102":-0.23907212714732792,"103":-0.05615298402630597,"104":-0.07266675624037447,"105":-0.2127068343141047,"106":0.07137840249756627,"107":-0.05580323709890569,"108":0.02307494930106031,"109":0.10075485564019247,"110":0.19974325353115205,"111":-0.17662661866151333,"112":-0.005249213185074545,"113":0.0024341701298517316,"114":-0.020161084328822916,"115":0.181661556662537,"116":0.27142388304328513,"117":0.03934490761915065,"118":-0.01187403304077275,"119":0.1681646587159624,"120":-0.17006857288778915,"121":0.18230169001620156,"122":0.10596125228260765,"123":0.11095142282579408,"124":0.20792660865688178,"125":0.15546665059118597,"126":-0.06529957716024644,"127":-0.020459402868383436,"128":0.1054294424989223,"129":0.06058504971398417,"130":-0.14682572849019665,"131":0.14703938495830746,"132":-0.020199511562755665,"133":0.17099101977330952,"134":-0.0033788400084129827,"135":-0.2452580234597486,"136":-0.04848832678257679,"137":-0.13672652221461698,"138":0.21838508732116288,"139":0.2547807827458227,"140":-0.004363067143012319,"141":0.03706727974662768,"142":0.20240290209592007,"143":0.18066795822509696,"144":-0.09841771135509583,"145":0.11205875180010046,"146":-0.19799495535654746,"147":0.11457464487595174,"148":0.2517929973174687,"149":-0.15069654262379256,"150":-0.32872118277830426,"151":0.06260326264522315,"152":0.09661768896342024,"153":-0.020885125569613434,"154":0.05763773280177934,"155":-0.04944435290592814,"156":-0.06846350366409815,"157":0.03396083904601011,"158":0.25953569076416544,"159":0.03210769216681663,"160":-0.10654280741986914,"161":0.12095675151116295,"162":-0.04952022228219702,"163":0.03509441487440082,"164":0.19343885378694906,"165":-0.13075580429060035,"166":-0.11287919923974751,"167":0.14852950044210544,"168":-0.038729734842719736,"169":0.029722257984035563,"170":0.12755660603891014,"171":-0.056135238766524966,"172":-0.046137686970890185,"173":0.08358182552105482,"174":0.04779404642851523,"175":-0.03369765014457935,"176":-0.0946207928628819,"177":0.1207924805394654,"178":0.41305649925934645,"179":-0.049463969052174324,"180":-0.03919344527825064,"181":-0.16569599582696118,"182":0.0705785209785314,"183":0.43893397513747956,"184":0.5669198071744539,"185":0.20705266636174355,"186":0.17325873073329104,"187":0.12208092708810352,"188":-0.12595363771740872,"189":0.056574904930546746,"190":0.2261224047803582,"191":0.12247886960852424,"192":0.27745836096556475,"193":0.06546882599306876,"194":0.038462955299531164,"195":0.20569806327477264,"196":-0.13770872902108616,"197":0.09594657504653903,"198":-0.057073358238261214,"199":0.06577164388886975,"200":0.11377640596985529,"201":-0.09136324860229986,"202":-0.07440579881868704,"203":0.16688736512270863,"204":-0.05869873787042272,"205":-0.1184305685693566,"206":0.18088144185759164,"207":0.018225356535852257,"208":0.1666244975130831,"209":0.4252931968581508,"210":0.014538821355039986,"211":-0.2241234782648331,"212":0.05213225415224431,"213":0.034317248697276974,"214":-0.22744554341973963,"215":-0.034150334499417005,"216":-0.07622251861058878,"217":0.0847737056748546,"218":-0.1257171594079685,"219":-0.024616807201185913,"220":-0.23004376060899764,"221":0.03900143133006578,"222":-0.026725695315688403,"223":0.004183082642767271,"224":-0.0700454821135582}},"7":{"bias":-0.2664689740978206,"weights":{"0":-0.22619122038777476,"1":-0.05951700504891149,"2":-0.21021081471129727,"3":0.1648827887582026,"4":0.15544050946726023,"5":-0.02121192594966526,"6":-0.007001709539325588,"7":-0.01958954837952329,"8":-0.14500813665625423,"9":-0.05412732371238597,"10":-0.29139761581454043,"11":0.02775878741238522,"12":0.13937927108071813,"13":-0.11831956986114547,"14":-0.1269724177212755,"15":0.15577169363059304,"16":0.1470766954036111,"17":0.10280969233614318,"18":-0.09611161581676066,"19":-0.02083388348925399,"20":-0.27234885490276506,"21":0.001190610992371931,"22":-0.020490780282299347,"23":0.2969667294937426,"24":0.20045341025988309,"25":-0.048641548562774264,"26":0.035284763052006785,"27":-0.020583860492444605,"28":-0.04482810796702319,"29":-0.030389961362403437,"30":0.1323318488165026,"31":0.0771265398433091,"32":-0.26938468061733895,"33":0.04715754089115738,"34":0.07458057715179801,"35":-0.0035775161092696825,"36":0.2276299538119118,"37":0.0038290794890051103,"38":0.0013623733471739396,"39":-0.0288584978831831,"40":-0.3126253702962175,"41":-0.3694451781698377,"42":-0.18688822543850253,"43":-0.48790704635221105,"44":-0.008766762561473887,"45":0.04411529410143007,"46":-0.0130462885295405,"47":0.09354768024091528,"48":0.008923983523970102,"49":-0.1883237959324547,"50":0.12540003362169277,"51":0.09033406740626031,"52":0.10985083103888874,"53":-0.09448483317733426,"54":-0.17514871599856344,"55":-0.3366591272266262,"56":-0.5041349221078653,"57":-0.32655889477529043,"58":-0.41364679351818895,"59":-0.2574435481073317,"60":0.025625935125224125,"61":-0.03164743506128474,"62":-0.12362430156513864,"63":0.027234684018546233,"64":0.03853621712227036,"65":0.05276839438366783,"66":0.15739074797924196,"67":0.44369661857278875,"68":0.26789797398871573,"69":-0.0279611956812995,"70":-0.23621610401955134,"71":-0.4191456387986226,"72":-0.29342785120823517,"73":-0.14003571290535247,"74":-0.13328316752546843,"75":0.03936606012043485,"76":0.33046801049805896,"77":0.0960713524175236,"78":-0.009873696290834249,"79":-0.05635795144510913,"80":-0.039528249406472246,"81":0.44566097115017517,"82":0.2966264884632681,"83":0.14533117373711235,"84":0.11484058998283231,"85":-0.07991109023660461,"86":0.08570573677964999,"87":0.12196749611843655,"88":-0.1650583950955607,"89":-0.231578247915046,"90":0.14018078613053114,"91":-0.06301139161242802,"92":-0.05850685400747278,"93":0.13355712995917274,"94":0.1972875639616131,"95":0.30362760983185305,"96":0.08617060935382576,"97":0.3871091411266987,"98":0.2237512660334083,"99":0.08143809847595347,"100":0.11091865405060171,"101":0.2748916086824746,"102":0.27912984442903976,"103":-0.010685485414062801,"104":-0.014783240671958176,"105":0.0334336656756115,"106":0.06363237969044919,"107":-0.18830242407780975,"108":0.03448571987279076,"109":0.34243988682311366,"110":0.23735429336538966,"111":0.0014615134794775883,"112":0.06540393110283861,"113":0.12737587883070006,"114":-0.025889952872311616,"115":0.22838066380079594,"116":-0.05818060918749386,"117":0.1654376068919125,"118":-0.08014009552025475,"119":0.10240887732258076,"120":0.016599320385910533,"121":0.03619446355901134,"122":-0.08365148526428366,"123":-0.020101742113431402,"124":0.19033826856723834,"125":0.09154760290742081,"126":0.0034877368204497125,"127":0.07851069110484508,"128":-0.12353363591875154,"129":-0.00551090091014675,"130":0.14507830934249388,"131":-0.05562401746926078,"132":0.013522005647629436,"133":0.014859296819405288,"134":-0.18276461087446827,"135":0.20140863758903893,"136":0.003652292548483962,"137":-0.11711351140742836,"138":-0.11553289771295389,"139":0.20350997664828782,"140":0.01970598780399506,"141":-0.08594624903575135,"142":0.07286067414510965,"143":-0.03876334977975613,"144":-0.33577398690727556,"145":0.027700522344196128,"146":-0.03299983648849405,"147":0.001808876757551055,"148":-0.06553641604372186,"149":-0.25833734306575445,"150":0.1540454485884801,"151":-0.026032005515765285,"152":0.015461645718801424,"153":0.05368971887251459,"154":-0.11518561396212966,"155":0.11182907511072179,"156":-0.04437446396455038,"157":-0.11237609713880653,"158":0.09606361771845168,"159":-0.0833972873777746,"160":-0.010187508274681773,"161":-0.14474689163967314,"162":0.01838945736813866,"163":0.02160781128935747,"164":0.1370009378422265,"165":0.13484244845973106,"166":0.07338146878079355,"167":0.013921249266674155,"168":-0.04471307526224225,"169":-0.07189169177575806,"170":-0.16780608341307893,"171":0.015307843025886402,"172":-0.07673362684356291,"173":-0.029095297219595907,"174":-0.1298497095793262,"175":0.03261414791073395,"176":-0.12425437556247888,"177":-0.1450716340965859,"178":0.04850592392519889,"179":-0.11282164891962629,"180":0.06735241867586982,"181":0.23459996830868857,"182":-0.0891661464561634,"183":0.08082138042605215,"184":-0.21661736519557329,"185":-0.10239718667211768,"186":-0.1398089887613223,"187":-0.07585188004435732,"188":0.07889148577016435,"189":-0.08226833874241671,"190":-0.011879150019539137,"191":-0.04433853817440481,"192":-0.05115332411727617,"193":-0.2838784087457903,"194":-0.09600412285893306,"195":0.07885265886914822,"196":-0.18659678885234943,"197":0.2442418815894776,"198":0.07553485432042233,"199":0.039953407994714966,"200":-0.04421947707512442,"201":-0.14539919738925416,"202":-0.14945418125946525,"203":0.03791597357261274,"204":0.04901596938815452,"205":0.13732786895960877,"206":0.19614774722174058,"207":0.2666459943574639,"208":0.004347872735846757,"209":0.3009201099329364,"210":0.18456484056051028,"211":0.1386492172657743,"212":0.2847966490135364,"213":0.1316771181203301,"214":0.06189957172415835,"215":0.11802711865162177,"216":0.24447126876601946,"217":0.12173749175663677,"218":0.09905807468220877,"219":-0.06347894820921623,"220":0.1756570025060279,"221":0.007085818332787208,"222":0.008231840424599072,"223":0.19744690087999753,"224":0.5034767251977916}},"8":{"bias":-0.2299216960422374,"weights":{"0":0.04328989196738425,"1":0.32487755400976814,"2":0.2909328832349215,"3":0.09571006846202045,"4":0.04400323638949745,"5":0.18485249852510796,"6":0.2579011096135222,"7":0.2424796068782848,"8":0.21550863125946476,"9":0.17614069338891103,"10":0.0926815321822319,"11":0.036240312525739456,"12":-0.10373826009343876,"13":-0.23501298488368,"14":0.06418863589306269,"15":0.1422729872155677,"16":-0.003525981413084032,"17":-0.04244588187496381,"18":0.06637140323766637,"19":-0.07971227002171549,"20":-0.06535121136522933,"21":0.13552311293984592,"22":-0.023523937141861066,"23":0.02949562900880364,"24":-0.06229328947180684,"25":-0.016702702446355112,"26":-0.09334305489261599,"27":-0.11759759068204993,"28":0.1922805174460526,"29":0.21403512797038882,"30":0.044997275970268584,"31":0.08618406076538877,"32":-0.16823731956565646,"33":0.07572874677517599,"34":-0.13055252581060398,"35":-0.23938915404349892,"36":-0.040596989771295576,"37":0.0990367121773487,"38":0.04060001466567666,"39":0.0562292836264958,"40":-0.09847791114668634,"41":0.06384016421254467,"42":0.05449915730023654,"43":-0.10026129743822511,"44":0.27446936998275323,"45":0.2030715206263839,"46":-0.161228887158654,"47":0.03085431520782231,"48":0.10507149480388141,"49":0.18924971851642583,"50":-0.009236133093726874,"51":0.012907342148694167,"52":-0.24756309687940198,"53":-0.22383319913286567,"54":0.04984802372681306,"55":-0.0036355913653018613,"56":-0.24310108574782907,"57":-0.15043880520506903,"58":-0.17870539580569586,"59":0.004543498091284562,"60":0.06542846935980974,"61":0.1432907021513723,"62":0.24719933710966852,"63":0.028219199969149827,"64":-0.1716670864681466,"65":-0.18202045586375185,"66":0.10134107769826428,"67":0.1407426405162186,"68":-0.031121001555897154,"69":-0.06711893760751984,"70":-0.19550600440142232,"71":0.12363939193812429,"72":-0.08775996137221036,"73":0.24515410760929093,"74":0.041965487375829634,"75":0.0002583715445314782,"76":0.18577694771406028,"77":0.08071181537758072,"78":-0.04897847028739111,"79":0.10316468706376931,"80":-0.12328682014566493,"81":0.14584357735806006,"82":-0.18808493851805025,"83":-0.012117222171179595,"84":0.09419822170818291,"85":-0.09168813143792343,"86":0.2023576625116689,"87":0.17309881842523597,"88":-0.005287763172523518,"89":-0.01834801030219897,"90":0.16510790964570535,"91":0.020750888083452088,"92":0.1323145995625446,"93":-0.06739893456936287,"94":-0.1279644394308592,"95":-0.2703212737232476,"96":-0.0930291060354142,"97":0.12023407527498908,"98":-0.07605349099380951,"99":-0.030829289081937265,"100":0.18187359912113002,"101":-0.12236709425297765,"102":0.13967021271208396,"103":0.07192510275185997,"104":-0.05070872050506729,"105":-0.12101774782585169,"106":-0.096014439826656,"107":-0.03388766775992668,"108":0.0895205527222662,"109":-0.19913237106660878,"110":-0.1542638404459964,"111":-0.004178220525112457,"112":-0.10614886030830939,"113":0.09459183763385424,"114":-0.10455641592554392,"115":-0.08578676256634313,"116":-0.04140345952641853,"117":-0.14082279614670667,"118":0.024127163883293456,"119":0.07674318290433045,"120":0.14039938450975933,"121":0.140967526866563,"122":-0.05045576027325677,"123":-0.08763278530929051,"124":0.15758722213341966,"125":-0.11657455511325367,"126":-0.1451277097700784,"127":0.0778637468420154,"128":0.07386745667123001,"129":0.0326582260828722,"130":-0.17466816327565207,"131":0.10482403230375607,"132":0.09431794157039543,"133":-0.016489177188796188,"134":-0.19436865163403796,"135":-0.0032890567982409805,"136":0.1472425483004202,"137":0.20598080675960856,"138":-0.1954384031793668,"139":-0.08941361989643322,"140":0.11733321751806079,"141":0.06966666798067851,"142":0.09478445248867073,"143":-0.28188498737588874,"144":-0.08831203330239588,"145":0.1035058495206865,"146":-0.25402448542552797,"147":0.15475393342222787,"148":-0.2077848811378133,"149":-0.1366130863756102,"150":0.26357908791402984,"151":0.12570363976989224,"152":0.008010813191664565,"153":0.1326950129063992,"154":-0.09387159419407962,"155":0.08475809383609965,"156":0.02966167674880939,"157":-0.07310623973325589,"158":0.17464565910801447,"159":-0.08043026739091058,"160":-0.11671211148055434,"161":-0.00018995128076034872,"162":-0.33737384542483784,"163":-0.01500299538583611,"164":0.1695425948745891,"165":0.09956148053216424,"166":0.1905715870955294,"167":0.24177337227480317,"168":0.027231816337670512,"169":0.11530064194136647,"170":0.06111386584023648,"171":-0.20220019035620423,"172":-0.1101074965859365,"173":0.09361463352245813,"174":-0.20362749608012423,"175":-0.0009232001802061883,"176":-0.26237327488945417,"177":-0.11625747598289296,"178":-0.11972169485746975,"179":0.14091913794166455,"180":0.371418191185034,"181":0.04973020399315806,"182":0.20197054539872167,"183":0.17570726934532585,"184":0.02160708678488507,"185":0.03138384753531185,"186":-0.12007211663090125,"187":0.14323766029724996,"188":0.11751064042695222,"189":-0.31809519598677405,"190":0.10084784535343072,"191":-0.14281874710676656,"192":-0.043560126905937586,"193":-0.17584204145894944,"194":-0.12185051648309021,"195":0.20423213507249238,"196":0.083715539739409,"197":0.16142225280858943,"198":0.17129381414072198,"199":-0.0034478954103246747,"200":0.18173618622908666,"201":0.013422683922446686,"202":0.04416135965654407,"203":0.11180780707768115,"204":0.04613131408261284,"205":-0.019022130320414856,"206":0.23126180685194295,"207":0.1991528073209234,"208":0.1247212416854038,"209":-0.06867809911248252,"210":0.15829212456134362,"211":0.012652907035436676,"212":-0.10498396044569493,"213":0.004946475039776275,"214":-0.22608568068480958,"215":-0.21113391031054696,"216":-0.03725245145122483,"217":0.05039091669102306,"218":0.17925314219598532,"219":-0.18384437330489856,"220":0.12132439506188834,"221":-0.18110226560541381,"222":0.16482533983758085,"223":0.015528412436242806,"224":-0.16433151598636253}},"9":{"bias":0.32849421554459496,"weights":{"0":0.1211698439278611,"1":-0.11527901026571534,"2":0.06653726295883011,"3":0.02782408830666796,"4":0.12379345153798851,"5":-0.010651304887011642,"6":0.1467119843676186,"7":0.18000443995179558,"8":0.19703562317429288,"9":0.08076996267130569,"10":0.11094628871525594,"11":-0.14453776483605907,"12":0.12329390597268637,"13":-0.17299259553557847,"14":-0.19581011260836664,"15":-0.07211106042619098,"16":-0.1627628746055852,"17":-0.3126479988644789,"18":-0.22696975837887273,"19":-0.18656071890087397,"20":0.06240873389493975,"21":0.10186141116370416,"22":0.08693676601050992,"23":-0.09668121859146579,"24":-0.07638029547141649,"25":0.2966625565565316,"26":-0.273773823631308,"27":0.01874971075516817,"28":-0.013812048198252935,"29":-0.2091089266984023,"30":-0.34561985435901704,"31":-0.18076819547047462,"32":0.0018582123058531726,"33":-0.1104958021603169,"34":-0.3198851617628965,"35":-0.24812954588537697,"36":-0.2753197975895479,"37":-0.10998968682227693,"38":0.12610962354235442,"39":0.18619170975336674,"40":0.26450207719382546,"41":0.3189179262366374,"42":0.07084370694213615,"43":0.10432967790693709,"44":0.1437835458270198,"45":-0.24489285948232675,"46":0.1276224405055289,"47":-0.2968389099368236,"48":-0.22100981728119862,"49":-0.5418194015607675,"50":-0.2995175546692374,"51":0.2021356882956027,"52":0.14384121924004806,"53":0.4486448720552922,"54":0.13878430662870656,"55":0.4789596583626556,"56":0.29607853993908306,"57":0.29372232145564275,"58":0.27963942384808954,"59":0.173677689124283,"60":0.13801499439039652,"61":-0.21993436584262868,"62":-0.3257069373195674,"63":-0.02204457693598749,"64":-0.05415623455990559,"65":-0.15504010490727516,"66":-0.06268930989511907,"67":-0.19152856481695127,"68":0.03197846870299429,"69":-0.2092853703595821,"70":0.20315512812856643,"71":0.48684720004812354,"72":0.4052649686532357,"73":0.30340061025162496,"74":0.33149868471886546,"75":-0.1420419002214999,"76":-0.155452092264325,"77":-0.32552356644665564,"78":-0.0844015930837534,"79":0.007227654310092708,"80":-0.10903321214070828,"81":-0.2061317894829592,"82":0.14348885223467805,"83":0.1541667428419382,"84":-0.1415049149087802,"85":-0.3339517340356909,"86":-0.15565071643317116,"87":-0.03141458266628601,"88":0.06524634490550281,"89":-0.008396879553390708,"90":0.02468266128707718,"91":0.0340665189085668,"92":-0.2329877838082813,"93":-0.002398722824707313,"94":-0.05625480451839918,"95":-0.17708779924036572,"96":-0.08463573748724781,"97":-0.11168748560332022,"98":-0.06921086699427124,"99":0.05403435971438295,"100":-0.09972150876326398,"101":-0.18110878392673704,"102":0.07678114503025112,"103":0.027581641062104374,"104":-0.3093170427466454,"105":-0.27577143262382303,"106":0.05588823599382973,"107":0.044886634976530185,"108":-0.09649849081134244,"109":-0.2977045657381964,"110":-0.31408932113981763,"111":-0.022496405898821018,"112":-0.023353975462898195,"113":-0.12519354063314578,"114":0.012470005102618089,"115":-0.19934784250454152,"116":-0.08169811341112865,"117":0.15770221771555495,"118":-0.21710466603214798,"119":-0.10370977314693554,"120":-0.47811604172397976,"121":-0.25546193305962583,"122":-0.18299882668979578,"123":-0.16716847153501288,"124":-0.3025572513441494,"125":-0.08171088058225887,"126":-0.11378637355567862,"127":-0.02615010164533865,"128":0.13865106202060506,"129":0.027599368159436685,"130":-0.2745897665022343,"131":0.0716592685283767,"132":-0.16326402983789948,"133":0.15287705349204414,"134":-0.17061793461966984,"135":-0.3473091082610701,"136":0.09628595365349558,"137":-0.3808436060218644,"138":-0.28045505272844756,"139":-0.4582538507951415,"140":-0.4712459065938731,"141":-0.04842599367590628,"142":-0.1646004799779801,"143":-0.03906140682259275,"144":0.01462006878755192,"145":-0.019631579553711354,"146":0.02093287887105967,"147":0.32338009249621125,"148":0.1167669985625781,"149":-0.26913578046674586,"150":-0.21406547480065186,"151":-0.11082366634731872,"152":-0.12594757665759138,"153":-0.22291930758071687,"154":-0.1384486038055745,"155":-0.294706414002407,"156":0.1116794293963135,"157":0.12407880818168422,"158":-0.013253970412146205,"159":0.2936690819222279,"160":0.09096138215138719,"161":0.032672234025383384,"162":0.20734403311374167,"163":0.41487653241618955,"164":-0.2650146393277911,"165":-0.25628112606965153,"166":0.018195011591685697,"167":0.19951648142242612,"168":-0.23926765060317834,"169":0.03229843529863339,"170":0.011512814247333065,"171":0.17101989336691684,"172":0.04827698425621055,"173":-0.027863031652368288,"174":0.1794110039508494,"175":-0.018396509712945798,"176":0.36228665343019323,"177":0.29996143161467476,"178":0.07520363686393175,"179":-0.07127650986555524,"180":0.049944401703138616,"181":-0.09129633832134751,"182":-0.05503396253450188,"183":-0.19932221662042202,"184":-0.28378070014744206,"185":-0.03972015573973518,"186":0.012521856143184983,"187":0.15513044720903932,"188":-0.003348459779144908,"189":0.4195844865674842,"190":0.1152716883506143,"191":0.2810800888514437,"192":0.17842022062257906,"193":0.19996409462913808,"194":-0.11220660528953962,"195":-0.003977614289005963,"196":0.012702781132859886,"197":-0.08928052607167608,"198":-0.02622803456259984,"199":-0.26716361949995865,"200":-0.09477162864952512,"201":-0.1275338685914564,"202":0.14697271262128248,"203":0.18863636402443304,"204":0.1743465949425025,"205":-0.32757418363621277,"206":-0.003108415786077801,"207":-0.14519078565740512,"208":0.11525491245979867,"209":0.12431482582919492,"210":0.38361738092310615,"211":0.11965363046069279,"212":-0.00538395423978947,"213":0.27560321035626806,"214":0.24927329183605296,"215":0.06901610191915411,"216":-0.14026071580676322,"217":0.12102283043121544,"218":-0.0992233987695144,"219":0.23609138982070507,"220":0.05188894553765911,"221":0.18258679636602423,"222":-0.002459878476588655,"223":0.37902100809085254,"224":0.045883543068901106}},"10":{"bias":0.09112773356992154,"weights":{"0":0.3621253180255628,"1":0.20834486172535316,"2":0.3038424245161104,"3":0.3306312254005545,"4":0.3865900708121656,"5":0.05427470202638651,"6":0.06532774390742063,"7":0.3398678084582662,"8":0.20459908618453965,"9":-0.1631496294584352,"10":-0.1644899139604168,"11":0.18744731933453945,"12":0.23870379890764548,"13":0.15830604737453755,"14":0.27460534457013375,"15":-0.13569172348008207,"16":0.2948418757074658,"17":-0.0954302367191284,"18":-0.12100092255012998,"19":-0.16570815860912608,"20":0.13473064395294168,"21":0.19143765054191772,"22":0.296605800324549,"23":0.0936233692295789,"24":0.2965933028024147,"25":0.2812982455819425,"26":0.20165977016106262,"27":-0.034426010559142586,"28":0.08854665004354097,"29":0.17285093957795483,"30":-0.11403287368811096,"31":-0.053036464498235465,"32":0.10008662970209524,"33":-0.01465342159760408,"34":-0.1417579707542717,"35":0.03646198685490817,"36":-0.19946666208334912,"37":-0.09383756155590957,"38":0.14842703532898432,"39":0.013172269764016059,"40":-0.004341071110742974,"41":0.2102643300922216,"42":-0.017139564065421532,"43":0.1455556788230749,"44":-0.21980772517286648,"45":0.14188245365245156,"46":0.14623533091097823,"47":0.21953790764774997,"48":-0.010773906234050237,"49":-0.2845032100392484,"50":-0.21022983402033665,"51":-0.033434870603419105,"52":-0.03505795925259683,"53":0.05298902848236919,"54":0.12871857692888417,"55":-0.018427604160099347,"56":0.04691352921184915,"57":-0.13126927136227412,"58":-0.22214539491763413,"59":-0.5057516017033987,"60":-0.19711278386055436,"61":-0.10810363005738191,"62":-0.21844804924930983,"63":-0.10975521107907693,"64":-0.005854820972175443,"65":-0.3445666070488564,"66":0.005463840378282711,"67":-0.2507644507944901,"68":-0.2308997179819823,"69":0.1860540784757002,"70":-0.16259725142234327,"71":-0.2067607112312949,"72":-0.13037022148750574,"73":-0.22988719512948408,"74":-0.37643842663697463,"75":-0.08285748131418401,"76":-0.18591739538998542,"77":-0.1849325544481341,"78":-0.27640794531479296,"79":-0.11485640699323145,"80":0.013374904289791012,"81":0.16736146532846913,"82":0.011634487364951112,"83":0.22337191859047056,"84":0.16166426917211885,"85":0.28934765115524974,"86":0.09768806340528877,"87":-0.10756233253492405,"88":-0.12325439873633415,"89":-0.14250535360535413,"90":-0.2414044979470276,"91":-0.024043618090286323,"92":-0.10148416725543609,"93":-0.33211294291245413,"94":0.04793552205673502,"95":0.08668396861301889,"96":-0.0864903275255255,"97":-0.11588899566905238,"98":-0.34843536959887544,"99":0.026305275216596688,"100":0.0704640703910626,"101":0.06012660630047026,"102":-0.3122580024076768,"103":0.04330967010477313,"104":0.002435137847855929,"105":-0.4095502735693602,"106":0.08651095945125639,"107":-0.18645729426082402,"108":-0.14720557786558391,"109":0.048878285652470425,"110":-0.002038993556058615,"111":-0.1173160830085529,"112":-0.0520950396628251,"113":-0.35676235170010734,"114":0.1057326860960882,"115":-0.04385646424285477,"116":-0.11966058519161464,"117":-0.2527315525640295,"118":-0.06269875061530375,"119":-0.16430544185279106,"120":-0.30091401904513254,"121":-0.2640306416230235,"122":0.03435283931947849,"123":0.11754455688388744,"124":0.1144851113106989,"125":0.042589717236082944,"126":-0.06213850495820181,"127":0.07148684089588478,"128":-0.21584432188602284,"129":0.07090642778203973,"130":-0.09954445773285535,"131":0.07188315349928905,"132":-0.039078254699415844,"133":-0.1432932349648483,"134":-0.12691829707593127,"135":-0.03707221091280761,"136":-0.16286489051011893,"137":0.01172608277142858,"138":0.025449530800952552,"139":0.03999484766128291,"140":-0.09308418764949263,"141":0.0856657566893238,"142":-0.008016950014867326,"143":-0.04279645279386991,"144":0.07624833340970678,"145":-0.09969928296966636,"146":0.11596477336244207,"147":0.003761755406427796,"148":-0.14508934037801025,"149":-0.1678384072843662,"150":-0.4175578820023428,"151":-0.0820400964954034,"152":-0.04766718069340765,"153":-0.1892693551209828,"154":-0.06400885673094295,"155":-0.34533598937257076,"156":-0.17531660431318755,"157":0.0731857019585726,"158":-0.1809281179186174,"159":-0.07575371705560208,"160":-0.3597296942195148,"161":-0.008493620619289616,"162":-0.21144140498275335,"163":-0.17349430896449938,"164":-0.01996767638750816,"165":0.020212604697011475,"166":-0.13007284724131157,"167":-0.009526342401352294,"168":-0.0026241329493457144,"169":0.1254969980585068,"170":-0.18542831706528598,"171":-0.148500378338487,"172":-0.2282926569585827,"173":0.03481426553424858,"174":-0.19326622239066354,"175":-0.5233098868636606,"176":-0.4534029186953396,"177":-0.19694931144908437,"178":-0.06589379088290984,"179":-0.3219980632187932,"180":0.2729870447851825,"181":-0.1972841744629346,"182":0.07006951855366152,"183":-0.20067492555683503,"184":0.09440184409474683,"185":0.006906132795926785,"186":0.2591570415070315,"187":-0.1980093908312372,"188":-0.14200140042612644,"189":0.05627602433910585,"190":-0.2872651951789495,"191":-0.24640252166436138,"192":-0.03544683627506487,"193":0.1831205857981255,"194":0.07601508532900139,"195":0.48418423543678574,"196":0.058346471538558195,"197":0.24359974291804593,"198":0.11175613205175133,"199":-0.09268379248037234,"200":-0.11163282969431211,"201":-0.08247831367714376,"202":0.13981997151523268,"203":0.23618332504189696,"204":0.190582579312213,"205":-0.04933217674717335,"206":0.07676742009460184,"207":-0.0492704820464356,"208":-0.06634963221751444,"209":0.18189462725941333,"210":0.5034063667820694,"211":0.04824005684336089,"212":0.37985018251021885,"213":0.11102378722256977,"214":0.18212872221606125,"215":-0.013388142163934344,"216":-0.16846089358750502,"217":-0.21045659560969496,"218":-0.07105192570035311,"219":-0.10366545385049075,"220":-0.17516973632292002,"221":-0.0590777197969957,"222":-0.16460875787031,"223":0.311556071638927,"224":0.03781367899831749}},"11":{"bias":-0.3193590598231277,"weights":{"0":-0.0730431526928994,"1":-0.25789919004785655,"2":0.023415146025836848,"3":-0.06775335633458612,"4":-0.22925555956743787,"5":0.024378029207579647,"6":0.10550852014782125,"7":0.3524509490170172,"8":0.05626234945919723,"9":0.2142025714214774,"10":-0.21069614813620322,"11":-0.09289389662387859,"12":0.07944507159067937,"13":0.11526773371863892,"14":-0.047515495290997085,"15":-0.27386552247741636,"16":-0.21402536532224245,"17":0.10652884122345156,"18":0.09562723233703344,"19":-0.0019005386859564694,"20":0.022473193262737206,"21":-0.14279541504016477,"22":0.024946606753054056,"23":0.05642927726344609,"24":-0.008029078058491722,"25":-0.17635966377969414,"26":-0.2932483327124306,"27":-0.26350131285178385,"28":-0.24333060532836429,"29":-0.2856905722740728,"30":0.13754683743339435,"31":0.008029889453575733,"32":-0.1610234581993001,"33":0.030319996299839197,"34":-0.05792581032957299,"35":0.20100405896420734,"36":-0.1895455042917235,"37":0.12096351733363482,"38":0.009465451497556648,"39":-0.002583800351698522,"40":0.19225689425559936,"41":0.40907886283813305,"42":0.09816158542070519,"43":0.16715062635639227,"44":-0.09729520961848423,"45":-0.005135841696923741,"46":0.19895533916964386,"47":-0.1751407136044029,"48":-0.06814649675284819,"49":0.24585475213130237,"50":0.26874283061726006,"51":-0.05277750315479678,"52":0.324351678981979,"53":0.03192179290897962,"54":0.28994531169196797,"55":0.1772061277183284,"56":0.16704540710089147,"57":0.0752207959917986,"58":0.3084070041070254,"59":-0.07743036983145567,"60":-0.190172392427773,"61":0.2730245954525648,"62":-0.12392975381766776,"63":0.10788285099318215,"64":0.03248667900881337,"65":0.1538215920496708,"66":0.10329523840541611,"67":0.008709829096322225,"68":0.1377224971622341,"69":0.13793401244944775,"70":0.47784615171212685,"71":0.08686554222108873,"72":0.19980261984775935,"73":0.3225880533640162,"74":0.18908323593661672,"75":-0.09164541382539314,"76":-0.06072170209152476,"77":-0.11481738650535754,"78":0.09640701207024151,"79":0.057840230453342446,"80":0.19926125767317301,"81":-0.16311054253527,"82":-0.08346992882913451,"83":-0.10640974211610121,"84":0.04595508158737272,"85":0.11046184789001236,"86":0.1305448908110697,"87":-0.160534326134553,"88":0.17194095373505378,"89":0.23614739347701066,"90":-0.168964140368194,"91":0.04033394665133066,"92":-0.1622353588209644,"93":-0.1251915722298193,"94":0.035647108769395267,"95":0.010785580236613504,"96":-0.0584687781986525,"97":-0.22763848024242975,"98":-0.28109243428802255,"99":-0.14761045970402156,"100":0.13822890820959538,"101":-0.3153767600221607,"102":-0.3529624511783955,"103":-0.22318110518417872,"104":-0.032335012528605926,"105":-0.14022074367458123,"106":0.010946583339538744,"107":0.002885203005610094,"108":0.04958520079618569,"109":-0.2566283764166333,"110":-0.2861109543580693,"111":-0.14697645846004428,"112":-0.006532206051902455,"113":-0.2403081924213729,"114":0.023487261798469435,"115":-0.015236615030098443,"116":-0.1897350526398985,"117":-0.06276063174889827,"118":0.2411689149530268,"119":0.5394213880076704,"120":-0.09486119271400396,"121":-0.09899377067259962,"122":-0.04581782781486807,"123":0.10393392846944938,"124":0.0191080517748024,"125":0.18923855921096677,"126":-0.33393200175946736,"127":0.07177772148228974,"128":-0.15428553294624733,"129":-0.2293388131843187,"130":-0.0258057428773946,"131":-0.3263930416678624,"132":0.010473258621200049,"133":0.23130573746679473,"134":0.5182400707426025,"135":-0.5105398354578967,"136":0.1264592445005236,"137":-0.09122972232126099,"138":-0.10142118559717044,"139":-0.06254916248935394,"140":-0.09233622905982712,"141":0.06391094388114305,"142":0.01310288644534152,"143":-0.25043098333243496,"144":0.11193225726172672,"145":-0.054790420275711335,"146":-0.2353969871873552,"147":-0.0002809232943263686,"148":-0.10337790927724028,"149":0.5410266147775274,"150":0.17066088813731095,"151":-0.11185839555532355,"152":0.10758720614764027,"153":0.21215285172656498,"154":0.087901868367445,"155":-0.03664290838498551,"156":-0.13268317062082402,"157":-0.10750702483861875,"158":0.002591291764544474,"159":-0.026544192829101792,"160":-0.05655833797354378,"161":0.41112440748444185,"162":0.2883760694926878,"163":0.31302678952609814,"164":0.5552939386195704,"165":0.21502435818931534,"166":0.14816165190152106,"167":0.14194480944127258,"168":0.2970051910152345,"169":0.06674267297440668,"170":0.06553716075395556,"171":-0.18872927923636076,"172":0.0730140349506519,"173":-0.08588831604587922,"174":0.10508228763941428,"175":0.2850730273927631,"176":0.32903422053676185,"177":0.30861856348231087,"178":0.25156955662950886,"179":0.18548130142927266,"180":0.25625598507045905,"181":0.47293398285997823,"182":0.3710095450128224,"183":0.30076061084349087,"184":0.5453031455683582,"185":0.06874117538364341,"186":0.06092761215794499,"187":0.36088159730690705,"188":-0.05214474681955184,"189":0.15777003295026898,"190":0.49649739534329096,"191":0.3030541869527124,"192":0.3604621193400376,"193":0.12435775188407468,"194":0.29049192492129383,"195":0.3504234091961686,"196":0.12718102468305967,"197":0.21800947834630768,"198":0.37628513815092945,"199":-0.06177997504841385,"200":-0.04600627641665033,"201":-0.2890476116430618,"202":0.24666434613614943,"203":-0.1477635554133049,"204":-0.006362135347243596,"205":-0.09246548891556333,"206":-0.0709521662707356,"207":0.16291221999923278,"208":0.017477433135184864,"209":0.08818119581655273,"210":0.3583293625197306,"211":0.184249764637367,"212":-0.20139461203490677,"213":0.03706000291085598,"214":-0.22781259668506076,"215":0.03401311307955468,"216":-0.13188016791161808,"217":0.17263852455024303,"218":0.03254161641328169,"219":-0.11509174582797488,"220":-0.1728630648361102,"221":0.04129406004394476,"222":-0.44750188201913893,"223":-0.20989362487779437,"224":-0.32205502049676993}},"12":{"bias":0.5002208266456877,"weights":{"0":0.16030262876381982,"1":0.0026871951712086274,"2":-0.09568898096901261,"3":-0.2475789768205761,"4":-0.20240170659710668,"5":0.1413523097824886,"6":0.017939771112160455,"7":-0.1427817051677333,"8":-0.051490963947306255,"9":0.03237651825179928,"10":0.11750990397143306,"11":0.08084519853638646,"12":-0.13658687768913597,"13":-0.06237179169499805,"14":-0.1517166287922784,"15":-0.06356000117046713,"16":-0.16791848541324358,"17":-0.28591300440780737,"18":-0.1505261122893545,"19":0.03378405095328732,"20":0.2558918944534271,"21":0.029719958055584146,"22":-0.07930991405298979,"23":-0.1338622838042486,"24":-0.13444819812375622,"25":0.18357799269621314,"26":0.07757220728576339,"27":0.12731089542159843,"28":0.01308722344249914,"29":-0.18518323805473014,"30":-0.568845407556975,"31":-0.35610714131354054,"32":-0.0002386430108317229,"33":0.015107572794172696,"34":-0.21037436695000264,"35":0.21082023934693986,"36":0.03758265965704768,"37":-0.16993232885794643,"38":0.023927612474637074,"39":-0.0033882949825098326,"40":0.09197386736598266,"41":-0.1269044460143006,"42":0.316902378785583,"43":-0.027869948433412797,"44":0.17637188876015056,"45":-0.2559331974179014,"46":-0.011000080592207988,"47":0.19204274058626283,"48":0.34852925233209536,"49":-0.12164167740726611,"50":0.08272991514244386,"51":-0.05326980285917152,"52":0.22055153194699884,"53":0.2712584290409228,"54":-0.1334734232374512,"55":0.14201227104043262,"56":0.2754459719368928,"57":0.15430845633965734,"58":0.20502665551398422,"59":0.004163424187222894,"60":-0.1507129608749789,"61":0.07958081333554615,"62":-0.08392897625466265,"63":-0.1429963997151135,"64":0.20481415092113806,"65":0.23974504897076593,"66":0.302004203296207,"67":0.08681464359328327,"68":0.16953831209915504,"69":0.08197821929604086,"70":0.0546655862618857,"71":0.0953736096404809,"72":0.03535548165738858,"73":0.03446768529880001,"74":0.007856120837124359,"75":-0.03455259624822742,"76":0.11685843464724473,"77":-0.13503937500671537,"78":0.1610492604879659,"79":0.14301384825151864,"80":-0.15614144283988854,"81":-0.09324127540448401,"82":0.025326299633887356,"83":-0.024622034514328484,"84":0.0008441850597739397,"85":0.16464982881003803,"86":-0.0502599022499309,"87":0.25791454150494414,"88":0.015379537017073503,"89":-0.08788044800863143,"90":-0.026083977790535735,"91":-0.11833461201587717,"92":0.03430691891087939,"93":0.1902279799640816,"94":-0.04450804088672738,"95":-0.03021762835333196,"96":-0.0038823523322985163,"97":0.13475773488607462,"98":0.3483547572762592,"99":0.06350777598924306,"100":-0.0646805815606624,"101":0.29198009179790696,"102":0.2393557438593126,"103":-0.08548291392507137,"104":-0.25184688612287887,"105":-0.0711125019832631,"106":0.13305005700203112,"107":0.1758554194401128,"108":0.22334643800602955,"109":-0.1968968571384686,"110":-0.08237760362524554,"111":0.051050441568993854,"112":0.05815058625341011,"113":0.11408156290192271,"114":0.15802691880733266,"115":0.07486968213614474,"116":-0.008468657881559876,"117":0.11875304979361204,"118":0.01455835652926464,"119":-0.18014665733302723,"120":-0.1598498604669391,"121":0.12603268512401034,"122":-0.06961063763598993,"123":0.010650595928948443,"124":0.08888594280717908,"125":-0.21555724465743953,"126":0.18264998828346315,"127":-0.12476185177620008,"128":0.2259385427942298,"129":0.44924695916691076,"130":-0.03689949682325273,"131":0.2736600092334089,"132":0.10900400628983362,"133":0.08060040744084025,"134":0.17205955149984253,"135":-0.007624110301855508,"136":0.09572938644761868,"137":-0.16183859788340862,"138":0.15661789077126892,"139":0.1477683201040854,"140":-0.09009718265125297,"141":0.03760389494311931,"142":0.186693712089917,"143":0.37223973956305145,"144":0.4592258433885036,"145":-0.036566483690799324,"146":-0.08160293890824243,"147":0.1387928430679881,"148":0.05875229310482813,"149":-0.06031327965699724,"150":0.13151305460493307,"151":0.07694964031707602,"152":-0.22560617888092185,"153":-0.06531478313318116,"154":-0.1717026774813453,"155":0.0800314316713138,"156":-0.012345039463738189,"157":0.3298600100981885,"158":0.21228541239345777,"159":0.3050540349798393,"160":0.16728315867921414,"161":0.21196222427557196,"162":0.05992485465780595,"163":0.2105425114871291,"164":-0.40077138940347473,"165":-0.290133538601561,"166":0.046057409719720326,"167":0.0563429542471265,"168":-0.30521652593655496,"169":-0.03324307698628525,"170":0.1804298783922891,"171":0.11565875265610216,"172":-0.04033676637240974,"173":0.1522509755258077,"174":0.22542761905908118,"175":0.08395669277022628,"176":0.024498210787266925,"177":-0.06814642691128087,"178":-0.09608234576663406,"179":-0.08887581501590605,"180":-0.22479764271969502,"181":-0.06478564626981063,"182":-0.29711714206240203,"183":-0.33343299632515655,"184":-0.20966667917117876,"185":-0.1409376955918683,"186":-0.05253790597261178,"187":-0.049852710671486805,"188":0.34225448625724586,"189":0.3369722622966467,"190":-0.09758236911573787,"191":-0.16815796185522533,"192":-0.3133622022690688,"193":0.254670088801569,"194":-0.032702371450973385,"195":-0.44150861690788273,"196":-0.11882908393075035,"197":-0.2150410450337073,"198":-0.042708537836186014,"199":-0.11555655368359662,"200":-0.1906972212958812,"201":-0.2132299423396039,"202":-0.014564503763913154,"203":0.012253085479513239,"204":-0.1101223928343541,"205":-0.23240048856386789,"206":0.018423332309341723,"207":-0.1676148758695041,"208":-0.043045563835248636,"209":-0.17456352250749552,"210":-0.2963177080788602,"211":0.21194480818844946,"212":-0.25350669360532985,"213":-0.04468239901265374,"214":-0.019406760747192612,"215":-0.08006001497648133,"216":-0.0886622102586745,"217":-0.39819124470644585,"218":-0.21871131574244912,"219":-0.3955422613274323,"220":-0.10520074390740386,"221":-0.38312708598938044,"222":-0.26125595638388466,"223":0.043465135310294514,"224":0.17979849977809026}},"13":{"bias":0.1486440074684075,"weights":{"0":0.04898640030294753,"1":-0.2786851493689092,"2":-0.07663401461474466,"3":-0.1904871144226174,"4":0.01343046558380877,"5":-0.322966457413772,"6":0.020166253431346908,"7":-0.45161424483191026,"8":-0.030625284453015458,"9":0.0010207804624797086,"10":0.05741510493429926,"11":-0.08543273529194066,"12":0.11579834772130367,"13":0.14307701396511804,"14":0.16366286904914523,"15":0.03660589634532467,"16":-0.3134695551578081,"17":-0.09196139457790366,"18":-0.34088383784502707,"19":-0.16794434086006116,"20":0.05402878769020135,"21":-0.15437435615197015,"22":0.017937696852458756,"23":0.04263364678975199,"24":0.0597715678226743,"25":-0.050643459075089575,"26":-0.1287076530174487,"27":-0.01988544056551134,"28":-0.07206902994476214,"29":0.2604784347272939,"30":0.080182356197082,"31":-0.0825000021947074,"32":-0.2265545666692127,"33":-0.02357427189483814,"34":0.17766589347302728,"35":0.06931741994273938,"36":0.23269618643318254,"37":0.1713706915942184,"38":0.09183514549253476,"39":-0.0711905378096192,"40":0.28186445557248846,"41":0.07303248313290475,"42":0.02097240004275642,"43":0.00468161520635833,"44":0.02648860226750663,"45":-0.025085361954216377,"46":-0.16619848428045467,"47":-0.05764841212806351,"48":0.21126592769184666,"49":0.291209350184739,"50":-0.03856962176371858,"51":0.16317170123809388,"52":0.18782678506417316,"53":-0.12022156731108775,"54":0.13791642895074027,"55":0.0683206987752887,"56":0.042396137728885445,"57":-0.15477757618887866,"58":-0.036327314077028945,"59":-0.11571834256474622,"60":0.14498695938049994,"61":-0.03770188554648314,"62":-0.025827927094996508,"63":0.020769613840855683,"64":0.2355685800241485,"65":0.013032303050797039,"66":0.24158541673266037,"67":0.38827823752507595,"68":0.13243808069872107,"69":0.14484260802191876,"70":-0.055531815974799476,"71":-0.024270856807230987,"72":0.1064504473067011,"73":-0.016225229933131174,"74":0.03811523968834214,"75":0.13596042942954603,"76":-0.08027785817091304,"77":0.15144830912628707,"78":0.018673332661716415,"79":-0.0008886697831253094,"80":-0.11546701645713002,"81":-0.047585589351067145,"82":0.2223749772298985,"83":0.17076234137791457,"84":0.10215018901117065,"85":0.06564222963034995,"86":-0.2192782597088715,"87":0.08675897848542209,"88":0.2437491774543132,"89":0.03909826364976232,"90":0.17476488789401554,"91":0.35537333950062583,"92":0.1838277166077753,"93":0.12301303783174174,"94":0.020153637590613567,"95":-0.2061206499562987,"96":-0.09518040330332776,"97":0.08857878386670881,"98":0.10971916711720436,"99":-0.022874199708291403,"100":-0.11192505803450652,"101":0.1270120706551155,"102":-0.08707284754003183,"103":-0.12621959376285383,"104":0.04932966742098576,"105":0.031636481409987816,"106":0.3053996352347221,"107":-0.08010698161909048,"108":-0.054299142494200696,"109":-0.1325226200917573,"110":-0.0734206078848698,"111":0.006539901456524851,"112":0.07125870207367009,"113":-0.3512944846832839,"114":-0.2504508717392048,"115":-0.16479797731404783,"116":-0.31300336859537814,"117":0.03766255987674397,"118":-0.04976336231798378,"119":-0.12644860608449116,"120":-0.09241393734465228,"121":-0.2529001750905729,"122":0.11299284429591402,"123":0.21132330042017863,"124":0.28277920591505246,"125":0.3070354623529752,"126":-0.07065008791441764,"127":0.007069443741469982,"128":-0.029597957903046496,"129":0.17129015743479198,"130":0.10190215071841285,"131":0.12408142147883156,"132":-0.09364273113598362,"133":-0.014448068522280985,"134":-0.31179255744929735,"135":-0.08078851175545362,"136":-0.028824797729606354,"137":0.1797372883484062,"138":0.11317065148514088,"139":0.16610486591488,"140":-0.07405759678430064,"141":0.16590521348415638,"142":0.03376033034370323,"143":0.012757495738573316,"144":0.2007547554788183,"145":0.02720164102659992,"146":-0.0559762908728225,"147":-0.06040517840127718,"148":0.05097536725871784,"149":0.10187205057077404,"150":0.2506429512690578,"151":0.057048939501285006,"152":0.3215238235824564,"153":0.14168643028622777,"154":-0.25044826812792165,"155":-0.08972347194217938,"156":-0.11295486032674633,"157":0.06911795963252906,"158":-0.17398840571392601,"159":0.056978840580698936,"160":-0.11656730740989148,"161":0.13241862512360097,"162":0.1497283121602239,"163":0.19184427467472223,"164":0.12855572697301493,"165":0.07096323662027247,"166":-0.12240568742643575,"167":0.01040069907045004,"168":0.16071627463228744,"169":-0.15461164002747046,"170":-0.1691982440508777,"171":-0.2255912210375517,"172":-0.21758804809466778,"173":-0.10150410846743263,"174":-0.03364985270080411,"175":-0.33586024910524404,"176":-0.007850926762710122,"177":-0.06418127238593424,"178":-0.12412397333604196,"179":-0.07339146775949805,"180":-0.11419280583316782,"181":-0.33856896978003825,"182":-0.08981810323215983,"183":-0.20459121769614944,"184":-0.21983098870346762,"185":-0.0023549878706591323,"186":-0.2510465449821462,"187":-0.1974056651273762,"188":-0.16558060647865394,"189":-0.2572250611307895,"190":-0.17856508763538373,"191":-0.19594367055740897,"192":-0.13138745490846995,"193":-0.22493303246985497,"194":0.025519806960147592,"195":-0.04134207665432688,"196":-0.2359491792652285,"197":-0.3239335309380034,"198":-0.3239295671501214,"199":-0.272162650776062,"200":-0.01610708971218088,"201":-0.022779476796650745,"202":-0.07294103702819908,"203":-0.32766173969878715,"204":-0.0429531658898252,"205":-0.0021704389952064067,"206":0.011786051122027397,"207":-0.37436435576987437,"208":-0.03202415946637296,"209":0.20622512714308328,"210":-0.053634670941639435,"211":-0.18542849021614138,"212":-0.39155411691199743,"213":-0.12435065021786454,"214":-0.3970018491894929,"215":-0.34855094171708734,"216":-0.5381495029092277,"217":-0.25558383538782414,"218":-0.3474527079036086,"219":-0.2357439469688277,"220":-0.2712131990953076,"221":-0.4286853340223134,"222":-0.17655050453058208,"223":0.07532400808719547,"224":0.2982616973539466}},"14":{"bias":-0.11345939148755867,"weights":{"0":-0.10761643767370108,"1":0.07876074353783827,"2":0.23327254683125068,"3":-0.08798352655762055,"4":0.14756806699063663,"5":0.3310688751289097,"6":0.25370200897959144,"7":0.31368414197105804,"8":0.21087576020235343,"9":0.01767348599519066,"10":0.18530798804104184,"11":-0.0644098190885554,"12":-0.12553643415891064,"13":-0.14843314834423682,"14":-0.22585826295801553,"15":-0.2673636186265944,"16":0.19994238384187082,"17":0.17407775954699312,"18":-0.11328574789821873,"19":-0.15353205184990587,"20":0.038572921238645336,"21":-0.15966841738668605,"22":-0.044321125365826344,"23":-0.026402472892879503,"24":-0.03432678587636103,"25":0.01033134356651499,"26":0.06713055843381512,"27":-0.13901174441469052,"28":-0.13350845305771117,"29":-0.09956567311879086,"30":-0.1671195401215899,"31":0.07047845342486164,"32":0.009518609122022625,"33":0.1775055200199371,"34":-0.2629647359703561,"35":0.031621461834895816,"36":0.3121393891112478,"37":-0.19569267073494095,"38":0.02203687650124575,"39":-0.11779468960168314,"40":-0.16613288238713245,"41":-0.0752855776995732,"42":0.19640459719034625,"43":0.24082647180037386,"44":-0.08623488015426825,"45":-0.30659068593560074,"46":-0.2878059325718584,"47":0.17206464291328258,"48":0.16393493223579975,"49":-0.13062635190856675,"50":-0.21634556920151077,"51":-0.15846147397480215,"52":0.1074474988909923,"53":-0.0369625371318914,"54":0.10532998119706871,"55":-0.2216764186350433,"56":-0.04108308575782074,"57":-0.13008182679865313,"58":-0.16867367593022872,"59":-0.04498371076946213,"60":-0.18354517493646832,"61":-0.1488219700073662,"62":0.0486558017690203,"63":0.07985277740269436,"64":0.09465425371214015,"65":0.1953612770522599,"66":0.030654626451646013,"67":-0.0076241338517989065,"68":0.23320933118529685,"69":0.22296586371881058,"70":-0.2041754429037417,"71":0.09222171157863324,"72":-0.04338406511010945,"73":0.1024308289146535,"74":-0.044665736187737344,"75":0.19016233242465339,"76":0.08731142526401357,"77":-0.017061769192231818,"78":-0.0199595883796699,"79":-0.02207481459475097,"80":-0.2562082689797419,"81":-0.1042196416181606,"82":-0.054755572064409466,"83":0.16235902430005839,"84":-0.09272165584462336,"85":0.17073817879731507,"86":0.2694913994101177,"87":0.0863224405561758,"88":-0.13206375537893433,"89":0.25451038169292567,"90":0.029997260460665885,"91":0.1266696968974647,"92":0.1347377553833107,"93":-0.09239970158591504,"94":0.06276467867854175,"95":0.0333226690540485,"96":-0.261731877405712,"97":0.13641797432400565,"98":0.15395110802598588,"99":-0.029698449953917936,"100":0.24057037350215163,"101":0.03057895703536666,"102":0.22801714612561624,"103":-0.17855030469525052,"104":-0.28839349241629125,"105":-0.006799236792882307,"106":0.10664538762056204,"107":0.050761561984141064,"108":0.14857383980053393,"109":-0.10958433703919276,"110":0.00850324223307005,"111":-0.3222534335052202,"112":-0.2973339144831397,"113":0.12896314990101307,"114":-0.16388484657997726,"115":-0.023773069161805355,"116":0.11093581693634574,"117":-0.20415644036269678,"118":-0.1426713294588256,"119":-0.0646464748082686,"120":0.32436417982287447,"121":0.24871236001031993,"122":-0.1389112805832941,"123":0.2906979145331403,"124":-0.10240220492959541,"125":0.15650982447140546,"126":-0.08622921288575844,"127":0.14051413417448802,"128":0.3284520792317903,"129":0.1214554591658806,"130":0.19154497402023424,"131":0.05549206415117497,"132":0.03606779804735081,"133":0.016533565042046932,"134":-0.05136030032233847,"135":0.41028768335828747,"136":0.6226332345129794,"137":0.26907647089212244,"138":0.1705000365417504,"139":0.04529116650670872,"140":0.4551435255195284,"141":0.43290093515295197,"142":0.0208451105508261,"143":0.1693675898131147,"144":0.06012061526055634,"145":0.3942510601192999,"146":-0.019560349213985175,"147":-0.009912975059525006,"148":0.12442657230094467,"149":-0.23345856687682937,"150":0.45628159263046036,"151":0.22494307955829504,"152":0.17852866519588323,"153":0.20622249282718005,"154":0.3225976278491482,"155":0.41689579465356663,"156":0.1545447107428158,"157":0.21817617363494873,"158":0.32280710098992405,"159":0.02618822038711722,"160":0.13438112081561238,"161":0.038859945439605637,"162":0.06766633036074805,"163":-0.14726188986781136,"164":-0.2756333368623491,"165":0.28614152718309765,"166":0.37809195054096467,"167":0.3677934790806318,"168":0.21876897487971483,"169":0.4368085468510881,"170":0.12729854137495633,"171":0.2337878974888419,"172":-0.013912350321077944,"173":0.3018316756083454,"174":0.15688071299123135,"175":0.2102931749588535,"176":-0.137772985869546,"177":0.11680144943991863,"178":-0.31674194091331126,"179":-0.15463552481773796,"180":0.030718672407281905,"181":0.34424524138589613,"182":0.3131192002579734,"183":-0.06049691572175417,"184":0.19923419302925843,"185":0.08070608109592164,"186":0.1936108290558037,"187":0.04278297663499259,"188":0.24700372405048507,"189":0.09336915917016231,"190":0.24426031486970576,"191":0.13671721266047346,"192":-0.10909059601619987,"193":-0.05626326768749467,"194":-0.01456408795736112,"195":0.0037239690193029444,"196":0.27764626352828736,"197":-0.005813526863104887,"198":0.022571120163038947,"199":-0.1076351456270767,"200":0.1388301629163483,"201":-0.04091943259703562,"202":-0.16778299620887288,"203":-0.11526307975351789,"204":-0.17467920783429175,"205":0.18085915662635862,"206":0.14079295589409824,"207":-0.16345207315377788,"208":-0.0016348453020006931,"209":0.107629947952291,"210":-0.08516780199876775,"211":0.025402719899208507,"212":-0.3303484211293054,"213":-0.0486944803457553,"214":-0.2657403373872766,"215":-0.24751024707796745,"216":-0.047011922120489914,"217":0.14421406623787858,"218":-0.1612859858666681,"219":-0.35808823516069244,"220":-0.12503190582303503,"221":-0.1857011796560392,"222":-0.1532645651763934,"223":-0.3998632001433367,"224":-0.021359493258837587}},"15":{"bias":-0.3279327589258399,"weights":{"0":-0.009794978870587407,"1":0.23756340160481307,"2":-0.0050099602612494396,"3":0.15670830704071043,"4":0.06880215266387091,"5":-0.04366873868251417,"6":-0.00037377578654754136,"7":0.1044209216086017,"8":-0.3845793789548787,"9":-0.24892375818010487,"10":-0.11269590575870321,"11":0.09161467841320584,"12":0.42417277318202284,"13":-0.00036533488036516015,"14":-0.03403239687844409,"15":0.08147188169411955,"16":0.1654481193367081,"17":0.04134371506816018,"18":-0.10175265310811321,"19":0.1244844894995102,"20":-0.1649112935299312,"21":0.2286842917730437,"22":0.26656836706330744,"23":0.06652803380719095,"24":-0.23043106423254658,"25":-0.11367246861572611,"26":0.09066724782989205,"27":0.07120981655753761,"28":0.13907397631028612,"29":-0.07898276549380814,"30":0.11954990924252402,"31":0.009400449808208311,"32":0.205096615180456,"33":-0.029532900059491173,"34":-0.16890805231084546,"35":0.06144030736965364,"36":-0.12055363862176227,"37":-0.007703434620041758,"38":0.15245263044187204,"39":0.005341233526773827,"40":0.048188637880025136,"41":-0.23254512647190262,"42":0.025484613805338473,"43":-0.21770231969718296,"44":-0.13508919101654576,"45":0.0067442178731802,"46":0.10463934766674919,"47":-0.09903409494627387,"48":0.0454148762349372,"49":-0.09979679660143706,"50":-0.14209876325885865,"51":-0.10921397120429396,"52":-0.016552735550242628,"53":0.10460962300033161,"54":-0.2384678601126231,"55":-0.12143956787667802,"56":-0.08698322721597006,"57":-0.18116793895133584,"58":-0.1113651656927784,"59":-0.3095455751848505,"60":0.0262231813943285,"61":0.07380525114888421,"62":-0.18347284053866839,"63":-0.32077261467408036,"64":0.062114669524311786,"65":-0.2722854950319998,"66":0.13915646882512703,"67":0.11120126095925544,"68":-0.2359120148218088,"69":-0.02648337716043686,"70":0.19065391950759966,"71":-0.30406480145708964,"72":-0.177817280340654,"73":-0.09608478930509948,"74":-0.38617357600878055,"75":-0.3004036335885288,"76":-0.10178644564016696,"77":0.020151122632082172,"78":-0.11360376633415913,"79":0.17296153458722294,"80":0.2111081216514102,"81":0.39870554390897917,"82":0.13079755978907123,"83":0.4412093011771843,"84":0.4471813856161106,"85":0.16130653638033965,"86":0.2546296627478332,"87":0.303136888970492,"88":-0.14539480818320433,"89":-0.6586579758629465,"90":-0.26415796093443106,"91":-0.17600131935438962,"92":0.01537862853307732,"93":-0.016761737365560518,"94":-0.15981084844702753,"95":0.19597333986683135,"96":0.15313111535845497,"97":0.08129337682582827,"98":0.10651602137271816,"99":0.10950364144610046,"100":0.062498068061396794,"101":-0.05689944833636936,"102":0.02498788515888036,"103":0.46537851714198736,"104":-0.12214784620017025,"105":-0.30562889363643425,"106":-0.24242770705658306,"107":-0.33585931031936683,"108":0.23038573696232664,"109":0.3173417262694351,"110":0.20560900384565037,"111":-0.05994841852744097,"112":0.17100446880254444,"113":0.13079840765320253,"114":0.13601198294845965,"115":0.07877213522005645,"116":0.38297259799401423,"117":0.27380956436231135,"118":0.31052385358010826,"119":-0.11421927259975209,"120":-0.36738149810031,"121":0.003824500125642157,"122":-0.09960633697590367,"123":-0.2065419516814158,"124":0.18281209966584303,"125":0.137216207101361,"126":-0.16687834110175326,"127":0.003001412893258647,"128":0.12878748910984328,"129":0.008920880118320896,"130":0.0017680665074158459,"131":0.23165613420024453,"132":0.2536413466765504,"133":-0.1359991381209425,"134":0.21496988712498297,"135":-0.1504246472932,"136":-0.014141675785307875,"137":-0.21255194416973688,"138":0.046286221542383876,"139":0.2524777659267591,"140":-0.11589405060268611,"141":0.21475153659530416,"142":0.06005903150965251,"143":-0.001811129481795634,"144":-0.042884842963727576,"145":-0.10070789862098886,"146":0.07232890583933274,"147":-0.04790170736700084,"148":0.06539715175472424,"149":-0.34889659361668096,"150":-0.5365622126468595,"151":-0.08098368332415457,"152":-0.3430069851429215,"153":-0.3996652445737224,"154":0.03274593699646807,"155":-0.09615132374223768,"156":0.19815179005179315,"157":-0.08906935440849782,"158":0.10860492560943692,"159":0.1585829844462747,"160":0.14967352464292163,"161":0.05244299293621228,"162":-0.12433535350107,"163":-0.12778187390932408,"164":0.12684498544653658,"165":-0.22789911797517856,"166":-0.15958398379063637,"167":-0.4638152971858433,"168":-0.4117096677988904,"169":-0.16704282433997977,"170":0.06333638156120958,"171":0.032469212822742434,"172":0.12341214161419958,"173":-0.11386601872022002,"174":-0.13304917675599545,"175":-0.1943532115555368,"176":-0.024183582649382314,"177":-0.056614747149380446,"178":-0.11376625597803453,"179":-0.1092140894061096,"180":-0.2578786964307616,"181":-0.03544537832800434,"182":-0.01949947704573307,"183":-0.12152570174178086,"184":-0.039876385072439784,"185":-0.06888408814455596,"186":0.026916730793851713,"187":-0.010574308675900623,"188":0.1550475159734767,"189":-0.10268405177084117,"190":-0.24318722557572628,"191":-0.14986986498191238,"192":0.08045575595763742,"193":-0.05457400794013205,"194":-0.28659124609688863,"195":-0.2691339061739758,"196":-0.5035809795350604,"197":-0.1642789653775778,"198":0.040950963317979386,"199":0.0427245388645634,"200":0.14053553380231587,"201":-0.13509991623215276,"202":0.07582798622065169,"203":0.20024000113068166,"204":0.02457852858292702,"205":0.08312084045259592,"206":0.11023577974925991,"207":0.15536184430749161,"208":0.2774493224092345,"209":0.29781271555865496,"210":0.006102490142295282,"211":0.08160453478888251,"212":-0.04259745322055854,"213":0.2583282318063927,"214":0.27799260466296366,"215":0.26630185539208934,"216":0.1932614142213107,"217":-0.08856667633947374,"218":0.1100405887604578,"219":-0.20734834131576568,"220":-0.12598166338895017,"221":-0.015944290016560676,"222":-0.023666813806452882,"223":0.3792906240236866,"224":-0.3833782511588624}},"16":{"bias":-0.13747852165389812,"weights":{"0":0.3611201669767202,"1":0.42348168625962385,"2":0.1613858848022547,"3":-0.029495672382621595,"4":0.07755269157414928,"5":0.09167999306017258,"6":-0.13548774671968727,"7":-0.10309969215877127,"8":-0.20920484126033223,"9":-0.20782115472742826,"10":-0.27156250244363817,"11":0.015331706271642067,"12":0.06832868266942495,"13":0.019338307194859117,"14":0.16156135364406468,"15":0.20980185895331876,"16":-0.01666153253669085,"17":0.0429314267651469,"18":0.059165418058389915,"19":-0.030613448608273777,"20":0.014385638563593673,"21":0.2134555535126498,"22":0.37789211436241427,"23":-0.001080865624525093,"24":-0.019237426502062612,"25":-0.1194863116103988,"26":0.007938779803588699,"27":0.09964931982715429,"28":-0.13558791442257823,"29":-0.1392651185790208,"30":0.003898056800274677,"31":-0.19269097520690415,"32":-0.08644292792969917,"33":-0.10337303295395742,"34":-0.19934750070751478,"35":-0.20167418543678614,"36":-0.20872449522829561,"37":-0.24658207669059695,"38":-0.04183217743063972,"39":0.024081900735959595,"40":-0.03286334447657461,"41":-0.16483470943754885,"42":-0.3089143683562659,"43":-0.29010524701820484,"44":-0.1732442869099553,"45":0.08805136373775602,"46":-0.19755841895898874,"47":0.157832331868805,"48":0.053743175147870054,"49":-0.17716322104744725,"50":-0.039733997680003574,"51":-0.2305609513096776,"52":-0.10267032142976447,"53":-0.3029703570334709,"54":-0.132991393630122,"55":-0.2662304140068891,"56":-0.2279395925007642,"57":0.007653952626611664,"58":-0.27621125719464584,"59":-0.011886262405372579,"60":-0.13280473916526064,"61":0.0623056359299571,"62":0.1151278932427321,"63":-0.15956418651459311,"64":-0.23744403076036752,"65":-0.2050258197066942,"66":-0.153813055890627,"67":-0.1777128747843181,"68":-0.011840460469093626,"69":-0.14521044828971408,"70":-0.027466315597505314,"71":0.01731195256163494,"72":-0.14170683301743406,"73":-0.06593813444253872,"74":-0.21428314065929235,"75":-0.035459680980367426,"76":-0.031482383917903846,"77":-0.20978809577358404,"78":0.008416703191218148,"79":-0.03772739249117259,"80":-0.17879835569380817,"81":-0.2035749051390116,"82":0.1971759758924426,"83":0.19102870705940156,"84":0.2779285494718742,"85":-0.04853735914430214,"86":-0.0046942665915415535,"87":-0.018172012672775174,"88":-0.18848261020693333,"89":0.04563051123328875,"90":-0.008230278718091465,"91":-0.05381753436942388,"92":0.07130478825718577,"93":0.07955019711229973,"94":-0.11739948200892028,"95":0.28558405018534366,"96":-0.007183957098030593,"97":0.030032028670221485,"98":-0.14292571599947695,"99":-0.09782449412642495,"100":0.04601178661564137,"101":0.2937852182570624,"102":0.03144611026975897,"103":0.276824507051216,"104":0.27303271636462995,"105":0.011917226134562158,"106":-0.12782746789275237,"107":0.14488711374182456,"108":0.11562917992057796,"109":0.22357073404136915,"110":0.09382943837396851,"111":0.021261677895997377,"112":0.004614064917386519,"113":-0.13329257079123435,"114":-0.058947281476864385,"115":0.060783860178552196,"116":-0.024725222586269753,"117":-0.0912229240896128,"118":-0.14649083924817688,"119":0.173382621445338,"120":0.11648989340704743,"121":-0.2175928994567837,"122":0.047133292378283384,"123":0.10137687456258485,"124":0.2016318385203885,"125":0.3041595881760023,"126":0.06444437594601143,"127":-0.1811120923135373,"128":-0.04344613776496476,"129":0.08367843582755022,"130":-0.10580104088005242,"131":0.08693171562939583,"132":-0.0840860380746487,"133":-0.15847382164179516,"134":0.013345007628679349,"135":0.0281757718613731,"136":-0.086073326928711,"137":0.1344356821690192,"138":0.284247840153548,"139":0.3144824392993684,"140":0.030001676311535146,"141":-0.12360776223360409,"142":-0.06313288603558745,"143":0.34966168090156685,"144":0.000638508600070445,"145":0.06573452636432786,"146":0.029780846583878806,"147":-0.06943666639622194,"148":-0.16185465589226694,"149":0.0333858727634529,"150":-0.0877610093370141,"151":-0.0922791740004216,"152":0.11793090567376464,"153":-0.05703050574429942,"154":0.21621872852036436,