{"layers":[{"0":{},"1":{},"2":{},"3":{},"4":{},"5":{},"6":{},"7":{},"8":{},"9":{},"10":{},"11":{},"12":{},"13":{},"14":{},"15":{},"16":{},"17":{},"18":{},"19":{},"20":{},"21":{},"22":{},"23":{},"24":{},"25":{},"26":{},"27":{},"28":{},"29":{},"30":{},"31":{},"32":{},"33":{},"34":{},"35":{},"36":{},"37":{},"38":{},"39":{},"40":{},"41":{},"42":{},"43":{},"44":{},"45":{},"46":{},"47":{},"48":{},"49":{},"50":{},"51":{},"52":{},"53":{},"54":{},"55":{},"56":{},"57":{},"58":{},"59":{},"60":{},"61":{},"62":{},"63":{},"64":{},"65":{},"66":{},"67":{},"68":{},"69":{},"70":{},"71":{},"72":{},"73":{},"74":{},"75":{},"76":{},"77":{},"78":{},"79":{},"80":{},"81":{},"82":{},"83":{},"84":{},"85":{},"86":{},"87":{},"88":{},"89":{},"90":{},"91":{},"92":{},"93":{},"94":{},"95":{},"96":{},"97":{},"98":{},"99":{},"100":{},"101":{},"102":{},"103":{},"104":{},"105":{},"106":{},"107":{},"108":{},"109":{},"110":{},"111":{},"112":{},"113":{},"114":{},"115":{},"116":{},"117":{},"118":{},"119":{},"120":{},"121":{},"122":{},"123":{},"124":{},"125":{},"126":{},"127":{},"128":{},"129":{},"130":{},"131":{},"132":{},"133":{},"134":{},"135":{},"136":{},"137":{},"138":{},"139":{},"140":{},"141":{},"142":{},"143":{},"144":{},"145":{},"146":{},"147":{},"148":{},"149":{},"150":{},"151":{},"152":{},"153":{},"154":{},"155":{},"156":{},"157":{},"158":{},"159":{},"160":{},"161":{},"162":{},"163":{},"164":{},"165":{},"166":{},"167":{},"168":{},"169":{},"170":{},"171":{},"172":{},"173":{},"174":{},"175":{},"176":{},"177":{},"178":{},"179":{},"180":{},"181":{},"182":{},"183":{},"184":{},"185":{},"186":{},"187":{},"188":{},"189":{},"190":{},"191":{},"192":{},"193":{},"194":{},"195":{},"196":{},"197":{},"198":{},"199":{},"200":{},"201":{},"202":{},"203":{},"204":{},"205":{},"206":{},"207":{},"208":{},"209":{},"210":{},"211":{},"212":{},"213":{},"214":{},"215":{},"216":{},"217":{},"218":{},"219":{},"220":{},"221":{},"222":{},"223":{},"224":{}},{"0":{"bias":0.5462503368029359,"weights":{"0":-0.016637359979913894,"1":0.08475763461549778,"2":-0.27249006608665904,"3":-0.07116187825981367,"4":-0.18311297694725726,"5":-0.3201730900667867,"6":-0.057692379872316533,"7":-0.0012710792634186563,"8":-0.38577381285388673,"9":-0.4121470935681541,"10":-0.2178726402189501,"11":-0.19810109372641413,"12":-0.31561395603076053,"13":-0.20189515827957638,"14":-0.06453780886740478,"15":0.08952403947787785,"16":-0.2188824404836043,"17":0.097157781466329,"18":-0.004112681319614089,"19":0.38407715857912056,"20":-0.14677155300679026,"21":0.16588182957960626,"22":0.29106022339576715,"23":0.1201054588180817,"24":-0.022509913542863805,"25":0.09635651771126931,"26":-0.14313651716189355,"27":0.03733535440732606,"28":-0.15191078107673706,"29":-0.2801448800650214,"30":0.037731435074297166,"31":-0.33272221801057067,"32":-0.03522621145426856,"33":-0.0212718027154907,"34":-0.1034741048582044,"35":-0.0006529560624838927,"36":0.09859819394524655,"37":-0.1332292763482338,"38":0.00924925276581674,"39":-0.16977221483520166,"40":0.14499038393040584,"41":0.05287253917222536,"42":-0.1828508484363422,"43":-0.1643149945801756,"44":-0.10516660039361665,"45":0.15648665883663004,"46":-0.11932831339641445,"47":-0.353168191584149,"48":-0.18862336755602893,"49":-0.5881169641529439,"50":-0.10119619055433175,"51":-0.008156317686477808,"52":0.247756186351534,"53":0.3413720270183356,"54":0.15769156908566778,"55":-0.164245466941244,"56":-0.09780443112484563,"57":-0.2912905367897151,"58":-0.005605785409290419,"59":0.029822003366511824,"60":0.06799457600142028,"61":0.05265910194701492,"62":-0.21333189473424616,"63":0.005606608028384101,"64":-0.09081061196506182,"65":-0.05920472525567895,"66":-0.0471937780232145,"67":-0.21507656235772368,"68":-0.12310439510628352,"69":-0.12959026612228677,"70":-0.06677084431677609,"71":0.022885606886140317,"72":0.009021217949618908,"73":-0.13307196611015878,"74":0.09272481025333318,"75":-0.20299868255583708,"76":0.09448050591138128,"77":0.1657168568670828,"78":0.05472802491879051,"79":-0.15808240872690998,"80":-0.17142192645512672,"81":0.12145125538312053,"82":0.08185942680853736,"83":-0.1383720317989437,"84":-0.25632414164111944,"85":0.021098908576929375,"86":0.03482980858837734,"87":0.024157631728908828,"88":0.2626937207488651,"89":-0.13351512775179863,"90":-0.2537286164615692,"91":0.08175776594006359,"92":0.16695267760671723,"93":0.142415932815646,"94":0.005804755857593182,"95":0.033066812066626664,"96":0.10069553094126218,"97":-0.11727316638284359,"98":0.07033587797200774,"99":-0.12938958937527506,"100":-0.15966739374854474,"101":0.16365620874635955,"102":0.07047300792390394,"103":0.10338956501114586,"104":0.24514254906058494,"105":-0.37569646824242137,"106":-0.4154587529745272,"107":0.13212803846171145,"108":-0.008156589970919271,"109":-0.13506433664740974,"110":-0.15762505453566286,"111":0.4578426673939839,"112":0.15592415383418287,"113":-0.02963368759743606,"114":0.03997303650601692,"115":0.04018945036851036,"116":0.03825152506929792,"117":0.21886952259996276,"118":0.26517089843752406,"119":0.22059189868378434,"120":-0.577037302234759,"121":-0.1288105569327399,"122":-0.24260392357316024,"123":-0.22563593256884357,"124":-0.2525486903723581,"125":-0.14559387666570378,"126":-0.19440099801146304,"127":0.14906167481252344,"128":-0.08351937022482737,"129":0.05289822605210919,"130":-0.025779624904142533,"131":-0.017238759411072946,"132":0.12156475474113435,"133":0.20014932270063512,"134":0.10839649485162253,"135":-0.39179964464834394,"136":-0.26589689644887426,"137":-0.375893291852303,"138":-0.13083712838174402,"139":-0.2751695657607865,"140":-0.28286135593753425,"141":-0.18183733878685962,"142":0.0918125834435445,"143":-0.1877123846781952,"144":-0.07562492637521154,"145":-0.0547119236329631,"146":-0.16234322348764949,"147":0.02295043676838464,"148":0.1596595395552381,"149":-0.19353756499972397,"150":-0.26390581237614646,"151":0.14548915324156564,"152":-0.02490000171165161,"153":-0.13334472896809582,"154":-0.3523743544516259,"155":-0.2713964553178915,"156":0.1398310043074167,"157":0.07956723286881877,"158":-0.05302676225571525,"159":-0.051849672688305204,"160":0.025218850467457723,"161":0.22801342552793366,"162":0.3842581564398266,"163":0.19183150265979013,"164":-0.1294342454644877,"165":-0.15615087691878304,"166":0.06685165403852315,"167":-0.052721526608097855,"168":-0.47218146427023255,"169":-0.449456240925718,"170":-0.2555154961238072,"171":-0.12670269343978122,"172":-0.0032438394657768846,"173":-0.18273281099666308,"174":-0.06455047940818821,"175":0.05559229713493299,"176":0.05618822295137679,"177":0.2570018821316457,"178":0.0687580122383825,"179":0.21239567335161474,"180":-0.1478175969604786,"181":-0.2511479971008297,"182":-0.27154018765694626,"183":-0.27288664901591425,"184":-0.449645636647858,"185":-0.18712034087206134,"186":0.01394112643331797,"187":-0.09978813264378066,"188":-0.12604253498720086,"189":0.21380712949527042,"190":-0.013620041028098545,"191":0.16054028850791047,"192":0.06067541856210535,"193":0.3257024989605731,"194":-0.23044511578298982,"195":-0.07773753142175344,"196":-0.07229116446430109,"197":0.08105986541240894,"198":-0.1220213031428735,"199":-0.3117287287303473,"200":-0.3557520856972087,"201":-0.23586037083412897,"202":0.09702916891360502,"203":-0.12346534600372742,"204":0.026443574719075446,"205":-0.03707867475496601,"206":-0.2708160182547341,"207":-0.028250129093454698,"208":0.2595752413076903,"209":0.11728545520937979,"210":0.12418360129398906,"211":0.07764786123995797,"212":0.28126277931807747,"213":0.09406403966737671,"214":0.27734971313433693,"215":-0.04306631331266297,"216":0.1334156440473323,"217":-0.2078116329951634,"218":0.0943820104192074,"219":0.2867036152831228,"220":0.1416700256581973,"221":0.05297737872934088,"222":-0.1007846841663642,"223":0.12539911580888496,"224":0.0409136716936908}},"1":{"bias":0.24317389070216985,"weights":{"0":0.2601787800763742,"1":0.295184579781058,"2":0.015140496592750085,"3":-0.06970564472810105,"4":0.07495910823850556,"5":-0.04246570394792602,"6":-0.17634762022023262,"7":-0.14870837701288514,"8":-0.2780362783789385,"9":-0.19240758541253924,"10":-0.11879098236520058,"11":-0.004333968804016895,"12":-0.06990948102307444,"13":-0.1078895868924668,"14":0.2619618271376352,"15":-0.20728720852687293,"16":-0.14452743825752148,"17":-0.2544417836717049,"18":-0.20804264020947735,"19":-0.22789846287462817,"20":-0.2016735809886266,"21":-0.09904512805739381,"22":-0.02679886434489934,"23":-0.05231417061629297,"24":0.1309011394609256,"25":-0.009932388680915899,"26":-0.19965666419188652,"27":-0.03911339052428734,"28":0.10536239430602078,"29":0.09136047204657174,"30":-0.13728499542626593,"31":-0.2697058837987152,"32":-0.12727255964291131,"33":-0.1768360568989402,"34":-0.02515311947880981,"35":0.2041393216783826,"36":0.0661927714838498,"37":-0.16041371802005042,"38":0.10613875851110212,"39":-0.24663079703668864,"40":-0.1196843175147129,"41":-0.21736071483170122,"42":0.1315333805720907,"43":0.13054681909187993,"44":0.19226267318162943,"45":0.05252890114362401,"46":-0.019977188722444895,"47":-0.037074842783512175,"48":0.03791367741010809,"49":0.08362838001466963,"50":-0.0017536103671505487,"51":0.22664662683978876,"52":-0.005483519308196753,"53":0.14906716776236054,"54":-0.006685527992756691,"55":-0.08003385676717435,"56":0.2039394664792587,"57":-0.002673883369959816,"58":-0.11291519752234842,"59":-0.2367875720137893,"60":-0.2131481518891339,"61":-0.2413048519701808,"62":-0.0112043487167477,"63":0.09086969553517811,"64":-0.09349247880287265,"65":-0.04906405364580802,"66":0.31851534795067327,"67":0.1645813276671218,"68":-0.0093339802662069,"69":0.02789584883183159,"70":0.09048523000847115,"71":0.17396892612288115,"72":-0.0032758722422749054,"73":0.09901991213616762,"74":-0.06342308170253777,"75":-0.08180705148851383,"76":0.1611725965586655,"77":-0.10961015036778177,"78":-0.09405624602548236,"79":-0.2040698820738544,"80":0.10770344173443934,"81":0.05517699041541899,"82":-0.07477616518021567,"83":-0.0848955661034211,"84":0.10838651201208042,"85":0.13611695165583973,"86":-0.07693414714867082,"87":-0.12157770368519395,"88":-0.06183758123310176,"89":-0.1293057134727301,"90":0.16569003007422958,"91":0.17976138063541916,"92":-0.11727303116825481,"93":0.14098897133121532,"94":-0.06537412216502811,"95":0.23869226163770854,"96":0.1440285467974647,"97":0.06422332256719986,"98":0.11568559072102541,"99":0.23074571262903884,"100":0.027470195427470933,"101":-0.1100054466095558,"102":-0.014334948032271963,"103":0.06906383382431333,"104":0.1625052388232166,"105":0.04798699139856883,"106":0.021535470882139914,"107":0.07244789035587708,"108":-0.15066819506588128,"109":-0.06984491606371346,"110":0.09123272729345698,"111":0.24645857271352442,"112":-0.05623977740031004,"113":0.10226605442746133,"114":-0.1499734302712992,"115":0.204203834934147,"116":-0.21004098103012592,"117":-0.05505067538279587,"118":-0.08657345713946119,"119":0.16793373171579595,"120":0.044968187376918545,"121":-0.05158226219286195,"122":-0.039163873092007744,"123":0.11388168972169209,"124":0.13362704004779732,"125":0.17911090004722108,"126":0.1400883673330329,"127":0.12564089605553855,"128":0.11412769870130096,"129":0.12087498867107749,"130":0.18032120841008145,"131":0.2924546068895889,"132":-0.07729096176019772,"133":0.09635139232850083,"134":0.10001968261987343,"135":0.1549408769797253,"136":-0.05138120018650593,"137":0.06252849680110903,"138":0.3100857945102355,"139":0.09989651050139242,"140":0.263868125398762,"141":-0.03183647380700209,"142":0.13924880060124498,"143":0.14989958529527656,"144":0.031195949862372157,"145":-0.07697067162848538,"146":0.17027116648544668,"147":0.11274922998703824,"148":0.017399416805933134,"149":-0.00790581938905815,"150":0.006088776754194912,"151":0.15219219449436003,"152":-0.2546631708913906,"153":0.14569856637881162,"154":0.1642743008060048,"155":0.232699783992172,"156":-0.04929340985707508,"157":0.3696994126463873,"158":0.05598014083098376,"159":0.201622981687371,"160":0.17501462271026746,"161":-0.04970922432906247,"162":-0.007122291782797956,"163":0.13162416596021978,"164":0.02049139027008866,"165":0.0004638559197134175,"166":-0.12733967209419148,"167":-0.10896877994825122,"168":-0.08230058762871102,"169":-0.0017248840213209655,"170":-0.029403722499234286,"171":-0.028160667303766228,"172":-0.12894370322562934,"173":-0.138068050147913,"174":0.1394686580667844,"175":0.00023909931702408268,"176":-0.21843034036152056,"177":-0.2093475311470238,"178":-0.007235606273163544,"179":-0.08173825832688243,"180":-0.15283587633928566,"181":-0.19763970483292548,"182":-0.34603518763509705,"183":0.016343171092309577,"184":0.12086509327515113,"185":-0.17269055283639137,"186":-0.18619573213713264,"187":0.06406029415413494,"188":-0.05679477987050543,"189":0.1834871958444636,"190":-0.243519625518299,"191":-0.01599842698594007,"192":-0.034343795072122575,"193":-0.3860258787694301,"194":-0.0074516709735256165,"195":-0.1812388206870752,"196":-0.2680945615857563,"197":-0.2973805117712645,"198":-0.12438160810124728,"199":-0.08514916294893822,"200":0.09761444279862726,"201":-0.03568178484936802,"202":0.004504112229709477,"203":0.15130205434644545,"204":-0.22251131695053442,"205":-0.08281132168802692,"206":-0.3501249813820138,"207":-0.2953493198340568,"208":-0.16181293415839973,"209":-0.20394821135691463,"210":0.011729838998775463,"211":-0.29291609207885083,"212":-0.2199716784869258,"213":-0.30990121797386916,"214":-0.4092467962015988,"215":-0.3749931954449645,"216":-0.29413108858758524,"217":-0.1423095856463289,"218":-0.3205335975122492,"219":-0.3488551431356624,"220":-0.43236329069438834,"221":-0.19524453666568004,"222":-0.31734996478061483,"223":-0.14722748319850482,"224":0.1361322066465085}},"2":{"bias":0.11417991827540662,"weights":{"0":-0.19466274250099913,"1":-0.17785414622119405,"2":-0.05692489406464231,"3":-0.031862128476916204,"4":0.24715757889207912,"5":-0.14010844589832322,"6":-0.0388023500346201,"7":-0.03212127111820447,"8":0.01406354496967499,"9":0.09222612834035597,"10":0.042046208771644646,"11":-0.11497315990069673,"12":0.16055258567910735,"13":0.22165560809387932,"14":0.2723671643740356,"15":0.06042797946343906,"16":-0.03151423579491829,"17":-0.1802935325890537,"18":-0.22212443200466028,"19":-0.014327928675009215,"20":0.1315223412408064,"21":-0.044009451668581084,"22":0.03847968448275232,"23":-0.09833353708601991,"24":0.1228999612433821,"25":0.0804071109106288,"26":0.09544212837244835,"27":0.1561587966680446,"28":-0.028342279474192072,"29":-0.09528222547275757,"30":-0.18598967335561967,"31":-0.30428828523136153,"32":0.016360410941565786,"33":-0.0024122674024396823,"34":0.22785920037764285,"35":-0.09337214235889485,"36":-0.00795321671560464,"37":0.15081078920929955,"38":0.04233227615556018,"39":0.0685092315844504,"40":0.06068698617146985,"41":-0.21610580267815732,"42":-0.18748185409887305,"43":0.08898508504679367,"44":0.11987795816783275,"45":-0.0674710095614369,"46":-0.2143492345693117,"47":-0.1892519925698174,"48":0.24336102358913628,"49":0.012592712864751505,"50":0.11152635366540341,"51":-0.11652703979549861,"52":0.21658356982233795,"53":-0.0178218313455534,"54":0.0194113726325004,"55":0.08778514206830643,"56":-0.10368833845085189,"57":-0.07794497098928053,"58":-0.09061758888905322,"59":-0.2058120483101175,"60":-0.14030333740019335,"61":0.1196189199820017,"62":-0.17265622300365854,"63":0.2541137829946884,"64":0.12070915425281592,"65":0.10409281037174731,"66":0.31665647930262786,"67":0.502231731480639,"68":0.15422643527983457,"69":-0.08096247174181023,"70":-0.1364684948491228,"71":-0.06634902875993037,"72":-0.019752405583066047,"73":-0.09047853956608062,"74":0.050019668484059386,"75":0.17547959001753288,"76":0.2764541108568196,"77":-0.012844740573141394,"78":0.083690766982654,"79":0.06078036700505414,"80":-0.11245866114853699,"81":-0.10895714119613001,"82":-0.035001502836891935,"83":0.21943255818458024,"84":0.22130866877986627,"85":0.03759238471940249,"86":-0.006798234963914885,"87":0.13019604631578963,"88":0.19993979717665117,"89":0.08949368082232556,"90":0.17543106148026988,"91":-0.009329505637803322,"92":-0.12118261144130357,"93":-0.09390882461242568,"94":0.05699987053967376,"95":-0.06905500845521062,"96":-0.012212014635680904,"97":-0.07836342881176714,"98":0.21939100010174137,"99":0.17107972289424994,"100":0.03816385871776261,"101":-0.05430030267363903,"102":0.2140998950079465,"103":-0.17592528637071755,"104":-0.24944199208906906,"105":0.2040111483790533,"106":0.17683089858415743,"107":0.08777013789427111,"108":-0.023999967787516948,"109":0.1958687525609053,"110":-0.062427358967355406,"111":0.11285687027292564,"112":-0.13611272330981994,"113":-0.07779214598729647,"114":0.13345729755805275,"115":-0.15980340410283878,"116":-0.14862464996163235,"117":0.01595597400325687,"118":0.008254339230451203,"119":-0.09843091746075043,"120":0.16992948268597782,"121":0.05916001040865102,"122":-0.23690406537124312,"123":-0.026681369518625785,"124":-0.03844465107880934,"125":0.007150350012860643,"126":0.17718772003022468,"127":-0.09793517374131457,"128":0.19236419958219678,"129":-0.02866632276626572,"130":0.1965133196089798,"131":-0.09733272472453833,"132":0.03691397057088474,"133":0.04270195439147682,"134":-0.268159800325152,"135":0.24686686529163507,"136":0.18179643797353315,"137":0.007892719653728338,"138":-0.046836859890994204,"139":0.2464911162497922,"140":0.04143328874594477,"141":0.15967385127224182,"142":-0.021434342747051787,"143":0.09994734868705804,"144":0.054036920198637574,"145":-0.036547079124265136,"146":-0.018172513045990372,"147":-0.10341604063056359,"148":-0.0720666439279698,"149":-0.22195410498739387,"150":0.09989549826513305,"151":0.3922346747326194,"152":-0.10728389277164749,"153":0.2952304531245682,"154":-0.06698683557968006,"155":0.022425711242120085,"156":-0.09686435411282943,"157":0.28532272324734737,"158":0.22029315448335773,"159":-0.027725480684261092,"160":-0.07854379202739832,"161":-0.12462599289575581,"162":0.10003455523573883,"163":0.15309985027685505,"164":-0.37799326223709245,"165":-0.051518269020609145,"166":0.1416406650383162,"167":0.07132640790006164,"168":0.1285099434390644,"169":0.054848025597539804,"170":-0.16485611666971414,"171":0.14805802795977543,"172":0.19068112792427439,"173":-0.13284773269328506,"174":-0.1831833355302935,"175":0.0871666727900827,"176":0.009329511775011111,"177":-0.2512568411056472,"178":-0.2892295322428855,"179":-0.09891410655157246,"180":-0.24164026132064542,"181":-0.17583951487126065,"182":-0.20861901311492678,"183":-0.07636475408637892,"184":0.009793370719111166,"185":0.05102213446437356,"186":-0.07684347902356028,"187":0.12315104019508055,"188":-0.22412923043838714,"189":-0.1786865228807242,"190":0.09186079023998929,"191":-0.2778446828043612,"192":-0.35216166095314205,"193":-0.14860108041286324,"194":0.1233035639791249,"195":-0.23175479596726092,"196":0.08006456736908857,"197":-0.07374086006840114,"198":0.035377097158979166,"199":-0.04786410213459368,"200":0.1522543053076441,"201":-0.13167574692741826,"202":-0.13281135425560467,"203":-0.12003175847801974,"204":0.1652759033298585,"205":0.11782201216249527,"206":0.10356448909246166,"207":-0.27763905591266846,"208":0.06651968718812715,"209":0.03808530657325187,"210":-0.035985053080019744,"211":-0.27446807149270513,"212":-0.08875616118844618,"213":-0.3153801750029335,"214":-0.10932610555313885,"215":-0.1925875145109393,"216":0.03613164661185986,"217":-0.1490220887608419,"218":-0.30569817404110855,"219":-0.16519655832493194,"220":0.06173768203324019,"221":-0.03929566295049492,"222":-0.0670878947407026,"223":0.2651576964719647,"224":0.5523359945125125}},"3":{"bias":-0.15987578962127869,"weights":{"0":-0.4197375353984313,"1":-0.6395873804431924,"2":-0.3972480133405951,"3":-0.12775677134941357,"4":-0.28685668443916484,"5":0.035209818149443725,"6":0.20672699034894823,"7":0.2332039043644134,"8":0.5475565603635657,"9":0.26469900209306085,"10":0.13121389099643965,"11":0.3618729973948765,"12":0.17553552156566665,"13":-0.19421445430106563,"14":-0.25893304475523227,"15":-0.12530441688828609,"16":-0.13484107494957223,"17":0.2124961687154894,"18":-0.10414575443119331,"19":-0.055822854346974156,"20":-0.21269456074304283,"21":-0.23285403029011995,"22":-0.4607778688993112,"23":-0.061593214326949496,"24":-0.07936764431544546,"25":0.003703289355143203,"26":0.2737826599889052,"27":0.23099057856813984,"28":-0.08879550326604171,"29":-0.08532748194079133,"30":-0.08973742407284489,"31":0.17243796473908182,"32":0.12432487355893139,"33":0.11426812835686559,"34":0.04729928644814735,"35":-0.06497052208713926,"36":0.11291955433701327,"37":-0.08160948799128179,"38":0.24507732805535504,"39":0.15465451924010823,"40":0.05760025045451429,"41":-0.006739062270416505,"42":-0.11198771910243455,"43":0.22128160395044982,"44":0.23487025561655053,"45":-0.028554170011698125,"46":-0.019468978395936396,"47":-0.12072402097808728,"48":0.11357916345084622,"49":0.15234183452565186,"50":-0.024746555503423726,"51":0.1535988214020583,"52":0.08535221537698515,"53":-0.04041193295901382,"54":-0.04094436246130117,"55":0.19620141931210405,"56":-0.06147680200067127,"57":0.08242628063548645,"58":-0.2661188039676652,"59":0.041191577558573764,"60":0.12595577724658336,"61":0.12122699623118538,"62":-0.19629019022993735,"63":0.20756187026015874,"64":-0.0018568418420421477,"65":0.13444061309492975,"66":-0.17778440918492616,"67":-0.0003379958785373734,"68":0.00035621277557662675,"69":-0.020249100232166944,"70":0.09221931351662595,"71":-0.022245743912710596,"72":0.10222651375900738,"73":-0.04410474447489962,"74":-0.07155915453841472,"75":0.10099128105613661,"76":0.07710002326697135,"77":-0.1315003941830422,"78":0.09986263841267488,"79":0.21668724386261487,"80":0.05731138706716792,"81":-0.1244816301912959,"82":0.04677924420091789,"83":0.1471750838460576,"84":0.19555849565348457,"85":0.025408593140286206,"86":0.07376823163290146,"87":0.023623707495907025,"88":0.06512261737283881,"89":0.005368539346115038,"90":-0.15765435514990409,"91":-0.31961187791066364,"92":-0.15488310926401033,"93":-0.0899896507475131,"94":0.18867335021403797,"95":-0.20848336700564124,"96":-0.013104409009871542,"97":-0.10971098969174256,"98":0.06380418965503833,"99":0.09345001909292955,"100":0.013693715836079423,"101":0.012275540067777554,"102":-0.01012260923345408,"103":-0.22892715638406566,"104":-0.05244557754290505,"105":0.025586049683356614,"106":-0.21914889502049895,"107":-0.1826416906468489,"108":0.029192267112588113,"109":-0.0423843503864812,"110":-0.22352784158899444,"111":-0.3422201122082538,"112":0.014088179918876745,"113":0.1406771871259739,"114":0.03573186628715293,"115":-0.014980718303990332,"116":-0.08172244470592095,"117":-0.2042431734230367,"118":0.03591467321966415,"119":-0.30650659224246357,"120":-0.31544571685411915,"121":-0.0934218149904443,"122":-0.0496380566948634,"123":-0.30903181068932734,"124":-0.03468885285094453,"125":-0.07993603935289163,"126":-0.28560572886550933,"127":-0.05782012056146199,"128":-0.20737346659542472,"129":0.05826814099766302,"130":0.026535805439246874,"131":-0.09144908232108066,"132":-0.22565109248148643,"133":0.029913582884087752,"134":-0.1553037377600949,"135":-0.2566597594809664,"136":-0.08744504805332617,"137":-0.2836786448754608,"138":-0.07797335669397355,"139":-0.30059112262507304,"140":0.02898399298340708,"141":-0.2189660287438943,"142":0.09818452216867264,"143":-0.23947557579316978,"144":0.03176261366320664,"145":-0.017880235450369365,"146":-0.019246899300826285,"147":0.061472660556579135,"148":-0.28979605146829435,"149":-0.21611389215959578,"150":0.28654885999612933,"151":-0.06357076881985008,"152":0.1793454153809815,"153":0.1656314618278329,"154":0.03325144296077693,"155":-0.20086505023587806,"156":-0.039617931037669724,"157":-0.28514558355419334,"158":-0.06208492593849376,"159":0.04648863489721192,"160":0.14593800038201446,"161":0.19555891415671361,"162":-0.08883620962066625,"163":-0.02795991291954073,"164":-0.14039524484185045,"165":-0.05377809840275377,"166":0.2584665560454818,"167":0.05307088444740745,"168":0.11411738029261732,"169":-0.10145163671779023,"170":0.15378341757063668,"171":-0.22437112552855107,"172":0.09867930407224541,"173":0.11447897413118142,"174":0.05071900312634069,"175":0.20337572300783205,"176":-0.22085740037765653,"177":0.007653688133342142,"178":-0.01442117325304623,"179":-0.1196319293369408,"180":0.24010790775285834,"181":0.28265230242996514,"182":0.010011581560586751,"183":0.17653362381496024,"184":0.17172498137655337,"185":-0.09936890736330345,"186":0.2645144706557104,"187":0.1448127937166954,"188":-0.06970067782348446,"189":0.013029347113120652,"190":-0.046591011132174356,"191":-0.057404241213836894,"192":0.24142459192636906,"193":-0.0179663500947622,"194":0.05240679842935618,"195":0.1802807565319135,"196":0.24370102531101684,"197":0.10146624226547254,"198":0.2556976766373876,"199":0.47315259709986407,"200":-0.14127127192559885,"201":0.0597821591191319,"202":-0.0037701521370564874,"203":-0.1866950058135334,"204":-0.2225309988332033,"205":0.12677392147252267,"206":-0.1725914234633795,"207":0.21849916553948995,"208":0.0015632249613617138,"209":0.10544145709569631,"210":-0.10830292977209613,"211":0.0707497732959023,"212":-0.1924835374701256,"213":-0.2196667640355368,"214":0.11988217433141012,"215":0.035131158123789134,"216":0.06503950123835152,"217":0.0029325520465181723,"218":0.20212083197781178,"219":0.18586850487735437,"220":0.3390502561968022,"221":0.22110323520912276,"222":0.3345103526134394,"223":0.08994111344904972,"224":0.09696533364868797}},"4":{"bias":0.008031246108537922,"weights":{"0":0.002554237408311835,"1":0.31053264561466437,"2":0.18005301305136104,"3":-0.20397963139384975,"4":-0.1662013223284435,"5":-0.1348951107765358,"6":0.19285145111821655,"7":-0.15299312489053482,"8":-0.10647132481925024,"9":-0.13594966192421878,"10":-0.2854035641825952,"11":-0.08518736847168165,"12":-0.14983418475302504,"13":-0.02108496869891601,"14":-0.27134706114525353,"15":0.18434398683322092,"16":-0.1168850825155792,"17":0.2130476439583617,"18":-0.2630471052260372,"19":-0.06979372025742478,"20":0.10940441589101524,"21":0.12127145711488764,"22":0.19614140750491718,"23":-0.14811292394754358,"24":-0.02255819295755575,"25":-0.159188039090371,"26":-0.1391436704629357,"27":0.12036572651007527,"28":0.06032631308740464,"29":-0.09454960119062442,"30":-0.20903734043766606,"31":0.016284496559927187,"32":-0.027083109806602893,"33":-0.09083224665150105,"34":-0.25839857662368004,"35":-0.20801028138081623,"36":-0.14161182293120436,"37":-0.09042896681309104,"38":-0.36698092270465676,"39":0.00003903918595734099,"40":-0.20905006701817258,"41":-0.164518733213985,"42":0.06523149061201093,"43":-0.04453005698600168,"44":-0.2979680742445088,"45":-0.06711436520256861,"46":-0.16107677031401457,"47":-0.04989085176472715,"48":-0.037271040843050655,"49":-0.2669203523244251,"50":-0.21177528238669663,"51":-0.19894599283298858,"52":0.04193140268912207,"53":-0.17168914221237247,"54":-0.11775789790660415,"55":0.015301559765767312,"56":-0.12812370634108636,"57":-0.15004717099445475,"58":-0.09832807711381959,"59":-0.09587224054279384,"60":-0.1405703936860506,"61":-0.12788940316843453,"62":-0.22784782388812921,"63":-0.13530264575956436,"64":-0.07052222990412627,"65":-0.05197456727744502,"66":-0.006946884640788481,"67":-0.1099704234303837,"68":-0.05438239943185178,"69":-0.17949438408256713,"70":-0.0288815874784389,"71":0.21532302665920983,"72":-0.05195895093001725,"73":0.1383216164222118,"74":-0.09631054679166301,"75":-0.12002702420690314,"76":-0.050883371352861806,"77":-0.017990447335990863,"78":0.13456500113788772,"79":0.014623964681467563,"80":-0.12476893570784746,"81":0.09355561362668872,"82":0.0850176746817299,"83":0.10149468736336198,"84":-0.1747081818026266,"85":0.10891526532029332,"86":0.3239195936908278,"87":0.17326712835434774,"88":0.12699784002439968,"89":-0.01926647841040726,"90":-0.3251971856738342,"91":0.17605890854962325,"92":0.031446566752432674,"93":0.0908346839119337,"94":0.10084017338408978,"95":-0.05660512183439218,"96":0.16646904213269206,"97":-0.1967531523947697,"98":0.27949883637547335,"99":0.07512064913112505,"100":0.015639463462458165,"101":0.19703177744261077,"102":0.3808425168569422,"103":0.08587285637525464,"104":-0.05098634689883235,"105":-0.3444740405142782,"106":-0.02036655474928505,"107":0.17139922683403466,"108":0.16340291811707505,"109":0.08859641569431546,"110":0.03502600940029116,"111":0.09839814872230518,"112":0.16048214058160365,"113":0.2496433955811283,"114":0.39046426106948295,"115":0.263800047608238,"116":0.41530381413049583,"117":0.16691960898969485,"118":0.14161652597456437,"119":-0.2764999116401873,"120":-0.0636714737656897,"121":-0.01673912707195882,"122":-0.1717697883768993,"123":0.07450865071075631,"124":-0.013750136090708279,"125":-0.09435879735462814,"126":0.34173600636168433,"127":0.15460312697032572,"128":-0.09874639092004214,"129":-0.09336113025176311,"130":0.007398931513872663,"131":0.005767401204011213,"132":0.1442457486397715,"133":-0.07479330579042674,"134":-0.4196240787536874,"135":-0.14409900911860665,"136":-0.0031150907401276424,"137":-0.17677535080819484,"138":-0.2756469768078391,"139":0.05409784000381961,"140":0.21760967592980615,"141":0.21357369336529092,"142":0.03347294985274913,"143":-0.039821828978408004,"144":0.03131073135903133,"145":0.26126290429254656,"146":0.005744750409018109,"147":0.02282668914913068,"148":-0.1135267761263368,"149":-0.06376620940038058,"150":0.0411929123233798,"151":0.1547436122498337,"152":0.16627842104773022,"153":-0.09245339465552614,"154":-0.07486785999884764,"155":-0.13579102006664479,"156":0.24372334861793107,"157":-0.19100675208456624,"158":-0.10705748049970024,"159":-0.23922130548915296,"160":0.09478399114712029,"161":-0.015975759194183394,"162":0.16719868720954895,"163":0.08314875019935984,"164":-0.06977200349547057,"165":-0.04003449198268192,"166":0.3327925765733703,"167":0.06475657072057747,"168":-0.17603495900448368,"169":-0.02143285758837334,"170":-0.11367047979643294,"171":-0.2125154643881237,"172":-0.04571158544337118,"173":-0.29537243270391256,"174":-0.1686777002965765,"175":-0.01837017992745492,"176":-0.020966336625995587,"177":-0.12006273830799584,"178":0.22776816632624902,"179":0.05814360978755951,"180":0.17155769591128261,"181":0.13364522887711908,"182":0.014169544056843265,"183":0.10612317924495371,"184":0.15919579338720802,"185":0.08308839852746672,"186":-0.170637234461368,"187":-0.0598321372457942,"188":-0.08569622999587811,"189":-0.16352228586792059,"190":-0.030150810611735898,"191":-0.02202264731647789,"192":0.14994946981260537,"193":0.04032302346095759,"194":-0.22226893750437338,"195":0.018536351003441528,"196":-0.03553818192750878,"197":0.15534733346023122,"198":0.11482179875687351,"199":-0.004247760413041753,"200":-0.12413726372450619,"201":0.12856198940912744,"202":0.028931809873921237,"203":-0.13770271571457174,"204":0.14188917264804787,"205":0.20512887410304786,"206":0.16088835991068073,"207":0.01637964658640356,"208":0.36599744106451587,"209":-0.00335055887939318,"210":0.20095072880624784,"211":0.058876136826654095,"212":0.25823113908603723,"213":0.16408565016925278,"214":-0.10636073832591002,"215":0.2552209931490257,"216":0.37197748591099616,"217":0.1951957786301352,"218":0.23572004769972488,"219":0.1751226311882794,"220":0.12620489722452238,"221":0.1214289191038811,"222":-0.14189844642373814,"223":0.13762055331092868,"224":-0.045507217620392656}},"5":{"bias":0.02394594223265518,"weights":{"0":-0.21199505522654302,"1":-0.22027744074042194,"2":-0.1695407666859528,"3":0.0479957424107337,"4":-0.12067929068549269,"5":0.0028548579331283733,"6":0.12099910605825001,"7":0.015163989472118245,"8":0.2947133290178615,"9":0.3978463287268864,"10":0.2514016027266661,"11":0.05136642960315954,"12":-0.0852565996128069,"13":-0.13194324797427262,"14":-0.5550503230557666,"15":-0.14206733426258816,"16":-0.07312020161383677,"17":-0.2607700838388062,"18":0.03718653940155785,"19":-0.31755248128651414,"20":-0.0020646908568212824,"21":-0.213214130720144,"22":-0.3266346638888794,"23":-0.4462988763521658,"24":-0.3150331038950103,"25":0.10977301095394343,"26":0.12753298486339507,"27":-0.21169961815065214,"28":-0.005578411332435331,"29":-0.016621564438164416,"30":-0.08738014111448508,"31":0.00832932371017426,"32":0.09994121700007559,"33":-0.2016592261763613,"34":-0.11035308684567062,"35":0.015380422348615556,"36":-0.03283031523744082,"37":0.1254165753499572,"38":0.26534532986742265,"39":0.24111498389142122,"40":0.08204700720599455,"41":0.156552581618929,"42":0.21902566074190583,"43":0.30286835381385907,"44":0.09309201389892105,"45":-0.0005057021351735167,"46":-0.03692439839866808,"47":0.315730314628266,"48":0.358038757542311,"49":0.5187654371781347,"50":0.18842270517311818,"51":-0.03696438811225043,"52":0.3690359185741535,"53":0.3208147080541429,"54":0.23661913847302468,"55":0.3325641439745292,"56":0.3073815971577875,"57":0.3434525953347951,"58":0.20474021101644638,"59":0.026288972556836578,"60":0.029603144908825006,"61":0.19311364144379337,"62":0.2720690806072941,"63":0.30461313416064295,"64":0.3680023137438429,"65":0.24911432435267528,"66":0.035765820516481805,"67":0.376808546801573,"68":0.5347988431514861,"69":0.42156794979740797,"70":0.2171096062585347,"71":0.4989036766845985,"72":0.26554459557454324,"73":0.2296001530736144,"74":0.02534412531203658,"75":-0.01577180036658478,"76":-0.029599224273961115,"77":-0.07643903705177925,"78":0.09998832772796673,"79":0.18280971908402457,"80":0.09411848096402836,"81":0.014212986054502016,"82":0.2570767827213561,"83":0.3527933361596023,"84":0.09509926497503864,"85":0.004652304021547659,"86":-0.0991809506612055,"87":0.0734738414474116,"88":0.0219745725968579,"89":0.2572252148992275,"90":-0.04643840818496985,"91":0.07278445961050989,"92":-0.10280321461657614,"93":0.18527559484086864,"94":0.0741971342754884,"95":0.12691011391406054,"96":0.04744774208818313,"97":0.11262339565719814,"98":0.2643519568294284,"99":-0.07104128339579027,"100":0.1527113172330675,"101":-0.16653037408162605,"102":0.06532960735086628,"103":0.00027485621783658934,"104":-0.26046096072340136,"105":0.17532937605123536,"106":0.01057056213532912,"107":-0.24002142323502132,"108":-0.09102123576144937,"109":-0.06318913373486405,"110":0.12173926139342481,"111":-0.3079837432923862,"112":0.1084014282332833,"113":-0.08406777050197058,"114":0.13875911267007998,"115":0.1813273664807489,"116":0.36030264156858954,"117":0.23859664584596305,"118":-0.04175282170199898,"119":0.2533780578591364,"120":0.05433200387706188,"121":0.07544271006509513,"122":0.03877595414058463,"123":-0.1307571627748451,"124":-0.0016652198932917005,"125":-0.1009805620331932,"126":-0.03282841234571829,"127":-0.06191212184476684,"128":0.21642346933197662,"129":0.07978597548733243,"130":0.2853849340590187,"131":0.0236002344725726,"132":-0.05277298350783425,"133":-0.0405369874667362,"134":-0.09359640861165446,"135":0.13307426503398168,"136":0.23399293669830415,"137":0.16081685273787075,"138":0.05498464909075683,"139":-0.0002419626293513341,"140":0.1076391019321402,"141":0.1491838743319077,"142":0.022501208848764494,"143":0.06885321442062421,"144":-0.03835269746151349,"145":0.1941576047787737,"146":-0.05037343210635561,"147":-0.04207292677949456,"148":0.1484439663487253,"149":0.2636232126373444,"150":-0.07080510745441049,"151":-0.2306691197107147,"152":0.07274665695381072,"153":-0.09739767788224143,"154":0.3525285439975212,"155":-0.02838938418930805,"156":-0.11389377350220128,"157":-0.07333163824086891,"158":0.06187743387204368,"159":0.05036826180458499,"160":0.0867386181928016,"161":-0.1316553319239399,"162":0.1557650557291552,"163":-0.10964436138042018,"164":-0.1435132324046184,"165":-0.33848663298211995,"166":0.06341400890461339,"167":0.07617713509515558,"168":0.009191840844235383,"169":0.08274999709801346,"170":-0.06784438274599008,"171":-0.05022810774992857,"172":-0.17179936226129963,"173":-0.09683154450867398,"174":0.034687568528594344,"175":0.15394306534333618,"176":-0.10870512177760183,"177":-0.031538540222402656,"178":-0.06973043751771477,"179":-0.32540637828959645,"180":-0.27908301810482505,"181":0.2422527178584859,"182":-0.2317943940267265,"183":0.12453451913424321,"184":0.09276487894712789,"185":-0.05463821670263887,"186":0.04072170776786504,"187":-0.1538376600872924,"188":0.0755988032326725,"189":-0.011480594449848008,"190":-0.020397784355944814,"191":-0.06473987953048854,"192":-0.1334505290619573,"193":-0.05322069288415487,"194":-0.013066781556718943,"195":-0.31922359097546266,"196":0.137418329021048,"197":-0.023876198423235045,"198":0.06425081151311698,"199":-0.16137989001757128,"200":-0.21257254016747443,"201":0.05620074620081867,"202":-0.1786425378295074,"203":0.013046318823977323,"204":-0.007612970863301849,"205":0.004012235988165005,"206":0.1381187734722686,"207":-0.25151402232060294,"208":-0.11134524123433111,"209":-0.1192739145209694,"210":-0.2961157094984714,"211":-0.1367374630716372,"212":-0.28787775441613644,"213":-0.11437587921397105,"214":-0.17053744539579735,"215":-0.36091195661599956,"216":0.03165271395715476,"217":-0.16361252854529248,"218":-0.18883204113581167,"219":-0.16319521595969586,"220":-0.10751879417190285,"221":0.06816753671464867,"222":0.14017110170742395,"223":-0.31533820927763817,"224":-0.07203076317490997}},"6":{"bias":-0.1614780508711566,"weights":{"0":-0.31823186349339483,"1":-0.3389811455066884,"2":-0.2934328680411358,"3":-0.11713613655342443,"4":0.1339517788455529,"5":-0.06686254382500519,"6":-0.04964402826366441,"7":0.012883479093429783,"8":0.24724531049004728,"9":0.352897778099499,"10":0.15753269070981024,"11":0.08448546039716878,"12":0.2388709896314225,"13":-0.13528867368141195,"14":0.3456403853326583,"15":0.17156768110919432,"16":0.16840929324700893,"17":0.23064720864629998,"18":-0.20718229606763328,"19":-0.08830104262971666,"20":0.11672162228104417,"21":0.10237045462124772,"22":-0.03828074646705053,"23":-0.0520639296023009,"24":0.13693466942979404,"25":-0.06391634958811641,"26":0.23403651774297957,"27":0.27862316731863007,"28":0.05201518139639704,"29":0.440060668386537,"30":0.4923255392409211,"31":0.3032491265224888,"32":-0.2522402304943599,"33":-0.10876443979497856,"34":0.39683406474805233,"35":0.03924859406025271,"36":-0.15921764315643241,"37":0.23399014573079577,"38":0.13110599854341437,"39":-0.07292001423857722,"40":0.1882964313805232,"41":-0.01514137312074096,"42":-0.08031297422349482,"43":-0.2076683263143913,"44":0.2717583711605029,"45":0.21009814579310665,"46":0.025907347668112847,"47":0.03969568175034764,"48":0.21831396451920007,"49":0.3762955849563634,"50":0.2819272239271555,"51":0.2149760470345305,"52":0.09086793118740472,"53":0.021636774793288377,"54":0.10424389417612052,"55":-0.19782511575172065,"56":-0.2279731173006073,"57":-0.05849187303733117,"58":-0.43498780864179865,"59":0.13930031220272995,"60":0.07304998904802902,"61":0.2958418320724065,"62":0.06581677650575846,"63":-0.03297164029719614,"64":0.032886446673450254,"65":0.0751101661428796,"66":0.11056660512794604,"67":0.326990772059837,"68":0.17608108837923242,"69":0.2577183226626226,"70":-0.06697218389205231,"71":-0.3697506955616042,"72":-0.341564173380338,"73":-0.23541395107400692,"74":-0.20670047675082495,"75":0.03464542738100162,"76":0.33133610945606506,"77":0.019023350792218653,"78":-0.02109261750615966,"79":0.19617935480244666,"80":0.2588222473899681,"81":-0.06518491179155718,"82":-0.05830500203630965,"83":0.3242840435136086,"84":0.31564761262021557,"85":-0.2774373004860196,"86":0.01265650518627616,"87":-0.11967138503514556,"88":-0.3166386309734953,"89":-0.3389176097593795,"90":-0.1812354365812279,"91":-0.06532703713374265,"92":-0.11638531995313271,"93":-0.124951768732178,"94":0.194131437096435,"95":-0.0701691027034322,"96":-0.162171236743788,"97":0.02277347585171479,"98":-0.05188262836452458,"99":-0.068471362664025,"100":0.09201746426813606,"101":-0.07912887622346486,"102":0.00501638565256616,"103":0.060707793900205344,"104":-0.06316240389161755,"105":-0.2384885122449058,"106":-0.2976721281282289,"107":-0.08422596860393815,"108":-0.030553337951720848,"109":0.3906038295163348,"110":0.07358625448789362,"111":-0.07378650877912753,"112":-0.05476586278662142,"113":0.03363376439278781,"114":0.03092114565874705,"115":-0.018156599616790888,"116":-0.2119600004856085,"117":-0.19191575922775092,"118":0.0021015576454290613,"119":-0.20100113094677255,"120":0.030454567562395837,"121":-0.18423714681464698,"122":-0.0010728734720294247,"123":-0.23224245842873983,"124":0.10342412366227287,"125":0.008710929182616279,"126":0.008871827702326706,"127":-0.12163182912733728,"128":-0.36950640257292955,"129":-0.2418106570576168,"130":-0.07874740178850612,"131":-0.22446553194558969,"132":0.1451818365682585,"133":-0.14254256699374956,"134":-0.18180892593721132,"135":-0.19899439062941734,"136":-0.2861972259900605,"137":-0.050718099947215746,"138":-0.09756800040007527,"139":0.03603836701908695,"140":-0.12779284378730763,"141":-0.22806849928212203,"142":-0.03393623639074805,"143":-0.27368011202365705,"144":-0.14875720113462965,"145":-0.08395338547080812,"146":0.08287304862598348,"147":-0.004222782606104977,"148":-0.29074635182828246,"149":-0.31866792951456246,"150":-0.15697150204582025,"151":-0.18755440511889424,"152":0.3162901966329117,"153":-0.08833122536807318,"154":-0.08406169167510032,"155":-0.1426680888301304,"156":-0.16469954775625498,"157":-0.000403333523107869,"158":-0.10718329360963044,"159":-0.3528377234851586,"160":0.015360700505059818,"161":0.06932484117125062,"162":-0.17644244404672,"163":-0.14086782874626036,"164":0.23118424165487197,"165":0.09640372708797097,"166":0.21648337479531563,"167":-0.10222221890726872,"168":0.17239369630148135,"169":-0.17038852477518232,"170":-0.1695235575148207,"171":0.004069157728582143,"172":-0.18747764015057589,"173":-0.24280885335138644,"174":-0.15807227167828747,"175":-0.15163427240077035,"176":-0.031823860968532174,"177":0.18698640767910374,"178":0.05302244041313882,"179":0.12458524185610326,"180":-0.02616111169582786,"181":0.12322225229804892,"182":0.025255199507873083,"183":0.09888155731660728,"184":0.3141781864845049,"185":-0.16668126141984183,"186":0.15824136405529046,"187":-0.09693444110421533,"188":-0.1725646045116744,"189":-0.30589247975187395,"190":0.128191137152764,"191":-0.047609908185471055,"192":-0.06222609261508384,"193":-0.043125029385805494,"194":0.2706707102495868,"195":0.22413796142115708,"196":0.1519356216844514,"197":0.1101674166057038,"198":-0.08140160216256376,"199":0.3326759118048056,"200":0.13099452132711864,"201":-0.11011187501846618,"202":-0.14856226495680097,"203":-0.15572347298975545,"204":0.17359375450630904,"205":0.2358330565673187,"206":-0.25442999060218185,"207":0.04258023271090246,"208":-0.07950228509169702,"209":0.35934468300800837,"210":0.13277235000388457,"211":-0.009108890515343734,"212":0.21340278933747442,"213":0.12777403491339934,"214":-0.1519169490294861,"215":0.38926859328939584,"216":-0.021319087875937486,"217":0.23164528670242848,"218":0.09190715768450959,"219":0.10955664643179439,"220":0.40494027800598836,"221":-0.21279871394853497,"222":0.24926536668314053,"223":0.19425335233172747,"224":0.08764807014968272}},"7":{"bias":-0.3953962197058262,"weights":{"0":0.24590821707008945,"1":0.38766618118659396,"2":0.35724186032476507,"3":0.307091829281702,"4":0.00927090730759994,"5":0.07524961200300419,"6":0.07599020356757884,"7":0.049627683830553805,"8":-0.0006481660475362091,"9":0.2861720978658129,"10":-0.2855825378862903,"11":-0.3401321511488143,"12":-0.028500674528178196,"13":-0.1786884660972339,"14":-0.1721568543867834,"15":-0.10952586535085111,"16":-0.3831060166158832,"17":-0.26059413091814804,"18":0.0025754565549322437,"19":0.10564965479677361,"20":-0.16982050692586906,"21":0.08526533805507452,"22":-0.023367044766528847,"23":-0.06890460579317098,"24":-0.22096928936996849,"25":-0.33537839196373465,"26":-0.46511811527173264,"27":-0.2877320879855194,"28":-0.093673174429206,"29":0.05123825721104125,"30":-0.2210467035596172,"31":0.013240958661417616,"32":-0.29952343182466107,"33":-0.1021001102702585,"34":0.1579525200392825,"35":-0.3169494760606855,"36":0.04337761801358267,"37":-0.0345535715463134,"38":0.185526960269868,"39":-0.07072140724399618,"40":0.16384351716324488,"41":0.2541326670229632,"42":0.12350213362077662,"43":0.4661609395996749,"44":-0.035602962736676395,"45":-0.08307387155930022,"46":0.09290373109516187,"47":0.13750881534471257,"48":-0.055129682412121885,"49":0.09357121521886355,"50":0.06262218789519886,"51":-0.03695635147789598,"52":0.033734398619150535,"53":0.35666761113980966,"54":0.40874964529555213,"55":0.5619872376589978,"56":0.3116833458611291,"57":0.3709372181517915,"58":0.6013140990584774,"59":-0.03435114993126251,"60":-0.11489676499224206,"61":0.10880710563667456,"62":0.07238014788659375,"63":-0.015391404998073717,"64":-0.4614357041453657,"65":-0.2747607845676964,"66":-0.269282941919608,"67":-0.10897644289124793,"68":0.2310012800835121,"69":0.2467100949896702,"70":0.6195361954501092,"71":0.20909760136307284,"72":0.2858959361054463,"73":0.22582033341609004,"74":0.24881592601964286,"75":-0.025681608266813045,"76":0.23386452039603256,"77":-0.06696466077077683,"78":-0.24732322531991396,"79":0.06433292093537882,"80":0.016146893298827323,"81":-0.028819843104970242,"82":0.07863462561540883,"83":-0.05825354777699785,"84":0.0005910151998946469,"85":0.08612382777112144,"86":-0.07313843160296146,"87":0.0294076809751125,"88":-0.16917728428354237,"89":0.029756960102710138,"90":-0.08604805699798135,"91":0.0903247051262198,"92":-0.09302547620731276,"93":-0.08292664755349104,"94":-0.07369603223796241,"95":-0.004442602931838508,"96":-0.01162285039693085,"97":-0.10216169840637104,"98":-0.09877871708338541,"99":-0.035152853751389546,"100":0.1530181461579007,"101":-0.10617034901898224,"102":-0.332323081548727,"103":0.13840199631166974,"104":-0.09951860587241373,"105":-0.2916689625944221,"106":0.165906644822328,"107":-0.2429376479053489,"108":-0.12653331185510808,"109":-0.28816799899262135,"110":0.09046671437125971,"111":-0.04254834969271415,"112":-0.08432398182220414,"113":-0.04752420202463194,"114":-0.20181195759159945,"115":0.08454259240245356,"116":0.06668290312273473,"117":0.24052140621126805,"118":0.09627119920288581,"119":0.43329661604111963,"120":-0.3460413384084418,"121":0.020355631295124518,"122":-0.2159752653510362,"123":0.06911279354991394,"124":-0.027788789630691885,"125":0.35435830470742263,"126":0.14924622099727358,"127":0.004444975835492475,"128":-0.04903575519229059,"129":0.19522825159829138,"130":-0.17581605686074003,"131":0.04134080921542216,"132":-0.07529798528071707,"133":-0.008206228246551471,"134":0.23553352495999427,"135":-0.12357109085126576,"136":-0.07623331584017345,"137":-0.037931767301492995,"138":0.21081243540760308,"139":0.41019305252114663,"140":-0.13642754179397562,"141":0.13711122817843882,"142":0.028156805226485157,"143":0.05012773733958041,"144":0.16678566259789357,"145":0.037197449597671864,"146":0.09894064753077358,"147":0.042357384817104875,"148":0.04863734137148922,"149":0.23136591323799852,"150":-0.05141753888432782,"151":0.10995290862911995,"152":0.17748592904498478,"153":0.16543781562964846,"154":0.42517560662640064,"155":-0.07836944796619404,"156":0.10002992469971243,"157":-0.1345456170518329,"158":0.17698718263608737,"159":-0.04817505103775363,"160":-0.13660438447479578,"161":0.24362545389721735,"162":0.12775359190980037,"163":-0.23664633539025284,"164":0.024345778992771915,"165":0.17086381628121294,"166":0.029883902851725628,"167":0.10077071154784076,"168":0.4007243639826445,"169":0.23752089257481937,"170":0.09947456085958137,"171":0.010961904785864422,"172":0.01136938567810774,"173":0.030201566092068928,"174":0.07975240969878246,"175":-0.19644610763845996,"176":0.2289973346868601,"177":0.2648543215642871,"178":-0.13764235046463522,"179":0.23231056985986182,"180":-0.09898881688476786,"181":0.2345448028288532,"182":0.3648818199636254,"183":0.2427358884278804,"184":0.18782323499281686,"185":0.2579640922920371,"186":0.021074770178319668,"187":0.17814217267295387,"188":0.021424886838463858,"189":0.1803358200505901,"190":-0.11964236144747578,"191":0.058374043983383216,"192":0.09513106038032722,"193":-0.019968109182495516,"194":-0.0028883763531877184,"195":0.27311632745408787,"196":-0.09161505434678684,"197":-0.09863545135742552,"198":0.38118488594220185,"199":0.0203403375324246,"200":-0.026110217652244312,"201":0.06523469130659454,"202":0.10277656247805307,"203":0.2657454712460739,"204":-0.06343745541449881,"205":-0.07719611986710341,"206":0.004729112881052647,"207":-0.14733103129923694,"208":0.13395609083722404,"209":-0.20864132848635772,"210":0.24221885513889765,"211":0.04015722740637039,"212":-0.04874692905404531,"213":-0.2726345016537303,"214":0.09204686789578724,"215":-0.004731162704552772,"216":0.010318825524708163,"217":-0.028306048329983527,"218":-0.14944231003419037,"219":-0.3828342243887179,"220":-0.08973276892729531,"221":-0.133906507851935,"222":-0.31184906988476535,"223":-0.3959831199195644,"224":-0.3301941901753914}},"8":{"bias":-0.22870014412644715,"weights":{"0":-0.03949175958997263,"1":0.3107920795713343,"2":0.11479778250725796,"3":0.10912791867023115,"4":0.3704824900774128,"5":0.2101587769646252,"6":0.017605617111558832,"7":0.1822897745595948,"8":0.07977933236242,"9":-0.04460848507483213,"10":-0.10875381738177163,"11":-0.05141142665775042,"12":0.06296290880251679,"13":0.158318097778331,"14":-0.24169875905647104,"15":0.19622345458196122,"16":0.04609444248223481,"17":0.03940663910204117,"18":-0.044388213478895995,"19":0.25073158228120146,"20":-0.28608456303711166,"21":-0.06656956606353176,"22":0.008107377037087487,"23":0.027780642525954354,"24":-0.01508925155954149,"25":-0.15378876658106677,"26":-0.32187437368148747,"27":-0.0956891698062265,"28":0.06653689916745972,"29":-0.013714292630349543,"30":0.2493086711189898,"31":-0.062673713313481,"32":0.005218905083401589,"33":0.14657268631100095,"34":-0.008454155453886504,"35":0.17171539380669168,"36":0.04982761959985306,"37":-0.14604757442019128,"38":0.0630032736726079,"39":0.11649325966712125,"40":-0.047635643059463675,"41":0.08203136479132977,"42":-0.06220755145545312,"43":-0.08659434778810585,"44":0.0015418013160337475,"45":-0.06685304990289409,"46":-0.034586287439632435,"47":0.07814057134874697,"48":0.05922872615297386,"49":-0.18568468125520882,"50":-0.14269175628095251,"51":-0.010158704491482673,"52":0.13455845937723546,"53":-0.05484818133015571,"54":0.11277471328756032,"55":-0.1250931886146271,"56":-0.06815903024533315,"57":-0.08393591915681407,"58":0.2327610289778984,"59":0.252736825629233,"60":-0.028717911447654627,"61":-0.006661537730008739,"62":0.025839037560901362,"63":-0.0004472040797733664,"64":0.06017877215769008,"65":0.08516739114082006,"66":0.0897352848181828,"67":-0.1352750612374168,"68":-0.0523471552058917,"69":0.07258933383676429,"70":0.20028728392628914,"71":-0.07178066957851363,"72":-0.12130894653492813,"73":0.045783988194236146,"74":0.058443893045932484,"75":-0.07786783889015664,"76":0.26464874993779347,"77":0.08787345951727961,"78":-0.07827753277524559,"79":0.043127522545438356,"80":0.07004762366734434,"81":-0.05733616311870982,"82":0.05282792164154645,"83":-0.05924584151645082,"84":0.18300313913219213,"85":0.21367949932815714,"86":0.0770869929228485,"87":0.082087425203916,"88":0.22646418967711138,"89":0.05367402019995729,"90":-0.3801946996738302,"91":-0.1343984796260948,"92":0.08401202806528994,"93":-0.008404038527794559,"94":0.04121613826624439,"95":0.21067418476831498,"96":-0.12460350239664224,"97":0.15262653776415325,"98":0.11220335051541015,"99":0.18852402810967409,"100":-0.02270127378633657,"101":0.11299569945032488,"102":0.055257421752150926,"103":-0.06421302722024425,"104":0.12078816796178565,"105":-0.5197748131371754,"106":-0.20323327647757072,"107":0.002346837979059171,"108":-0.024735976645919283,"109":0.02642831196617666,"110":-0.11777274468390668,"111":0.052043003155349835,"112":-0.16166737242330342,"113":-0.14171243744061196,"114":-0.13389357758803583,"115":0.1336439869074358,"116":0.14054779870610515,"117":0.27578770142763415,"118":0.24357833094310208,"119":0.05920939385220737,"120":-0.048970093753148564,"121":0.03291934882018344,"122":0.02232097020220786,"123":-0.06674598089691092,"124":0.027710707477847322,"125":0.07390941731169587,"126":0.10010951912998407,"127":-0.20413155537505592,"128":0.013755935766288347,"129":0.09011680484980397,"130":0.07915913029116303,"131":0.14705816463650664,"132":0.024282467481765255,"133":0.08364053050070656,"134":0.34946882568528825,"135":0.15341096119086514,"136":0.038700878367608875,"137":-0.06755697942255441,"138":-0.010457779441676801,"139":0.459878897760221,"140":0.3519403071081537,"141":-0.014924789509172039,"142":0.26025996324100786,"143":-0.12713434895062228,"144":0.018706069737830944,"145":0.1967723038752291,"146":0.028526321934398337,"147":0.2888937240017909,"148":0.34937361465130395,"149":0.414258597187735,"150":0.042326454022207395,"151":0.07006656069498308,"152":-0.2420330930046335,"153":-0.24123869885140156,"154":0.18948376690880825,"155":-0.13630867649458853,"156":0.2177407897215235,"157":0.21368281045831852,"158":0.30259773704731263,"159":0.047937925823429886,"160":0.15039603872139778,"161":-0.006404388113683267,"162":-0.009458090973477834,"163":-0.048189421352421526,"164":0.4927551460937028,"165":0.01938209341039053,"166":0.0421521818852614,"167":-0.09346402446597134,"168":-0.19302142373608067,"169":-0.17121944930041713,"170":-0.23046900625995892,"171":0.07333336261345448,"172":-0.17224114202460408,"173":-0.05848685630584203,"174":-0.32906614081890767,"175":-0.030680768893531808,"176":-0.19041230200260145,"177":-0.11673357130213657,"178":-0.16857406576363274,"179":0.3912604079542993,"180":-0.03289454370804013,"181":0.10866130236851033,"182":-0.19126994966330807,"183":0.011946891590476827,"184":-0.12901521982182007,"185":0.1299990046844452,"186":0.05826088482027236,"187":-0.009014278521573313,"188":0.09645082411063034,"189":-0.14965237161255127,"190":-0.055547839182718675,"191":-0.13096085554339076,"192":0.15983953110267526,"193":-0.05811915943734503,"194":0.1299968635674219,"195":0.28382154994124115,"196":0.1319067728005863,"197":-0.08494775698403458,"198":0.12718281661209083,"199":-0.39850665328362833,"200":-0.16668143755070433,"201":0.06582814444788525,"202":-0.10316091748991478,"203":-0.06440828738323415,"204":-0.029157160077284642,"205":-0.03669364599061174,"206":-0.023609394829534756,"207":-0.22807567494074427,"208":0.21669039977957005,"209":-0.0715166042653674,"210":-0.12140699439083476,"211":-0.02761873351975803,"212":0.11361848613190063,"213":-0.16828639245383223,"214":-0.17531530585933577,"215":-0.11762944552675414,"216":-0.07726407714388374,"217":0.1295295893106739,"218":-0.09831448481099621,"219":-0.32628996036733404,"220":-0.09516152767777482,"221":-0.2839120231182472,"222":-0.2392731730058801,"223":-0.4277187126316948,"224":-0.09098261024182354}},"9":{"bias":-0.16171812123032148,"weights":{"0":-0.34999355185488373,"1":0.07821160324561119,"2":0.11039000971814872,"3":-0.2973126482785348,"4":0.1744929762752309,"5":-0.07286170671941389,"6":0.14085917724348399,"7":-0.15629786962928918,"8":-0.1454991344413898,"9":0.04678324021102744,"10":-0.2773627560115197,"11":-0.15220380916086748,"12":-0.18328298192974174,"13":-0.172939970636926,"14":-0.14155317984468715,"15":0.02354537667502963,"16":-0.03343287203204553,"17":-0.01743860232992983,"18":-0.11467833086222701,"19":0.08744221309112861,"20":-0.17184471398228804,"21":-0.3250949239040324,"22":-0.15636970016927448,"23":-0.0035429268489594636,"24":-0.03601396181019849,"25":-0.23218012478175185,"26":-0.18161346254187616,"27":-0.05497215536802834,"28":0.04834542668251805,"29":0.15926466834494002,"30":0.19412112977307505,"31":-0.23636370978079715,"32":0.10399929637234774,"33":-0.04036238611230198,"34":0.24926348767107503,"35":0.14665534161903188,"36":-0.04392646821042087,"37":-0.11685489598915748,"38":-0.0365906083849979,"39":-0.19279080369671808,"40":0.08133455478174584,"41":-0.11549125958992788,"42":-0.13395450099831047,"43":-0.1064020688321559,"44":0.0008051980795694484,"45":0.10536270563016596,"46":-0.10447126515709423,"47":0.00550938090022537,"48":0.057395996392447156,"49":0.192249641121153,"50":0.06940469073021859,"51":-0.11686017131416591,"52":0.009752732853407423,"53":-0.3015996831961502,"54":0.1436156131991275,"55":0.08557241645400825,"56":-0.004184705010660808,"57":-0.15189297675998725,"58":-0.38706469282923495,"59":-0.031595671559382886,"60":0.21430379509036776,"61":0.01328430011315105,"62":0.11372224160619317,"63":0.014339315118863303,"64":0.2566953618586121,"65":0.17867058148151532,"66":0.13638341728195735,"67":0.26726873713703253,"68":0.41671077274662693,"69":0.11661440609381116,"70":-0.0024974647629789526,"71":-0.1408868561521536,"72":0.01073221398539245,"73":0.07876347904849625,"74":0.001013673673447131,"75":0.3554829322796525,"76":0.10213424268816165,"77":-0.09289985482413757,"78":0.09047133960472126,"79":0.0020309032550462516,"80":-0.03412754977421772,"81":-0.017571214605841903,"82":0.17377111809683507,"83":0.2519331748507677,"84":0.08787112338640515,"85":0.040294822298049385,"86":0.019388859784596865,"87":0.14624198273724157,"88":0.2203387417305486,"89":0.2234424785866007,"90":0.23158024083799053,"91":-0.061014958960366676,"92":0.1498280577176949,"93":0.1654743046887439,"94":0.28810167988867524,"95":0.020677841617982036,"96":-0.2924302418328741,"97":-0.28063165883453395,"98":0.09039100193778858,"99":-0.06254580380924439,"100":-0.002556544546502747,"101":-0.022586153526728974,"102":0.01177145181176419,"103":-0.09476431480460949,"104":-0.009509034187646261,"105":0.3359781493249505,"106":-0.11330502481998876,"107":-0.0011076582039109514,"108":0.0820373892655048,"109":0.23250139984459714,"110":0.21541807485318443,"111":-0.01889637461527553,"112":-0.17094628262852576,"113":-0.21583553821757107,"114":-0.13163475022538945,"115":0.08987144328850222,"116":-0.11050031022179069,"117":-0.08254820667445906,"118":0.008233654370476295,"119":-0.020086895541129784,"120":-0.015592780773990325,"121":0.10664885144629911,"122":0.11500994697867606,"123":0.30761976210145037,"124":0.19210690574820438,"125":0.12239505953214863,"126":-0.04117915356570891,"127":-0.21565002949789702,"128":0.007459350282957979,"129":0.06961383724882902,"130":0.23813392103565045,"131":0.19727278547146013,"132":0.12218616909193131,"133":0.04048654696860492,"134":-0.24629138706417594,"135":0.3127291846753606,"136":0.31373262683854714,"137":0.053627781375033455,"138":0.34103425333343745,"139":0.1331105054065146,"140":0.3801845103355978,"141":0.17631466541036475,"142":-0.1315077359457938,"143":0.07071022758489126,"144":-0.2163599870941512,"145":0.2017161247961179,"146":-0.00013527333030120763,"147":-0.007619438004285535,"148":-0.0820820065054778,"149":-0.08341760361013906,"150":0.4019751609001872,"151":0.39566117878374574,"152":0.16295412107013466,"153":0.3900804020397571,"154":0.41326105557632337,"155":0.19918953054257418,"156":-0.08130589433353742,"157":0.09173377386086153,"158":0.23797705773148772,"159":0.1298371203594833,"160":0.17451095033647562,"161":-0.053194274867853886,"162":-0.07895511721678455,"163":0.07934790854551212,"164":0.04481947401815613,"165":0.28638088398081946,"166":-0.03411375822429686,"167":0.028530225242352117,"168":0.03743008652086721,"169":0.1873966542953736,"170":0.16899508742628236,"171":-0.11001915712190824,"172":0.19027919192210027,"173":0.050572475203226365,"174":-0.24784631435718854,"175":0.13137241520333937,"176":0.019695863583721947,"177":-0.134941383099735,"178":-0.21074732439572608,"179":0.43653485445300355,"180":0.18618162619124684,"181":-0.15263019447049467,"182":0.09598705552591297,"183":0.2820770357371572,"184":0.47343114547085663,"185":0.13705740543493403,"186":-0.15212997817853946,"187":0.12847600516328905,"188":-0.03235125263651485,"189":-0.07061012636155672,"190":0.006559987291560431,"191":0.020070263836482753,"192":0.0043213116403355584,"193":0.0748414212198889,"194":0.3957237087337188,"195":0.05868766652714299,"196":0.30577321170982147,"197":-0.07150854913572266,"198":0.0049706951598042885,"199":0.03840627309002132,"200":0.2678955915324214,"201":0.15587205468355544,"202":-0.03069038806464391,"203":-0.2826539212974292,"204":-0.32481905350710377,"205":-0.14299222732424072,"206":0.09599474918761292,"207":-0.11695959212987987,"208":0.04794814184690577,"209":0.010332022149176464,"210":-0.12611456017106368,"211":-0.19807089431376557,"212":-0.2047795789827324,"213":-0.3185196470041357,"214":-0.2797625559690821,"215":-0.10466885521469185,"216":-0.10066535049814683,"217":0.23314472227485045,"218":-0.2828754762444944,"219":-0.21109200673390613,"220":-0.1580625044173585,"221":-0.2130206294932856,"222":-0.009509517282350553,"223":-0.2785968809639838,"224":0.0015312956024842459}},"10":{"bias":0.10303929085866675,"weights":{"0":0.4530450388567137,"1":0.262233495610066,"2":-0.12495864787689849,"3":0.09161971508583497,"4":0.047987868898441026,"5":0.07533759343367867,"6":-0.0495116922710284,"7":-0.10641212556748945,"8":0.29658430256016177,"9":0.026317412863010974,"10":0.15929173998152263,"11":-0.22589737228236909,"12":0.1341899226895812,"13":-0.017106516224084822,"14":-0.02175856800529447,"15":-0.1465324297462388,"16":-0.0023253406171362943,"17":0.07501493201452962,"18":-0.18418899943521672,"19":-0.02623975423745995,"20":0.1573038488924394,"21":-0.15419089888109952,"22":-0.12048991729885225,"23":0.06800331934190693,"24":0.04226444237921983,"25":0.3008163791534948,"26":0.16174950767877533,"27":-0.1732862885803135,"28":-0.16240837910931688,"29":0.10652564949261198,"30":0.06948024710870744,"31":-0.10757892997953745,"32":-0.04473010911961493,"33":0.07490675210937063,"34":-0.2065396438568669,"35":-0.13445334468493197,"36":0.16252111863531027,"37":0.02913043309743367,"38":-0.04183173875936954,"39":-0.24585084888514014,"40":0.15188632739560318,"41":-0.19069226211748808,"42":0.015818105799220206,"43":0.23424601175397042,"44":0.1149269119444813,"45":-0.14230815295383223,"46":0.03540442476417662,"47":0.07213489982431133,"48":0.20786256277880288,"49":0.1323495250199804,"50":0.0480880038548267,"51":-0.04681376134775149,"52":-0.18913628713800293,"53":0.03227653798329354,"54":-0.19048785231146437,"55":-0.06668509798788962,"56":0.14196635325509638,"57":0.06417192912096822,"58":0.18742203440666608,"59":0.4531764102913107,"60":0.2158066961970862,"61":0.030311998250875806,"62":0.26619864688223704,"63":0.13191977373035876,"64":0.06493256476713342,"65":-0.056678392769963046,"66":-0.13118719131061551,"67":0.10254439174748242,"68":-0.14186733664597226,"69":-0.41442983454454413,"70":-0.19365522697341647,"71":-0.00013623270149646963,"72":0.14916565379487623,"73":0.33781866155573886,"74":0.2846677187832691,"75":0.41875255476847595,"76":-0.14520584023752214,"77":-0.045722809546910013,"78":0.018233400259394586,"79":0.03855458263816297,"80":-0.21318730610218128,"81":-0.2615963178126067,"82":-0.31472086708570657,"83":-0.1154981059339275,"84":-0.02815253826282462,"85":0.15614717001368078,"86":-0.031268308568027495,"87":0.0026444036300740967,"88":0.1336991623292873,"89":0.3449822615499881,"90":0.1738973528246832,"91":0.19618232075236156,"92":0.03963297266169714,"93":-0.007763395676073907,"94":0.09594720595610004,"95":0.014104758785124195,"96":-0.279646287295236,"97":-0.22530781862002552,"98":-0.19280540683473868,"99":0.19792752411348666,"100":-0.17863228773134168,"101":0.3128831461712275,"102":0.19504191528396536,"103":-0.3398452807140598,"104":-0.05141732374193742,"105":0.4647087578756086,"106":0.2748031653157092,"107":0.34183187478908145,"108":-0.03910732384545926,"109":-0.11442045228372,"110":-0.026422250681096812,"111":0.164053640336061,"112":0.04931936488615725,"113":0.11590105830420094,"114":0.06648638325322591,"115":-0.3521335391523356,"116":-0.0801039843062671,"117":-0.1629240698338242,"118":0.06157877104338349,"119":-0.1148784848958925,"120":0.37647785239749887,"121":0.11213075339996142,"122":0.1517833600691508,"123":-0.06353682272919275,"124":-0.1137460994043365,"125":-0.20557748517937405,"126":0.04751402069618574,"127":0.10853382845462477,"128":0.11111132017535476,"129":0.0854607447741871,"130":-0.13421699458940928,"131":0.19602738117053403,"132":-0.12039314691772933,"133":-0.008809351372327263,"134":0.037642914518732265,"135":0.24884814459676538,"136":0.13478847561169716,"137":0.17998793002380645,"138":-0.0459775812307606,"139":-0.2607185204214161,"140":-0.03791860092058843,"141":0.15408602523974424,"142":-0.035671128431940854,"143":-0.024104634874950556,"144":0.21933466301030471,"145":-0.18927410979154605,"146":0.1065844494319625,"147":-0.19109759996651304,"148":0.006103098871973224,"149":0.15222198617745125,"150":0.283000860247187,"151":-0.1570594163560683,"152":-0.1770805291942617,"153":0.09355211222737608,"154":-0.05122268840126726,"155":-0.041487773590731365,"156":-0.09275472513495862,"157":-0.011255989693227325,"158":0.02213439992513492,"159":0.19342651784577833,"160":0.028495600438352416,"161":-0.18226974616940117,"162":-0.28160833815833464,"163":0.1188481511439427,"164":-0.18580590133812497,"165":0.043629786079358385,"166":-0.06318364908602483,"167":-0.1546737526959465,"168":-0.08095226303079071,"169":0.019283742471194312,"170":0.05306029102682945,"171":0.05221816427403962,"172":-0.14765500376734245,"173":0.03721034292372361,"174":0.0070438836575309315,"175":0.07461598962443643,"176":-0.1419400536839863,"177":-0.21416046233018884,"178":-0.14649030894998058,"179":-0.21019646459093133,"180":-0.173593247005627,"181":-0.13694524070590153,"182":-0.22961819619287147,"183":-0.058917821001703126,"184":-0.2139550034853745,"185":-0.06483014876572332,"186":-0.020861597145017046,"187":-0.03648083194348906,"188":-0.013651812663142214,"189":0.13501129201939635,"190":0.15096975764071868,"191":-0.05168812600810582,"192":-0.19614856478203596,"193":-0.315980407250345,"194":-0.24912846304580563,"195":-0.12307299021561935,"196":-0.0035615934140161734,"197":0.1779954043389919,"198":0.1204347048497999,"199":0.2731824777447142,"200":0.18003740261557946,"201":0.3038660400267449,"202":0.027383665316690627,"203":-0.05232509462021381,"204":0.1064646003735997,"205":-0.01026737759589669,"206":0.18791695800811298,"207":-0.016742647925673728,"208":-0.11890052809888439,"209":-0.17911502314566094,"210":-0.22081356325927295,"211":-0.10800576754212984,"212":-0.034857048089664874,"213":-0.1259964127544025,"214":-0.08218079098424469,"215":0.09594597878066384,"216":-0.19444466132322585,"217":-0.05136670243410571,"218":0.00473203244654055,"219":-0.1264042032174991,"220":-0.15938322262068352,"221":0.25829881317050174,"222":0.18972857335202312,"223":-0.23789883601121561,"224":0.08745371202643447}},"11":{"bias":0.09858715085500418,"weights":{"0":-0.1067601373022404,"1":-0.3844766953714279,"2":-0.4199400588945816,"3":-0.3564302540208275,"4":-0.27162331737116646,"5":-0.23778543236117436,"6":-0.2419504908347044,"7":-0.09094229658279615,"8":-0.33850299446114857,"9":-0.1911063266048262,"10":-0.24573999423041828,"11":-0.20093200263738842,"12":-0.3851916505196364,"13":0.02110295572086291,"14":0.36105831657351717,"15":-0.37274464854415934,"16":-0.2890592800771996,"17":-0.12711684057573283,"18":-0.15715756426737273,"19":-0.03788490769604357,"20":-0.11133697671225212,"21":-0.3708847254884937,"22":-0.039295110743111795,"23":-0.19816171951917466,"24":-0.2605145020936371,"25":-0.1561786626662866,"26":0.009856222559149811,"27":-0.030688523098506663,"28":0.0788962100207416,"29":0.0361315170463416,"30":-0.3619298379505309,"31":0.07128084207045306,"32":0.0022245294348131922,"33":0.18890652234304162,"34":0.25938887466660737,"35":0.19832282867132636,"36":-0.07597921601186482,"37":0.1840144280642294,"38":0.06048653847335131,"39":0.15230309884073986,"40":0.12693189267082428,"41":0.10683810674447446,"42":0.18143276828483104,"43":-0.06862188600697068,"44":-0.2060966974423516,"45":-0.08763020415346914,"46":-0.15397104008403947,"47":0.16381014151826206,"48":0.09022045193102812,"49":0.09509150819482096,"50":0.12569562612241084,"51":0.19855991357976308,"52":0.09577501538743932,"53":-0.10678966755084353,"54":0.01731504731758016,"55":0.1161855174598623,"56":0.15854950374884386,"57":-0.08572415873926992,"58":-0.21843040441760544,"59":0.07127326659390593,"60":0.2907196661636878,"61":0.04211504469985232,"62":0.18843929081507915,"63":0.15586944658440946,"64":0.14614549377184835,"65":0.2633232219444179,"66":-0.021429586004830335,"67":0.18744372310948498,"68":-0.02105672630346276,"69":0.037536873780359414,"70":0.012275095477674403,"71":-0.18126222708364464,"72":-0.08099139100180604,"73":-0.04113710375087398,"74":0.24518626543622007,"75":0.5042893095791057,"76":-0.023330687654472704,"77":0.028730084932410235,"78":0.09174526737864665,"79":-0.01996435369483248,"80":0.03150705680775756,"81":-0.2478996326402034,"82":-0.019789754485047075,"83":-0.010493358589218052,"84":-0.3466780379468215,"85":-0.1977590955655066,"86":-0.3307117002098159,"87":-0.16480199841056445,"88":0.14920809939412136,"89":0.33417031768099187,"90":0.16937405740365297,"91":0.3391311159623525,"92":0.19208647682599647,"93":-0.18874501975617908,"94":0.14288183785449277,"95":-0.2870450494142265,"96":-0.10095108235890674,"97":-0.24355084030920937,"98":-0.08453920812781418,"99":-0.2897691160389636,"100":-0.08699296120180824,"101":0.008827746833460682,"102":-0.3340419658261649,"103":-0.03886440409322315,"104":0.09383381493145769,"105":0.2293281874398532,"106":0.44627016822182386,"107":0.31004725934633276,"108":-0.04132342145727585,"109":0.07996605775175711,"110":-0.1130600995058916,"111":-0.03820145526446846,"112":-0.18918204330306004,"113":-0.23009714612546975,"114":-0.06607881361357762,"115":-0.26755974597254834,"116":-0.16145814959479834,"117":-0.11337102110134575,"118":-0.0674210327805326,"119":-0.007517922281140791,"120":0.37693275244564806,"121":0.10611193097766869,"122":-0.22717643461820375,"123":0.3043925441129645,"124":0.016559676813683664,"125":-0.18802133955373154,"126":0.11203030558908209,"127":-0.18635955384934008,"128":0.030519124088229186,"129":-0.0318958320137654,"130":-0.21716018919118413,"131":-0.22231241021942968,"132":-0.17802507815353508,"133":0.1895713722432989,"134":0.0559523750478849,"135":0.1409654284790562,"136":-0.11190518242851033,"137":0.019842399782181726,"138":-0.019550470065682078,"139":-0.14319290821880687,"140":-0.21949136660445237,"141":0.006167010418852633,"142":-0.00943409659599638,"143":-0.15884498911984246,"144":0.01571038945052621,"145":0.1041184957943705,"146":-0.04906659304785574,"147":0.07174133892460058,"148":0.20728286563248077,"149":0.23512242004757855,"150":0.40057249476349843,"151":0.21173719832205112,"152":0.06579206289606804,"153":0.1571773722691446,"154":-0.06704197203227623,"155":-0.15705714050426617,"156":0.07070345219775541,"157":0.21668490673326546,"158":0.17924338922127672,"159":0.11335546668893418,"160":0.09575946193271276,"161":0.15071099706319954,"162":0.06695821875938052,"163":0.5146047971849766,"164":0.046236831128538394,"165":0.33927499511169806,"166":0.08761535143521984,"167":0.10731218290546062,"168":-0.1318476770510505,"169":-0.01342909510228637,"170":0.027247188400385706,"171":-0.0659742137889838,"172":0.06846601343345071,"173":0.0975676657924467,"174":0.1363866729837307,"175":-0.029853256627700765,"176":0.13876738510236264,"177":0.18849254777952337,"178":0.05490339388813489,"179":0.2992152039187012,"180":-0.10846975262209901,"181":-0.034608890597439615,"182":0.17306062680724146,"183":-0.17158546133124103,"184":0.02047200576647747,"185":0.017591672114221933,"186":0.18784143446521298,"187":0.1609267727181314,"188":-0.0508748987815323,"189":0.18449470083388117,"190":0.19550949102215084,"191":0.3549123923078985,"192":-0.06909777191905916,"193":0.1386233958111176,"194":0.14605446267508085,"195":-0.1814347693890838,"196":0.04925908144326107,"197":0.15861795879583176,"198":0.021151472500177973,"199":0.08806997999892394,"200":-0.041137698394858306,"201":-0.2014524309840031,"202":0.1583101679982886,"203":0.07734253973207623,"204":0.14142330148699686,"205":-0.18422366580511146,"206":-0.05003738571937735,"207":-0.05378605404878505,"208":-0.24372879239817344,"209":-0.003248791715093302,"210":-0.0007800760294465797,"211":-0.13064707637738893,"212":-0.09150656375709144,"213":-0.3986721349425817,"214":-0.0669885028421754,"215":-0.11073221357905823,"216":-0.4326729000390013,"217":-0.04562031575979871,"218":-0.17991956182175578,"219":0.07798203917537445,"220":-0.1519189757866257,"221":-0.26358615668972707,"222":-0.30806845137638583,"223":-0.054977857049228196,"224":0.17518593821881656}},"12":{"bias":0.2360144346144866,"weights":{"0":-0.19464174249019445,"1":-0.4293168397427251,"2":-0.4696157681021743,"3":-0.18928257519899205,"4":0.11754957661905951,"5":-0.3487920493417716,"6":0.11056267983174187,"7":0.15244049762672948,"8":-0.17245479593946383,"9":-0.12829117128594475,"10":0.15003779541431184,"11":-0.007041629356138005,"12":0.2348215072505424,"13":-0.024714371882186458,"14":0.2978454332871663,"15":-0.033316008042683275,"16":0.055763956353116144,"17":0.27352672082390256,"18":-0.0009903334453041745,"19":0.06562285702260974,"20":-0.17816585427329218,"21":0.031088923192030382,"22":0.18191738101288882,"23":0.28008637288617877,"24":0.0640192917551427,"25":0.026996173657869663,"26":0.22813579694635477,"27":0.3456837980631857,"28":0.1257619349898399,"29":-0.22264504177073008,"30":0.1465902969328548,"31":0.09209913992260918,"32":0.04117215940842482,"33":0.31826681897548054,"34":0.12194534300092187,"35":0.17767831572396975,"36":0.18192952117485095,"37":-0.029112757470616247,"38":0.047380069673363896,"39":-0.15601704048858284,"40":0.10663539256591693,"41":0.0577236164662318,"42":-0.06646518923485685,"43":-0.3946085838058273,"44":-0.20673342324034097,"45":-0.10962293447479973,"46":-0.0017066230227157516,"47":0.106457833952249,"48":0.13984034889489677,"49":-0.0023170445935673453,"50":0.04086812080962275,"51":0.030221819985643286,"52":-0.12014277923003422,"53":-0.07930633954844393,"54":-0.13479593704306791,"55":-0.41375041459987355,"56":-0.21241795148162332,"57":-0.09873045771165812,"58":-0.06353397978215504,"59":-0.16614000697293474,"60":-0.011000719788285252,"61":0.13571121208322215,"62":0.027529986695157393,"63":0.007055234318773879,"64":0.35887093925098495,"65":-0.2100083589235746,"66":0.07135732987517632,"67":-0.129381909708271,"68":0.0718989442950377,"69":-0.24928209565676562,"70":-0.15345058020558394,"71":-0.26201032069449065,"72":-0.22480703776994926,"73":-0.0979922618095599,"74":-0.30580196022109135,"75":0.03787842426643689,"76":0.027087352668746095,"77":0.0674496597235697,"78":0.06632218565548964,"79":-0.13777605442952454,"80":0.07695484172645296,"81":-0.07193278749199443,"82":-0.026093272430862256,"83":-0.23447916476233466,"84":0.009047686942693596,"85":0.23197606996583942,"86":-0.12771736200564812,"87":-0.1218008273278538,"88":0.1537008772460093,"89":-0.05117965371865881,"90":0.22242855516180352,"91":-0.02192615418892299,"92":0.2157217351262286,"93":0.06640763740559535,"94":-0.004681970837805119,"95":0.024101492977491232,"96":0.10946777879081744,"97":0.13551108201838877,"98":-0.25487644884368593,"99":-0.014790986988176692,"100":0.02924370425567764,"101":-0.029956557596850054,"102":-0.14097089681925792,"103":0.18336051992781305,"104":0.14111195230827103,"105":0.007135628047193234,"106":0.05936652375037441,"107":-0.19156246808466915,"108":0.02864852544903015,"109":0.13792557375295864,"110":-0.0023828474266879528,"111":-0.20295424657330738,"112":-0.09509884462280266,"113":-0.25301928958098213,"114":0.10038498805342534,"115":-0.057371120249859194,"116":-0.0745100999736636,"117":0.2428372567671396,"118":0.2334614410073367,"119":-0.10590941595714332,"120":-0.14392309764775302,"121":0.16383102251070303,"122":-0.1140712719476604,"123":0.0018554744454261417,"124":0.09778772382899291,"125":0.12248421659021774,"126":-0.04476090499512161,"127":0.18960236679173312,"128":0.007471490588255357,"129":-0.08119968694821071,"130":-0.2030454570963613,"131":-0.15942519404812855,"132":-0.054941102371954535,"133":0.07162882877554072,"134":0.046404433832451936,"135":-0.2718314413304696,"136":-0.1563877462257295,"137":-0.2161972404236691,"138":-0.20855534288102268,"139":-0.29329849671526015,"140":-0.16546050610066795,"141":-0.0014201060150134228,"142":-0.10877950594036609,"143":-0.19009604601288502,"144":0.08528493722061667,"145":0.1727400404243429,"146":-0.018257334473852808,"147":0.010570110012945466,"148":-0.09608295894391082,"149":-0.13948644994492662,"150":-0.14284781991637768,"151":0.09554317109740035,"152":-0.24686488334871162,"153":0.11344181860043058,"154":-0.20591558179349095,"155":0.1406797543182343,"156":0.2716889607436233,"157":0.05778631883910668,"158":0.1160365928801452,"159":0.14559822520068086,"160":0.2267023643670699,"161":0.07261304381828693,"162":0.009948735275845506,"163":-0.14301422076167922,"164":-0.03992844841758019,"165":0.10470892434373097,"166":-0.0965409085953777,"167":0.05631486406592587,"168":-0.2141561215197424,"169":-0.21789208993708928,"170":-0.07538710694549848,"171":0.1103602253450681,"172":0.0023952744525125354,"173":0.15905481680694422,"174":-0.09908992056008095,"175":0.20003432925683157,"176":0.2415521613380525,"177":0.19617667962499752,"178":0.13978795661336268,"179":0.17848271913114805,"180":-0.18797539771056088,"181":-0.4649517355351292,"182":-0.15816974124262725,"183":-0.29487747227551114,"184":-0.005005292408417646,"185":0.023570225391319807,"186":0.10557858278075156,"187":-0.12510390788232895,"188":-0.1646474686227639,"189":0.17201088210037188,"190":0.31042463455852826,"191":-0.03463776005176565,"192":0.03232359204757879,"193":0.0018332143078960705,"194":-0.1809456261936551,"195":-0.1251341256468124,"196":-0.19468952828811112,"197":-0.16054510791414314,"198":-0.37441623222962717,"199":-0.09385036339589209,"200":-0.21743513773307624,"201":-0.00596282263870669,"202":0.15474733357939602,"203":-0.15234338849618792,"204":-0.19254218705767773,"205":0.13143752596258385,"206":-0.10985280094457107,"207":0.26147813709089607,"208":0.05917640724229208,"209":0.18746690435724112,"210":-0.36096295242880583,"211":-0.04383821041670326,"212":0.3642280899692819,"213":0.020576085702161805,"214":-0.1762538413458174,"215":0.14939208113851155,"216":-0.22388552440344944,"217":0.14200345583898905,"218":-0.12569916134073003,"219":0.018032797549791462,"220":0.07401216211672716,"221":0.24796836854450321,"222":0.13271150879381574,"223":0.38862010338874453,"224":0.15969986857767957}},"13":{"bias":0.14120194357630092,"weights":{"0":-0.1791800646825463,"1":-0.21088951220680932,"2":-0.33501122388967386,"3":-0.27076103021740716,"4":-0.30378589176083237,"5":0.07581332254789039,"6":-0.18332306601308895,"7":0.026511215376625763,"8":0.06463165159319743,"9":0.07404861317683054,"10":-0.07236406845460215,"11":0.01412212849855502,"12":-0.15553258408311404,"13":-0.012560265674167289,"14":0.11428137909032492,"15":-0.24811033821533285,"16":0.1260450605628438,"17":0.068423084095384,"18":-0.0933198496146131,"19":-0.17307158035909945,"20":0.06646831228174865,"21":-0.29607989574126675,"22":-0.01822349392340362,"23":-0.13614451765012725,"24":0.06744365259406876,"25":-0.02589808934633579,"26":-0.2962712752387545,"27":0.03660320029048571,"28":-0.0012049537054305121,"29":-0.2576250013031712,"30":-0.20342886448680894,"31":-0.15778918789570906,"32":0.06853726341575947,"33":0.15268318742148693,"34":0.22711293461946105,"35":0.0409644904903481,"36":0.13691768991509637,"37":-0.15262014877948854,"38":0.1341308139279094,"39":0.11430646024959006,"40":0.13809237448959646,"41":0.2076691452505482,"42":0.24526814192848448,"43":0.34191787160285697,"44":-0.14909686202979772,"45":-0.09891245080931453,"46":-0.21247333627069462,"47":-0.013749710069280692,"48":-0.1125196927297341,"49":0.1661625534344221,"50":0.11214348052928341,"51":0.11967712902585376,"52":0.014066624910638429,"53":0.34832943748219114,"54":0.047855650665525454,"55":0.2835276568664353,"56":0.283810288691047,"57":0.39337736309297133,"58":0.28618289550103315,"59":0.35568104468859557,"60":-0.019916763981644634,"61":0.09543206136030236,"62":0.03229876154322684,"63":0.3018179319749291,"64":-0.06479782157372978,"65":0.08616552490159912,"66":-0.21327489236973704,"67":-0.2859549246384142,"68":-0.07572582314048161,"69":-0.23295076841777343,"70":0.033011633123845,"71":0.12014282708122948,"72":-0.028116786575941105,"73":0.02029064874118486,"74":0.2561679906751131,"75":0.16415919037653917,"76":-0.046572761092353705,"77":-0.1471615315751482,"78":0.1616952765040831,"79":-0.25266900495560546,"80":-0.15989853300308665,"81":0.09234249220050943,"82":-0.12707096736166815,"83":-0.40344494469011144,"84":-0.19872063144786675,"85":-0.2194738072421692,"86":-0.41033328334722197,"87":-0.05246004109781955,"88":0.20363673489597248,"89":0.565202469062848,"90":-0.21333345372847926,"91":0.2622876406764533,"92":0.11952504423375453,"93":-0.16266560689841714,"94":-0.25636070932616684,"95":-0.17177668552965578,"96":0.0013853097392383987,"97":-0.03013335582065965,"98":-0.03457417481634306,"99":0.061577262731215464,"100":-0.04263950659512897,"101":-0.14958362295960895,"102":0.1852987653218945,"103":-0.06397882255400726,"104":-0.09986377222006247,"105":-0.17900218257437678,"106":0.515705292950275,"107":0.27311554315452047,"108":-0.003986592748649545,"109":-0.11755601800980706,"110":-0.37996324064762543,"111":-0.0952673979458646,"112":0.17618216097696615,"113":0.10305451426637302,"114":-0.07941669238117237,"115":-0.1154609411040382,"116":0.05640394550768054,"117":0.1779467485457229,"118":0.1730388965037698,"119":0.248536384097598,"120":-0.14527768507167169,"121":0.1969606606686898,"122":0.11599989528118552,"123":-0.23745682035170226,"124":-0.2695465654947109,"125":-0.3375100651525463,"126":0.04845428898016202,"127":-0.009866116223982197,"128":-0.15702980938715103,"129":-0.06976966583149521,"130":-0.16178052574088642,"131":-0.028497558975618727,"132":0.08777138882343605,"133":0.12809038028046849,"134":0.17738888515119505,"135":-0.5453116858276361,"136":0.03926073905342195,"137":-0.017907405312226246,"138":-0.3069649117409891,"139":-0.39284540535630863,"140":-0.20108863588525736,"141":-0.2206399228385437,"142":-0.000955818568577297,"143":-0.26917199908308587,"144":-0.033554260312399234,"145":-0.004498192334119566,"146":-0.18610574393960683,"147":0.2000504562009292,"148":0.10201838194134588,"149":0.2842126915406523,"150":-0.02080916294634103,"151":-0.3893357330247461,"152":-0.1940836365932293,"153":-0.389220677195097,"154":-0.20318921077421756,"155":0.13640126327859894,"156":-0.049329109151844804,"157":0.16905573439681104,"158":-0.23454622803963956,"159":-0.12879442105488256,"160":-0.09054516946422272,"161":-0.025921503246113788,"162":-0.010709056088637798,"163":0.44072268253631613,"164":0.410327641540576,"165":0.004375497966525449,"166":0.0046013727060629,"167":0.0849049698999486,"168":0.09993156267863301,"169":-0.003431452569223587,"170":0.10349668803339922,"171":0.02448871672322009,"172":0.13248207489881939,"173":0.32108686022401606,"174":0.12741440582704303,"175":0.2025387589518561,"176":0.5514075750893751,"177":0.491185297925125,"178":0.41523849044641153,"179":0.4663249157824507,"180":-0.3078214447852776,"181":-0.15799443870364788,"182":-0.054391583459855175,"183":0.0876965154190662,"184":-0.08513362900559207,"185":-0.18788902201363944,"186":-0.061263022029885386,"187":0.27126117522069176,"188":0.023842585559241684,"189":0.3243077333380695,"190":0.29490945101822763,"191":0.5843174067462491,"192":0.2951372818172945,"193":-0.014030472947370337,"194":-0.019455354787783714,"195":-0.46314417184410467,"196":-0.2634794036289412,"197":-0.2012025749522091,"198":0.024524961687194747,"199":-0.11851827384657382,"200":0.023970611506767953,"201":-0.017094468316567746,"202":-0.00020399395523626414,"203":0.18315785632432705,"204":0.01027129271149425,"205":-0.21640625474876715,"206":0.026219622791689906,"207":0.13121016514654046,"208":0.1262771023481787,"209":0.09510309151409674,"210":-0.2468452884565439,"211":-0.010644574691419917,"212":-0.041219765815239576,"213":-0.21485965874851923,"214":0.2485606421100772,"215":-0.1345001167217418,"216":0.27971174569912094,"217":0.033819596101244534,"218":0.07063808933158003,"219":0.29048222017932374,"220":0.30407058313266366,"221":0.21022023212655294,"222":0.19519474144698695,"223":0.27635023912643614,"224":-0.0989076304426154}},"14":{"bias":0.08546405462795036,"weights":{"0":0.26730839625684816,"1":0.3426912567996287,"2":0.06572998614612305,"3":0.20143533525458454,"4":-0.18760247791940293,"5":0.07381301180289564,"6":0.06779103971477453,"7":-0.030214750426280183,"8":-0.12228894138006202,"9":0.11365767470223045,"10":-0.13732060917676558,"11":-0.03192314244045988,"12":0.013003707256938895,"13":-0.13863709706064575,"14":0.2203555954889228,"15":-0.27163717695529804,"16":-0.11455510040713691,"17":-0.29793396886150947,"18":-0.07917840033279425,"19":0.07535159830438538,"20":-0.08460710421511487,"21":-0.21989097155548898,"22":-0.23088651341769578,"23":-0.15987351495621058,"24":-0.07195245204605644,"25":-0.10238411022985922,"26":-0.19455333065305225,"27":-0.11369949234787528,"28":0.057775012071263086,"29":0.20244879161424936,"30":0.13732003315021074,"31":-0.34266793858829,"32":-0.32815785348254845,"33":-0.16634732001992736,"34":-0.40207330533263824,"35":-0.121118705997101,"36":-0.41876272847166773,"37":-0.2512322661323702,"38":-0.14552337565284373,"39":0.0394529544124647,"40":0.030780283615064286,"41":-0.14369948672576593,"42":0.21150066102639892,"43":0.37009874524373365,"44":0.13307279363571442,"45":0.1729891306299054,"46":-0.19730163158726868,"47":-0.4332988330082573,"48":-0.25182617762544146,"49":-0.33424355015218943,"50":0.0031925779714285013,"51":0.13676021659795448,"52":-0.06613299760565043,"53":-0.06584237948988796,"54":-0.15741438022444895,"55":0.011621120183289266,"56":0.18206204795063075,"57":0.25572456131104854,"58":0.38545807215628813,"59":0.03994793764308625,"60":0.27088655468990336,"61":0.14867284560457072,"62":-0.2069223135563807,"63":-0.45801594889838015,"64":-0.20836739951126176,"65":-0.29033310686885416,"66":-0.21500510747168022,"67":-0.08676618625036056,"68":0.14370954994318813,"69":0.08393904754224504,"70":0.40791713092610216,"71":0.10916085424964096,"72":0.15938939660165638,"73":0.05294282469760766,"74":0.08830920650506463,"75":0.21568129961195828,"76":-0.2666580226228565,"77":-0.20270253684055423,"78":-0.15593522594522674,"79":-0.0630861587756182,"80":0.08183439754787984,"81":0.009222486337525062,"82":0.11654754543334302,"83":0.22906396383090688,"84":0.05270467769810679,"85":-0.2948182419939392,"86":-0.2913471775199815,"87":-0.07416286850929732,"88":-0.08175598215144175,"89":0.0744687087858238,"90":0.23509148365145616,"91":-0.1450955656693689,"92":-0.031344168998988474,"93":-0.16019434317362288,"94":-0.16949233968129368,"95":0.06300452258787868,"96":0.1571648051220171,"97":0.08727146772465823,"98":0.2562128923432734,"99":-0.021689322719871614,"100":0.26782097759232765,"101":0.06697914931837336,"102":0.09725883985820871,"103":-0.019584373628416286,"104":0.3268859262878096,"105":0.1915263225222042,"106":-0.0015380354229077668,"107":-0.02952899299142118,"108":-0.10089099575996797,"109":-0.06582919217523538,"110":-0.09271954803621663,"111":-0.0051370845924016825,"112":-0.008314501413767555,"113":0.1541869433932109,"114":-0.11866805253874575,"115":0.0211472141675626,"116":0.059177905890234035,"117":0.12140307897535241,"118":0.17892174323199586,"119":0.14424341029796942,"120":0.19827392355496237,"121":-0.1302498353446852,"122":-0.07234271137461377,"123":-0.058403781818883546,"124":-0.08784549521554257,"125":-0.11484172868466398,"126":-0.20473137889153742,"127":-0.1863813271746363,"128":-0.08257677879263765,"129":0.0678378242033751,"130":0.07252543826822601,"131":0.039568334603871165,"132":-0.14983626730478242,"133":-0.014234248875847698,"134":0.473860630283677,"135":0.0014982748318518382,"136":-0.025011058919508715,"137":0.08874853253781027,"138":-0.12066895037008228,"139":-0.08204913045410604,"140":-0.015188865659952698,"141":-0.1467873916090858,"142":-0.008507620511187926,"143":-0.10041300962184593,"144":-0.1398521748878431,"145":-0.22268788246784418,"146":-0.046666289024954066,"147":-0.05492032779525938,"148":-0.03219364061177864,"149":0.1361301840497504,"150":-0.04859161385915963,"151":0.010779428570331817,"152":-0.00010537089413485741,"153":-0.35598211575883976,"154":-0.11415829693969398,"155":-0.11191057266730274,"156":-0.11134969620058799,"157":0.05903586333492917,"158":-0.2778045126151677,"159":-0.1289886971262807,"160":-0.1426683160919651,"161":-0.14784807930550695,"162":-0.20695605259424346,"163":-0.2361121173921659,"164":0.27146020061327364,"165":0.1504105390031383,"166":-0.23335663407018392,"167":-0.07858251426631332,"168":-0.1755862804602179,"169":-0.3956524197153743,"170":-0.08100338642038206,"171":-0.16847385661923073,"172":-0.04790706930251215,"173":-0.08333819513348582,"174":0.23701902606751488,"175":-0.14613949127730846,"176":0.02991795521883723,"177":-0.08885599648967667,"178":0.022416358908746763,"179":-0.03286918439107755,"180":0.14760791318959793,"181":0.04712536257179371,"182":0.04016947267090737,"183":0.09559935080497652,"184":-0.1869981761938158,"185":-0.2992612172677264,"186":0.11108786105744715,"187":-0.1794120263147535,"188":-0.06633453806168703,"189":-0.1152686215110572,"190":-0.30175038163268897,"191":0.07575446817468945,"192":-0.10478850370525108,"193":0.2294004104813039,"194":-0.18931035887038206,"195":-0.30320544931181054,"196":-0.16576228162027426,"197":-0.10210117784875548,"198":-0.06037003964618054,"199":-0.2364115166392177,"200":-0.3552700469886481,"201":-0.058696933084756674,"202":0.10696839449415443,"203":0.1648051768532652,"204":0.03783420082893586,"205":0.03981648868986812,"206":0.12204872457075942,"207":0.2620417162221476,"208":-0.1588492489359972,"209":-0.12927698272883661,"210":-0.04655033725305617,"211":0.12193446515276259,"212":0.04617670244927002,"213":0.08795641228869566,"214":-0.04846017784439166,"215":-0.12237643570142362,"216":0.21766511196684057,"217":-0.13764734607575788,"218":-0.11186321881275178,"219":-0.3092166239599653,"220":0.02453756411839957,"221":-0.3399233342207835,"222":-0.11950742915290033,"223":-0.4013396100223345,"224":-0.5644448935814322}},"15":{"bias":0.20745191969182544,"weights":{"0":-0.2092282286809838,"1":-0.17556324839295553,"2":0.023893809165778778,"3":-0.1532940563667649,"4":-0.1852661262873616,"5":0.14696536566825516,"6":0.0730919062587594,"7":0.0764574091611556,"8":0.15984435703057703,"9":-0.10877255588144949,"10":0.4244781790991846,"11":-0.1198148783841077,"12":0.15421399537510874,"13":-0.08152245766950339,"14":-0.3537842819987524,"15":-0.14310714068935662,"16":0.16357654631500146,"17":0.06034723780578576,"18":0.18758953695836442,"19":-0.3500163404741047,"20":-0.22387681388180206,"21":-0.028899615448118615,"22":-0.2685664667834926,"23":-0.027543194261849032,"24":-0.15893261561837857,"25":-0.08514535147643904,"26":0.24145547878974796,"27":0.09886247236202135,"28":0.005756350695732308,"29":-0.21006774819276003,"30":-0.0386187944877259,"31":-0.009743342487566562,"32":-0.11240399945388362,"33":-0.05708998952756857,"34":-0.1350910445099235,"35":-0.043633759446506715,"36":-0.04034399292690505,"37":0.2099172563442036,"38":0.22214584940873258,"39":0.11303964189606447,"40":-0.33049347434967796,"41":-0.06891291018140801,"42":-0.08543476300818906,"43":-0.08002384520036555,"44":-0.17415718976759348,"45":-0.38988060676364206,"46":-0.2495638478437146,"47":-0.08236394512227335,"48":0.22239952869570637,"49":0.020288246327341407,"50":-0.15828339141681208,"51":-0.07494912035377473,"52":0.0872598254691013,"53":-0.008718238406965364,"54":-0.25169204352144137,"55":-0.25855642801054307,"56":0.12682458679901787,"57":-0.0587509209067073,"58":-0.29990231622899977,"59":0.10159104143485792,"60":0.12499388739724782,"61":-0.2196145477357031,"62":0.1112919374470053,"63":0.30813353343039895,"64":-0.005057077236103471,"65":0.14356619231503134,"66":0.06431091356419788,"67":0.30698187171027713,"68":0.23602545231818367,"69":-0.21670751184382403,"70":-0.5767593396418264,"71":-0.10399183992011099,"72":0.04854378152495579,"73":-0.1388875419991068,"74":-0.27905038114699016,"75":0.2007129278458119,"76":-0.23708519760048777,"77":-0.09975568134705798,"78":-0.07773816466391527,"79":-0.20738554607555515,"80":0.003918177402048489,"81":-0.06631539947737657,"82":-0.240474088873675,"83":0.13695440990146998,"84":-0.2856548801758598,"85":0.03103668291542047,"86":0.07573433466692966,"87":0.027631115136867744,"88":-0.0701327720331798,"89":-0.2197815819854625,"90":-0.0568243703988965,"91":-0.06738288043229745,"92":-0.09465638600414462,"93":0.1909808905597646,"94":0.01003960867754072,"95":-0.13848363377046366,"96":-0.10611406335187512,"97":0.2722884721880578,"98":0.4584516730891529,"99":0.1312376194315242,"100":-0.03622158187645323,"101":0.044608293331268686,"102":0.19940030623296556,"103":-0.3229276356467603,"104":-0.5734561781370232,"105":0.31051074115035465,"106":0.035247042335285625,"107":0.06470862239488114,"108":-0.0217680160623694,"109":-0.21851249000265813,"110":-0.08327677134553323,"111":-0.05434474240496945,"112":-0.04457169414577478,"113":0.2013958189436841,"114":0.0665661050400513,"115":-0.04527164996324944,"116":0.0038696200080236155,"117":-0.22321746798456873,"118":-0.27931186988720463,"119":-0.5194056352504597,"120":0.30970818637666375,"121":0.1107361947792994,"122":0.08905613747547436,"123":0.08106764717241954,"124":-0.29836702567119083,"125":-0.016173685964676363,"126":0.3722371892299201,"127":0.0951554123232741,"128":0.252319996129321,"129":0.3941080841071864,"130":-0.12953826387240477,"131":0.022463354255569196,"132":0.00878764333379226,"133":-0.07721721507763246,"134":-0.558517447427953,"135":0.5284696948634472,"136":0.3983670661024895,"137":0.13260310045130125,"138":0.1888540026884423,"139":-0.11729197280240188,"140":0.15508393141034868,"141":0.25617117953134777,"142":0.4253477378407155,"143":0.08659051591442164,"144":0.42698382691589193,"145":0.07060595391031982,"146":-0.0322654248150757,"147":-0.06675494456883795,"148":0.001854373192329098,"149":-0.23994376434342266,"150":0.19383591800549455,"151":0.17462176246221678,"152":0.07719741407787008,"153":0.10968372466192007,"154":0.040686159757161396,"155":0.15958796232831216,"156":0.11815314040905912,"157":0.3426982952120643,"158":0.3322280569446168,"159":0.25238345200489093,"160":0.18519477941433365,"161":0.21577889226839592,"162":-0.10944205724023347,"163":-0.07221293438311835,"164":-0.6612255643011984,"165":-0.2114862007623756,"166":0.353810012727964,"167":0.15889427378938004,"168":-0.01729556625833193,"169":0.07680253890607817,"170":0.1463768792973336,"171":-0.00121846019643958,"172":0.23633445936923528,"173":0.3569148404289403,"174":0.3780118493335523,"175":0.34149334410175186,"176":0.07328103912095493,"177":-0.1880996102559576,"178":-0.3046365708203303,"179":-0.2690594014895667,"180":0.10154775749816776,"181":0.19266458507575096,"182":0.10869279626899432,"183":-0.11855182640971958,"184":-0.14308460281846497,"185":0.0480157645303184,"186":0.24295369561597427,"187":0.3492122698150644,"188":0.2458604480804425,"189":0.01689860001666956,"190":0.07753675797025204,"191":-0.11453060552221915,"192":0.07884766603667859,"193":-0.4775616824544716,"194":0.12755535871039253,"195":-0.23086067643442776,"196":0.027153191350481862,"197":0.34455264159023535,"198":-0.12171166677562395,"199":0.0556521692950381,"200":0.10947450217622387,"201":0.22260267843307463,"202":0.0163695997547615,"203":-0.15515930761743063,"204":0.1385552599201735,"205":-0.10497052215954435,"206":0.229432549370153,"207":-0.29330689827339995,"208":-0.2446260728129544,"209":0.15484861884059317,"210":-0.180625143516893,"211":-0.16647889898632937,"212":0.08849189347254964,"213":0.03970651298416583,"214":0.08463815035595804,"215":-0.14981807195104171,"216":-0.054467600201010914,"217":0.00010669371624353436,"218":0.07942713802289929,"219":-0.009006813674385557,"220":0.06860997070256472,"221":0.30034002919224506,"222":0.11193425886591027,"223":0.21982676450087799,"224":0.4329499599105171}},"16":{"bias":-0.25718237870579597,"weights":{"0":0.2809596260715797,"1":0.3190634640142683,"2":0.3881991336349273,"3":0.1747966826510656,"4":-0.3105175378261363,"5":0.015982743518882694,"6":0.1288383754343755,"7":-0.06738368675100848,"8":0.2700026753279812,"9":0.03850554119054565,"10":0.09677702060883243,"11":-0.10220078071550938,"12":0.19626326227796909,"13":-0.050759948991720996,"14":-0.3786619438622784,"15":0.12817423384241688,"16":0.21346308220992935,"17":-0.08737019200615176,"18":0.023932561115923786,"19":-0.12147800074402554,"20":-0.05510186633821404,"21":0.08767843254756504,"22":0.06007469541073348,"23":-0.17742713614029645,"24":-0.22411570315199944,"25":-0.4023209453402545,"26":-0.25918783147717495,"27":-0.17471553173310858,"28":0.0498574869916072,"29":-0.36589178691438845,"30":0.021140715790931807,"31":-0.42388563288115905,"32":0.2838300850690345,"33":-0.17444443582409502,"34":-0.17605730311357967,"35":-0.332048897154414,"36":-0.0026821736366915224,"37":-0.3441213152839286,"38":-0.2825226532370863,"39":-0.06649083315279763,"40":-0.22599114132868708,"41":-0.14076279833707642,"42":-0.022830984305855884,"43":0.30372144091547654,"44":-0.0014845406083841162,"45":-0.4149085358876302,"46":-0.4122542817852467,"47":-0.09430593830548967,"48":0.12834715338129185,"49":-0.35968055183210185,"50":0.0030325998609897586,"51":-0.19019200321859409,"52":-0.1079713726478386,"53":-0.3235632829935292,"54":-0.005982724347993529,"55":0.18495343611831436,"56":-0.022085838407835984,"57":0.135304318456425,"58":-0.07702511587970103,"59":-0.16190499356433233,"60":-0.3280120415392228,"61":-0.3727721301367304,"62":0.16794065033741512,"63":-0.022251697618654146,"64":-0.024493378770800732,"65":0.020963275472869646,"66":-0.202676759073935,"67":-0.11632428811406612,"68":0.3089367607142578,"69":0.11370521707484511,"70":0.17869305400850172,"71":0.2881239274498956,"72":0.2120067514923722,"73":0.0913384999760724,"74":-0.3012576349448864,"75":-0.4743138301396584,"76":-0.24380683542273393,"77":0.07646925575357488,"78":-0.06474115582055096,"79":0.13157770318226786,"80":0.04788499285402269,"81":0.000325588204334677,"82":0.12172142766107258,"83":0.06822215601303715,"84":0.24351476974155165,"85":0.217030576877343,"86":-0.04187161704982328,"87":0.2555084857994388,"88":0.1323647641058335,"89":0.07991330587572595,"90":-0.3577633235267749,"91":-0.0744436270164712,"92":0.3095716488229702,"93":0.10541758896566963,"94":0.11914154419054529,"95":-0.19616636143063265,"96":0.055978221255414636,"97":0.35137331869426097,"98":0.5170535363261676,"99":0.11843949139212576,"100":-0.02109956712289437,"101":0.10930672310175167,"102":0.6383848367859967,"103":-0.1401701521919705,"104":-0.1695577989287222,"105":-0.3198270082419113,"106":0.13344492486698123,"107":0.437304354659469,"108":0.2701219312944486,"109":0.40723305169240254,"110":0.3042381017091355,"111":0.156069984956301,"112":0.04238978299989949,"113":0.46390047059234024,"114":0.3299109352303896,"115":0.11680173518618206,"116":0.37499897677230054,"117":0.2191160086574929,"118":0.20942519817404778,"119":-0.1596482206900441,"120":-0.13248028927101402,"121":0.008642493483156809,"122":-0.04537963878285241,"123":0.10188723430000826,"124":0.10668313650238176,"125":0.2753132893401883,"126":0.14520165025603216,"127":0.16626077616829907,"128":0.3221273712622223,"129":0.15762147369295154,"130":0.3259418803719477,"131":0.09930650120071889,"132":0.08756161054268506,"133":-0.1803051280853102,"134":0.013088233101659097,"135":-0.19996233333742616,"136":0.013531737824505315,"137":0.1190716854074011,"138":-0.03247001320294865,"139":0.21318663239334937,"140":-0.05266138562461503,"141":0.19986745142044715,"142":0.03831893555939699,"143":-0.08643032652841592,"144":0.09041577777136403,"145":-0.012972574268480497,"146":-0.23599249736864958,"147":-0.0626603468187718,"148":-0.08463058432727695,"149":0.10668974953139103,"150":0.22066585663320554,"151":0.0795874214127794,"152":0.027522906494745508,"153":0.21319806434641558,"154":-0.14130848946203053,"155":0.019250265564369533,